tree
version=v4
num_class=1
num_tree_per_iteration=1
label_index=0
max_feature_idx=41
objective=binary sigmoid:1
feature_names=Column_0 Column_1 Column_2 Column_3 Column_4 Column_5 Column_6 Column_7 Column_8 Column_9 Column_10 Column_11 Column_12 Column_13 Column_14 Column_15 Column_16 Column_17 Column_18 Column_19 Column_20 Column_21 Column_22 Column_23 Column_24 Column_25 Column_26 Column_27 Column_28 Column_29 Column_30 Column_31 Column_32 Column_33 Column_34 Column_35 Column_36 Column_37 Column_38 Column_39 Column_40 Column_41
feature_infos=[-9.5417556762695312:0.57615166902542114] [-10.604090690612793:15.509989738464355] [-0.15927264094352722:10.514847755432129] [-0.21464009582996368:4.659121036529541] [-16.638830184936523:11.587912559509277] [-1.6481232643127441:1.060633659362793] [-1.852384090423584:0.80246692895889282] [-1.6066153049468994:6.1041173934936523] [-3.8705673217773438:3.5028033256530762] [-0.24976517260074615:4.0037355422973633] [-3.8705482482910156:3.5028176307678223] [-2.5619933605194092:2.324256420135498] [-0.29591724276542664:5.3876962661743164] [-0.12206530570983887:8.193023681640625] [-1.6132041215896606:2.2400610446929932] [-2.2352168560028076:6.712040901184082] [-1.4057592153549194:1.4789265394210815] [-3.924114465713501:2.2725629806518555] [-0.31475001573562622:3.1772325038909912] [-9.7137746810913086:0.2258845716714859] [-2.2589957714080811:3.545527458190918] [-0.10421529412269592:11.40748119354248] [-0.26533186435699463:3.7691340446472168] [-2.4222369194030762:3.7824089527130127] [-2.1183123588562012:3.8650679588317871] [-0.20456099510192871:6.1893129348754883] [-0.19123819470405579:9.0260829925537109] [-4.0841889381408691:3.670274019241333] [-0.55043363571166992:1.816709041595459] [-0.27161163091659546:3.6818466186523438] [-1.1131700277328491:2.6260921955108643] [-2.3912379741668701:0.41819858551025391] [-0.32089352607727051:3.116098165512085] none none [-0.50266242027282715:1.9894309043884277] [-0.12572541832923889:7.9539122581481934] [-0.328094482421875:3.0480074882507324] [-0.33518558740615845:2.9835414886474609] [-3.4217655658721924:0.29223498702049255] [-2.7508516311645508:5.709559440612793] [-1.2315853834152222:3.8380656242370605]
tree_sizes=5544 5312 4800 6142 5529 6576 6162 6996 5212 6483 5107 6576 6052 5946 4802 6799 6550 4775 6798 4782 4579 4567 7620 7199 4376 4583 4544 5411 4677 4683 6800 4992 4661 5411 6996 7117 4491 5120 4996 6379 6461 4703 7209 7206 6875 6891 7647 8127 5303 5528 5314 6676 7004 7127 6912 7332 7303 8678 6191 7024 7299 7534 5971 7016 6803 6479 6625 5984 5865 6195 6083 7332 6621 8061 7220 6163 7141 7264 6300 8280 4187 6514 6195 6621 6416 5873 5810 4908 6410 8534 6522 7656 5150 7862 7891 5840 4513 7126 7045 7150 5960 4699 7878 7333 6886 5972 5015 6578 7480 5965 5351 4828 7950 4701 4406 4958 4523 7775 4281 6916 5194 5423 6091 6476 5592 5674 5404 6998 5142 5370 5981 5575 5673 5581 5677 4287 5454 5248 3997 4289 4701 7182 5034 4725 5271 7051 6086 5743 4637 4803 8097 4723 4965 4306 5199 7463 7354 5781 5939 7890 6211 5779 5735 6286 6507 4663 6121 4797 4394 6232 4651 4925 4601 7374 4325 4738 6101 4288 3260 4608 4114 3881 3803 4931 3131 4508 6831 3237 6089 3368 3614 4089 4933 3435 7400 3948 3234 6400 3753 3151 4710 3688 3158 4313 6334 3462 4409 3773 3159 5027 3261 5684 3122 3585 3823 5793 4667 5937 6394 2725 3355 4256 6888 5545 3432 3817 3035 4510 3614 3702 3430 3793 3377 3736 6543 4382 3477 3361 4394 3350 4419 3788 5663 4830 4608 3255 3599 4640 3803 3351 3454 4106 4446 5332 6137 4920 4574 2601 3079 3470 5168 3148 3750 4396 3830 3760 4370 4922 4882 5771 4731 3934 4309 5724 4522 5034 3159 4250 3601 2289 3279 4590 4929 2281 3693 3464 5116 3751 6000 5122 3828 4303 3551 4964 4205 3529 6449 3163 4608 4591

Tree=0
num_leaves=54
num_cat=0
split_feature=30 7 30 5 23 19 41 23 19 19 23 17 15 4 23 30 18 11 23 15 41 41 41 6 27 23 1 30 27 1 30 11 1 30 7 30 7 1 27 17 11 15 17 6 15 17 11 1 17 0 41 41 17
split_gain=2039.13 241.114 231.351 155.677 94.451 76.7462 57.4303 63.6247 55.0079 51.7577 112.449 43.14 70.6108 42.2414 41.2705 56.8278 37.8299 33.3277 29.8031 46.7645 27.8882 29.6122 20.8485 27.7601 20.0374 16.0635 42.3566 35.399 37.9864 22.9653 20.8224 26.1001 14.7883 12.1006 13.9288 11.757 8.94425 8.65742 5.69665 7.11209 9.93412 18.6901 4.9985 3.87439 3.86854 2.21724 3.87009 1.78055 1.739 1.58417 1.26613 3.23923 2.71722
threshold=-0.16151113808155057 -0.34909884631633753 -0.3464787751436233 0.72203904390335094 0.0081069134175777453 0.14397249370813373 -0.26986767351627344 -0.67974081635475148 0.14429535716772082 0.14430031925439837 0.84199109673500072 0.15645744651556018 -0.22913233190774915 0.055596187710762031 2.0408400297164921 -0.67210641503334034 1.0000000180025095e-35 0.047397356480360038 -0.344605803489685 -0.22906879335641858 -0.28522382676601404 -0.16344623267650601 -0.15002699196338651 0.80231234431266796 0.21841108053922656 0.13176860660314563 -0.022663599811494347 -0.39680154621601099 -0.56029814481735218 6.1561851501464853 -1.0726141333580015 -0.20400746911764142 -0.047786908224225037 -0.57234075665473927 0.96237096190452587 -0.97210416197776783 -0.49444822967052454 -0.046645311638712876 -0.81287863850593556 0.39686226844787603 1.4867143034935 0.34201501309871679 0.35885038971900945 0.63043767213821422 -0.23879189044237134 0.49329555034637457 1.220865845680237 -0.046713976189494126 0.49329555034637457 0.15841626375913623 -0.23887109756469724 -0.32778044044971461 -0.98242360353469838
decision_type=2 2 2 2 2 2 2 2 2 2 2 2 2 2 2 2 2 2 2 2 2 2 2 2 2 2 2 2 2 2 2 2 2 2 2 2 2 2 2 2 2 2 2 2 2 2 2 2 2 2 2 2 2
left_child=1 14 3 11 -4 6 7 37 -7 13 -11 12 16 -2 25 24 -3 32 19 -13 -6 47 35 -24 -16 26 27 30 -29 -28 31 -1 -10 43 -35 -14 -32 -5 39 40 41 -27 49 -20 -40 -41 -47 -22 -8 -26 51 -46 -52
right_child=9 2 4 5 20 8 48 -9 17 10 -12 18 22 -15 15 -17 -18 -19 33 -21 21 -23 23 -25 42 38 29 28 -30 -31 36 -33 -34 34 -36 -37 -38 -39 44 45 -42 -43 -44 -45 50 46 -48 -49 -50 -51 52 -53 -54
leaf_value=1.1176722230531246 1.0193301714951244 1.0282443211104542 1.0222238153131376 1.0819209989689451 1.0384645076108925 1.023762328305668 1.1064406418877577 1.0277941358787124 1.1192867540352254 1.1099128583937448 1.0239009730970003 1.1162195918365827 1.0587393964888305 1.0842183364180853 1.0505778638037409 1.0332775826359848 1.1056254940504653 1.0354813277816086 1.1206563996234118 1.0351268096567254 1.1022114081298628 1.0434930841287544 1.0375096844911849 1.101134747059916 1.0893523464295509 1.0443066325600312 1.0366424938136252 1.108045534595822 1.0354813277816086 1.1035594016304684 1.1156444285491813 1.0413347323375481 1.0768248980937356 1.0887900056969828 1.1137480738357302 1.1074858282113149 1.1045784403151147 1.1147550425920199 1.1056134648897564 1.1211842780694559 1.1133337933126293 1.110074605713137 1.1158295065077188 1.1111346644332969 1.1181607252500612 1.0985402803098707 1.1192867540352254 1.117729450428919 1.1194199313544744 1.1056254940504653 1.105616822662004 1.1040049893606747 1.1203977255770845
leaf_weight=2.7686054706573486 113.22028420865536 7.5132354497909528 21.704902410507202 4.9599658101797104 3.1305147707462337 14.922120407223703 9.9754242897033691 7.9306374192237845 5.641561433672905 9.5580223202705401 14.504718437790869 5.8502624183893204 1.0435049235820759 4.7512648254632941 1.5652573853731215 4.591421663761138 3.2903579324483871 3.8609682172536841 89.479036822915077 3.9653187096118909 6.9981178343296051 2.2957108318805668 3.3392157554626447 7.1024683266878128 4.3338628560304668 2.19136033952236 3.547916740179061 6.4763653725385666 3.8609682172536832 3.3947084248065948 325.45892322063446 2.6087623089551917 5.4817182719707471 12.792887583374975 24.653255581855774 76.304335400462151 34.260135725140572 5.9546129107475299 10.079774782061575 14.156078830361368 6.0589634031057358 3.0816569477319717 14.990882769227026 28.569716468453407 26.482706621289253 7.4155198037624341 5.641561433672905 5.7459119260311127 11.491823852062225 3.2903579324483871 6.6850663572549811 10.28847576677799 257.98879154026508
leaf_count=1 1085 72 208 22 30 143 19 76 3 15 139 5 10 20 15 44 6 37 66 38 16 22 32 17 16 21 34 11 37 7 387 25 27 46 32 144 73 6 20 8 7 4 16 44 24 20 3 4 8 6 13 22 200
internal_value=1.09861 1.10757 1.09443 1.09992 1.04952 1.07367 1.09208 1.06739 1.04993 1.02744 1.05723 1.10698 1.09653 1.02178 1.11403 1.0908 1.05058 1.07917 1.11319 1.0808 1.08451 1.09737 1.10264 1.0774 1.10381 1.11495 1.11202 1.11296 1.07794 1.06612 1.11401 1.07778 1.09845 1.11535 1.10514 1.1063 1.11462 1.09952 1.1181 1.1102 1.0971 1.07876 1.10945 1.11849 1.11903 1.11558 1.10819 1.11024 1.11409 1.09661 1.11944 1.1145 1.12006
internal_weight=1277.25 1135.22 373.998 334.122 39.8752 70.2188 40.3125 18.8452 29.9064 142.034 24.0627 263.904 98.5931 117.972 761.218 28.7718 10.8036 14.9842 165.31 9.81558 18.1703 15.0397 87.7895 10.4417 24.1804 732.446 382.376 375.434 10.3373 6.94263 365.096 5.37737 11.1233 155.495 37.4461 77.3478 359.719 10.9146 350.07 38.5451 11.332 5.27302 22.6151 118.049 311.525 27.2132 13.0571 12.744 21.4672 7.62422 301.445 36.7712 264.674
internal_count=3406 2147 1133 853 280 341 131 104 210 1259 154 512 281 1105 1014 97 78 67 231 43 72 42 203 49 53 917 575 534 48 41 486 26 30 188 78 154 460 28 342 63 32 25 38 110 279 31 23 20 27 22 259 46 213
is_linear=0
shrinkage=1


Tree=1
num_leaves=49
num_cat=0
split_feature=30 6 6 30 24 23 5 41 14 15 1 7 15 1 20 27 7 27 7 10 20 37 7 6 20 30 23 25 7 15 6 10 7 11 20 19 1 23 20 14 19 7 1 27 19 27 10 1
split_gain=1916.66 226.894 141.069 115.02 84.504 118.192 79.7786 85.1774 51.5966 43.3809 65.376 41.897 37.1731 32.3149 37.773 30.1818 29.2867 84.2177 41.1442 26.2215 35.6562 22.8525 18.5691 38.7176 16.9744 53.1576 41.1895 32.1555 18.987 17.9824 33.4252 31.4997 17.5668 26.1512 16.8607 15.5892 35.2161 14.8794 13.5751 18.9425 13.5652 21.4427 11.3806 8.95335 5.18537 4.76111 4.49576 2.78414
threshold=-0.32677173614501948 -1.5656322240829466 0.50595387816429149 -0.16151113808155057 0.17556107789278033 0.35703495144844061 0.99291470646858226 -0.26986767351627344 0.79692497849464428 -0.22916044294834134 -0.047428553923964493 2.6481208801269536 -0.23879189044237134 -0.04776914790272712 0.60591182112693798 -1.8101537823677061 -0.34909884631633753 0.90634813904762279 0.28424414992332464 1.928672790527344 2.5786306858062749 1.0000000180025095e-35 -1.0123875141143797 -1.5983335375785825 -0.41528454422950739 -0.42811720073223108 -0.47601409256458277 4.9389605522155771 -0.90437492728233326 -0.23879189044237134 -0.80150797963142384 -0.188701257109642 0.11356437951326372 1.3184551596641543 0.35561811923980718 0.14430031925439837 -0.04760805889964103 2.0408400297164921 -0.41528454422950739 0.8659799098968507 0.14429488033056262 -0.10688469558954238 -0.04775304161012172 0.0039452207274734983 0.14430031925439837 0.59648671746253978 0.15571909397840503 -0.047777717933058732
decision_type=2 2 2 2 2 2 2 2 2 2 2 2 2 2 2 2 2 2 2 2 2 2 2 2 2 2 2 2 2 2 2 2 2 2 2 2 2 2 2 2 2 2 2 2 2 2 2 2
left_child=2 3 19 22 11 8 9 12 -6 10 -4 -3 -8 14 -9 -11 38 18 -18 24 -21 -14 -2 -24 25 26 -1 -27 -28 30 31 -26 37 46 -23 36 -10 44 39 -17 -16 -42 -39 -30 -31 -15 -34 -40
right_child=1 4 6 -5 5 -7 7 13 35 15 -12 -13 21 45 40 16 17 -19 -20 20 -22 34 23 -25 29 27 28 -29 43 32 -32 -33 33 -35 -36 -37 -38 42 47 -41 41 -43 -44 -45 -46 -47 -48 -49
leaf_value=-0.056198792877317091 0.019973899375527897 -0.074957133356538169 -0.067045238971137497 -0.068145275822825091 -0.062666896730742785 -0.072563555786799683 0.011303823941096145 -0.064081832951776732 -0.057911500348030817 -0.054171683979760563 0.008557592268507672 -0.009041514480185784 -0.071860931873416051 0.00033000412846643932 0.018998684720295173 -0.026531502392050373 -0.012786660715183211 -0.066250574571225962 0.012223615085280836 -0.059726867410586561 0.013153107854041278 -0.051358579367225481 -0.059311244580652879 0.017585120331878593 0.013695574342474566 -0.06477086014001604 -0.043329225272554284 0.011309396788523291 0.00089202574802425708 0.020067182701403678 0.016501979628114682 -0.064293304343876173 0.017932859858379314 -0.053016707980540818 0.011302742856913532 0.019047181903701419 0.014743550738805827 -0.0214781736365274 0.020330226227130307 0.020496552375289894 -0.055247951389432254 0.01371938909628787 0.012197722902343743 0.017972295506001407 0.013060037064694109 0.020302398865016977 -0.002128616465344047 0.01103907620924921
leaf_weight=2.3888598456978789 20.2507843002677 122.69805977493525 7.1904835328459766 9.1898333728313428 4.8567706719040897 22.579552918672562 3.0588781386613872 4.7780201137065879 3.3512563630938557 2.1957422345876685 9.8311595693230611 4.3563311845064154 14.783964872360231 7.2848386615514764 5.7073707133531553 6.1479340195655805 35.672673784196377 5.9562258198857299 92.238997153937817 3.398420572280882 6.1121092736721039 2.1563988476991645 3.2907522618770617 5.8432954028248751 2.9518991410732278 4.9792158976197225 1.2591223865747441 3.0597302913665771 14.414723977446554 499.27624510228634 15.036223001778124 4.0468746796250361 8.7578898593783432 2.2350629866123191 3.0584147498011589 11.63701109588146 6.0640522465109816 5.5134097114205352 69.722969047725201 5.5799483507871628 2.5536460280418396 2.9551456421613693 9.4473482966423017 98.263177506625652 56.358900263905525 14.314411118626595 7.5977348759770384 22.341268062591553
leaf_count=23 17 1133 67 85 45 209 4 45 31 21 18 16 138 19 4 33 136 56 147 32 8 20 31 5 3 47 12 4 37 460 17 39 8 21 4 10 7 27 61 3 24 3 14 107 85 11 22 37
internal_value=-5.0175e-06 -0.0544527 0.0110051 -0.01016 -0.0640618 -0.0401139 -0.000153133 -0.0205975 -0.0101142 0.00472736 -0.0252166 -0.0728009 -0.0499885 -0.00169073 -0.0225315 0.00695655 0.00775431 0.001527 0.00518802 0.0157568 -0.0159038 -0.0595505 0.00955448 -0.0130402 0.0161899 0.00930114 0.012848 -0.0375448 0.0147894 0.0175708 -7.49857e-05 -0.0335497 0.0182331 -0.000756829 -0.0183814 0.00421093 -0.0140023 0.0188556 0.0156758 -0.00414674 -0.000870835 -0.02152 -0.000655501 0.0158319 0.0193848 0.0139674 0.00891271 0.0182399
internal_weight=1276.74 214.118 1062.63 38.5747 175.543 48.4886 317.528 60.6511 25.9091 256.877 17.0216 127.054 23.0577 37.5934 15.9942 239.856 237.66 133.868 127.912 745.097 9.51053 19.9988 29.3848 9.13405 735.586 124.365 116.326 8.03895 113.937 611.222 22.035 6.99877 589.187 18.5907 5.21481 21.0523 9.41531 570.596 103.792 11.7279 11.2162 5.50879 14.9608 112.678 555.635 21.5992 16.3556 92.0642
internal_count=3406 1589 1817 138 1451 302 851 272 93 579 85 1149 166 106 76 494 473 339 283 966 40 162 53 36 926 230 179 51 156 696 59 42 637 51 24 48 38 586 134 36 31 27 41 144 545 30 30 98
is_linear=0
shrinkage=0.02


Tree=2
num_leaves=44
num_cat=0
split_feature=30 6 6 30 5 17 24 23 24 14 15 40 1 14 17 36 27 40 6 17 20 24 41 27 20 8 11 0 15 6 8 20 30 16 40 40 0 30 11 8 5 41 11
split_gain=1806.3 205.041 137.515 107.661 76.3456 106.669 73.9304 107.24 59.4907 48.5296 41.5766 74.2769 39.4569 41.3841 35.4523 34.1212 28.9248 28.0665 27.3483 26.2613 26.1202 48.5415 59.5771 28.2803 25.0337 24.0894 19.7809 24.3482 16.5808 32.064 29.5399 12.3294 25.4148 10.7736 10.2334 24.0902 7.63904 2.53824 2.51398 4.29902 0.938396 0.859899 0.130722
threshold=-0.32677173614501948 -1.5656322240829466 0.50595387816429149 -0.16151113808155057 0.99291470646858226 0.4323048740625382 0.17556107789278033 0.35703495144844061 0.56192833185195934 0.79692497849464428 -0.22916044294834134 0.81443867087364208 -0.04776914790272712 -0.94013184309005726 -1.2100338935852049 1.0000000180025095e-35 -1.8101537823677061 1.949036240577698 -1.6881608366966245 0.35885038971900945 0.1065880134701729 -0.13789291679859159 -0.17839288711547849 0.80038219690322887 -1.0869606137275694 0.75482267141342174 -0.29147581756114954 0.14690376073122027 -0.23879189044237134 -0.80150797963142384 -0.18649916350841519 -0.40710498392581934 -0.43270394206047053 1.0000000180025095e-35 0.96732509136199962 -0.8674836754798888 0.14690477401018145 -0.36918325722217554 0.81110909581184398 -0.77017512917518605 1.0000000180025095e-35 -0.21193720400333402 -0.2228109389543533
decision_type=2 2 2 2 2 2 2 2 2 2 2 2 2 2 2 2 2 2 2 2 2 2 2 2 2 2 2 2 2 2 2 2 2 2 2 2 2 2 2 2 2 2 2
left_child=2 3 14 33 10 8 15 9 -6 -8 11 -4 13 -7 18 -3 -12 24 -1 -19 21 23 -23 -18 25 -16 -11 -28 29 30 -26 32 -30 42 35 -35 -33 -10 40 -40 -22 -14 -2
right_child=1 6 4 -5 5 12 7 -9 37 26 16 -13 41 -15 17 -17 20 19 -20 -21 38 22 -24 -25 28 -27 27 -29 31 -31 -32 36 -34 34 -36 -37 -38 -39 39 -41 -42 -43 -44
leaf_value=0.0043991650376532833 0.021086529299945922 -0.071026281156637061 -0.065480963744559556 -0.065034348020978613 -0.069563674930929298 0.0080238531023223633 -0.060149829959724101 -0.068917943182054714 -0.011681303673392105 0.0163654885118974 -0.052451969618724975 0.013955728814649815 0.010284078972167786 -0.06234917357239686 -0.056532835468003716 -0.013330252771898355 0.0090242003570412711 -0.057085875184635614 -0.058508392816115189 0.0067466199622569544 0.013124519064102131 -0.067166510846722996 0.0043071317636277804 -0.029965847812756997 0.013562043202895464 0.016085891806628335 -0.055001360480162714 0.016126309562497946 0.014193269694780637 0.016321047934560805 -0.061656538998803613 0.019454649011166791 -0.01780507797038686 0.016205991379045642 0.018741700012773851 -0.055546900749191587 0.011301214829778014 0.0089476313717498143 0.02035157094360451 -0.0014884793440220197 0.021470832827931909 0.020850525174241696 0.012650101863247158
leaf_weight=6.8249472454190254 8.3972630053758639 126.47977532446384 8.0181823298335093 9.4816054329276067 17.843861445784572 6.5328023433685285 4.9991667419672039 23.343301571905613 4.5664193406701088 14.939003475010399 2.2545556128025046 9.1887191236019117 9.6104303076863307 5.3617786839604378 2.7652549967169753 4.8604163825511923 141.3103911280632 3.0016904696822149 3.4515398070216161 6.6223399266600609 15.344862215220926 7.2971535474061993 10.291143365204332 6.8669963851571074 2.9313968420028695 2.822465606033802 3.2180539593100521 2.8292051553726196 107.42392574995756 14.911202207207678 4.1769471466541308 516.8415597230196 10.026760138571261 2.8424474969506281 2.7105169296264648 2.9339260831475222 57.197167672216892 3.1527900993823996 5.5290697887539864 7.4273274764418584 42.618660487234592 14.093220487236975 12.337895162403585
leaf_count=15 5 1129 73 85 162 12 45 209 18 17 21 12 16 49 26 20 265 28 32 13 22 68 23 39 3 2 29 2 152 17 39 500 44 2 1 27 95 5 3 21 32 10 18
internal_value=-1.31623e-05 -0.0521025 0.0108419 -0.00996101 -0.000166257 -0.0200624 -0.0610147 -0.0387043 -0.0503975 -0.00994044 0.00463619 -0.0245142 0.00244849 -0.0259186 0.015565 -0.0690231 0.00683716 0.016094 -0.0198669 -0.0164735 0.00762864 0.00322511 -0.0272568 0.00701511 0.0165549 -0.0226744 0.00412084 -0.0238742 0.0168962 -9.50225e-05 -0.0325436 0.0174395 0.0113174 0.00940294 -0.00871785 -0.0227624 0.0186668 -0.00296648 0.0177055 0.00847876 0.0195553 0.0172371 0.0169716
internal_weight=1275.68 219.373 1056.31 38.7037 317.308 61.1613 180.669 49.3287 25.5631 25.9854 256.147 17.2069 35.5982 11.8946 738.997 131.34 238.94 728.721 10.2765 9.62403 236.686 165.766 17.5883 148.177 719.097 5.58772 20.9863 6.04726 713.509 22.0195 7.10834 691.489 117.451 29.222 8.48689 5.77637 574.039 7.71921 70.9199 12.9564 57.9635 23.7037 20.7352
internal_count=3406 1589 1817 138 851 272 1451 302 185 93 579 85 87 61 966 1149 494 919 47 41 473 395 91 304 878 28 48 31 850 59 42 791 196 53 30 29 595 23 78 24 54 26 23
is_linear=0
shrinkage=0.02


Tree=3
num_leaves=57
num_cat=0
split_feature=30 6 7 27 30 17 15 18 24 23 40 20 14 6 14 40 4 40 7 6 40 17 23 23 30 14 40 30 23 27 7 6 0 4 15 15 30 1 0 23 27 27 0 15 19 17 6 40 23 23 23 7 4 23 8 8
split_gain=1706.09 186.652 134.834 128.531 101.12 81.7413 78.4251 68.0096 65.26 97.825 60.0171 48.2865 45.7403 44.3667 44.3042 41.2719 36.6191 35.4151 34.5318 29.5112 40.0398 60.0986 34.0856 29.3962 31.8459 28.1014 22.21 19.278 44.7406 18.814 17.8235 35.4738 14.8014 38.5393 11.7792 22.7573 23.8063 19.1865 10.0845 8.27651 6.57408 5.92879 15.8748 5.89168 15.6091 4.82652 4.20498 3.75483 5.83399 3.70278 2.76174 1.9554 1.81518 1.59885 0.919116 0.245781
threshold=-0.32677173614501948 -1.5656322240829466 -0.34909884631633753 -0.85626885294914235 -0.16151113808155057 0.15645744651556018 -0.2290949150919914 1.0000000180025095e-35 0.17556107789278033 0.35703495144844061 -0.5845232605934142 -0.55513682961463917 0.79692497849464428 -1.0753930211067197 -0.1091111972928047 0.171473003923893 -0.25204919278621668 -1.174384534358978 2.6481208801269536 0.61040842533111583 -0.71595391631126393 0.60518676042556774 -0.75525826215744007 2.0408400297164921 -0.67210641503334034 1.6915464997291567 -0.033453596755862229 -0.5383433699607848 0.2992659211158753 0.21841108053922656 -1.0123875141143797 -1.5983335375785825 0.14690376073122027 0.033184761181473739 -0.22928757965564725 -0.23107779026031491 -0.89536970853805531 -0.056396853178739541 0.13758979737758639 -0.344605803489685 1.0594146847724917 -1.1346282958984373 0.095762696117162718 -0.22899398952722547 0.14397249370813373 0.35885038971900945 -0.32354427874088282 -0.5282362401485442 0.8743044137954713 -0.38185970485210413 -0.07753515243530272 2.421169757843018 0.030486397445201877 2.8254102468490605 -0.96311885118484486 0.72878330945968639
decision_type=2 2 2 2 2 2 2 2 2 2 2 2 2 2 2 2 2 2 2 2 2 2 2 2 2 2 2 2 2 2 2 2 2 2 2 2 2 2 2 2 2 2 2 2 2 2 2 2 2 2 2 2 2 2 2 2
left_child=2 4 11 17 30 6 7 -5 18 12 43 13 -10 40 15 -12 -15 -4 -3 27 39 26 -23 34 29 -16 -22 54 -29 -25 -2 -32 33 -14 35 37 -37 -13 -39 49 52 42 -36 -8 -45 53 -44 48 -43 -21 -49 -41 -1 -31 -7 -56
right_child=1 8 3 5 -6 19 10 -9 9 -11 14 23 32 16 25 -17 -18 -19 -20 20 21 22 -24 24 -26 -27 -28 28 -30 45 31 -33 -34 -35 41 36 -38 38 -40 51 -42 47 46 44 -46 -47 -48 50 -50 -51 -52 -53 -54 -55 55 -57
leaf_value=-0.011032533571045965 0.019648737858296413 -0.067542626300865716 0.0030641376858241889 -0.067460890689850561 -0.062236806853222401 0.0066170439497288567 0.020343601954480636 0.0081599811195474277 -0.057851102348512096 -0.06568153544675924 -0.031328835664311667 -0.04279896110967301 -0.055649838227949812 0.01164778778034636 -0.066377227970427582 0.013153681868158887 -0.06599725269474617 -0.066580401901414038 -0.0082618848226887181 -0.013977874284723319 -0.026322741480184139 0.0035724528404068455 -0.067394552373834446 -0.046035587434215403 -0.055493561635138883 -0.0016263992263872765 0.013654353694704682 -0.058512975986288948 0.015756042874236709 -0.009417341062311577 -0.055794501828823478 0.017254322912399072 0.018710109868182178 0.018822600131482653 -0.04190170208854644 0.013354015544615556 -0.057996455265465062 -0.0016208507027235129 0.019132107435385286 0.010874084960716693 0.020955255051233159 -0.0038471917110442888 0.016479773459050297 0.014749801635559312 -0.014479171842552763 0.016822690729918263 0.0035389268962080201 0.017164537725701492 0.017818731313517879 0.011008788715130613 0.020742107904026318 0.02152059064624352 0.0064592938403558141 0.0069529412097755492 0.022456655254468414 0.015951112941045092
leaf_weight=4.3924332708120373 19.893237084150318 130.82560367137194 3.5091785639524486 14.244897097349169 9.75175843387842 3.2353419810533515 20.005487225949764 6.5621580332517615 5.1321990564465549 24.045517385005951 13.542784683406351 1.4234542474150647 3.8390877768397349 3.1078705191612244 9.1149971634149534 18.60165298730135 6.679255045950411 13.077404096722601 4.4391341209411612 4.7913994416594505 6.3514080345630672 3.5691593140363684 8.5573049336671811 1.6237782835960448 3.0667895302176467 3.804790385067462 21.794953279197216 3.3241286799311629 11.98503804206848 4.315671160817149 3.4433619081974047 5.740605160593983 11.428824491798876 5.6492880135774612 1.1451373100280751 2.8983350768685341 2.9637450873851767 11.29071358591318 46.067989744246006 15.797296792268751 8.3288202881813032 7.5425460860133198 50.319494515657425 24.248915649950504 9.3194767460226995 14.71093115210533 13.807966403663157 197.23939935863018 11.490402556955813 3.0155556723475447 314.33604349941015 25.332320861518383 3.2178878933191299 3.2820307835936546 75.250038154423237 17.752598159015179
leaf_count=17 17 1133 8 128 85 6 16 12 45 209 76 13 34 4 83 27 62 117 16 20 34 8 79 15 28 11 31 31 14 16 31 5 10 4 11 3 28 32 44 26 5 23 60 32 38 16 32 228 11 4 266 18 6 6 51 21
internal_value=-1.83667e-05 -0.0499777 0.0106837 0.000244945 -0.00974768 0.00313262 -0.00990821 -0.0442392 -0.0582967 -0.0374083 -0.00227492 0.0156027 -0.00977276 -0.0109152 -0.0190819 -0.00590671 -0.0423618 -0.0523958 -0.0656867 0.0109121 0.00226752 -0.0123095 -0.0476737 0.0166123 -0.00365919 -0.048939 0.00397103 0.0177263 -0.00284655 0.00486219 0.00927331 -0.0127269 0.00403369 -0.0135519 0.0174482 0.00906465 -0.0256227 0.0129281 0.015055 0.0143101 0.00963686 0.0183376 0.0121959 0.0119164 0.0063931 0.0104688 0.0138212 0.019065 0.00936948 -0.00394518 0.0194028 0.0178341 -0.00351295 -0.00212694 0.0210152 0.021419
internal_weight=1274.23 224.189 1050.04 336.788 38.829 320.202 119.445 20.8071 185.36 50.0949 98.6381 713.251 26.0494 25.7263 45.0642 32.1444 9.78713 16.5866 135.265 200.757 89.2094 40.2728 12.1265 687.524 26.9992 12.9198 28.1464 111.547 15.3092 23.9324 29.0772 9.18397 20.9172 9.48838 660.525 64.6442 5.86208 58.7822 57.3587 48.9366 15.9391 595.881 65.2726 53.5739 33.5684 22.3086 64.1275 530.608 19.0329 7.80696 511.575 41.1296 7.61032 7.5977 96.238 93.0026
internal_count=3406 1589 1817 891 138 766 423 140 1451 302 283 926 93 94 197 103 66 125 1149 343 220 152 87 832 81 94 65 123 45 53 53 36 48 38 751 120 31 89 76 68 28 631 103 86 70 38 92 528 34 24 494 44 23 22 78 72
is_linear=0
shrinkage=0.02


Tree=4
num_leaves=51
num_cat=0
split_feature=6 5 17 17 17 15 24 8 1 17 23 24 23 41 41 41 24 4 23 17 1 23 4 17 10 23 8 17 8 0 8 41 0 27 14 24 4 27 8 15 4 41 14 41 15 4 19 8 27 27
split_gain=464.049 172.74 116.857 98.2161 67.7147 108.493 67.2082 63.2346 60.2037 80.4682 60.0204 52.5992 47.0515 47.3084 42.9371 50.4252 47.0835 37.807 36.8709 40.2911 47.3077 37.546 36.062 35.9428 32.5771 31.8922 31.1709 30.7875 55.8247 29.12 54.3759 28.5588 30.3897 24.1276 23.4628 22.9759 30.0828 43.73 29.8679 32.3788 19.9147 18.2685 16.5791 15.3189 14.9457 14.1779 13.9763 1.02775 3.19284 0.517675
threshold=0.50595387816429149 0.99291470646858226 0.4323048740625382 -0.74163174629211415 0.23928146809339526 -0.22913233190774915 0.48257255554199224 1.9804790019989016 -0.046052757650613778 0.60518676042556774 0.21090225130319598 1.7577235102653506 -1.0614266991615293 -0.10257339850068091 1.1010802388191225 -0.11194306984543799 1.4763127565383913 0.033184761181473739 0.40219958126544958 1.174185633659363 -0.023918250575661656 -1.1001043915748594 -1.7357127070426939 -0.6168856918811797 0.32466347515583044 1.9387403726577761 1.5889204740524294 -0.33215139806270594 -0.83459725975990284 0.14768509566783908 -0.18649916350841519 -0.16344623267650601 0.14690477401018145 -0.36001431941986078 1.300466060638428 -0.48994173109531397 0.018365210853517059 0.82792556285858165 -0.43376798927783961 -0.21924985945224759 0.030502160079777244 -0.36722692847251887 0.99952766299247753 -0.10257339850068091 -0.23879189044237134 0.030363032594323162 0.14429571479558947 0.26181814074516302 0.4478375911712647 0.027587133459746841
decision_type=2 2 2 2 2 2 2 2 2 2 2 2 2 2 2 2 2 2 2 2 2 2 2 2 2 2 2 2 2 2 2 2 2 2 2 2 2 2 2 2 2 2 2 2 2 2 2 2 2 2
left_child=3 4 6 10 5 -2 -3 12 9 43 22 -8 13 23 15 16 -12 27 19 24 21 -21 -1 -5 31 35 -26 34 42 30 -27 45 -33 -9 41 38 37 -37 39 -14 -40 -7 -29 46 -38 -6 -4 -20 -49 -10
right_child=1 2 8 7 18 17 11 33 49 -11 14 -13 25 -15 -16 -17 -18 -19 47 20 -22 -23 -24 -25 26 29 -28 28 -30 -31 -32 32 -34 -35 -36 36 44 -39 40 -41 -42 -43 -44 -45 -46 -47 -48 48 -50 -51
leaf_value=0.0073352899044331343 -0.062590234309161052 -0.064691172906097563 0.0071118790565187408 0.015757591782857416 -0.0092764608804398532 -0.013829395598205362 0.015546556760490823 0.0045244763337592567 0.019784161443818657 -0.061963214421954245 -0.059237210255046788 -0.057535053559001854 -0.05753979367179584 0.016406852064328563 -0.056051734775030136 0.020075391785932584 0.012926264560506247 -0.059955208890993532 0.021457074299590886 0.011085309685692744 0.015703318030784168 -0.063499207843012481 -0.063957342753269517 -0.060415385831944536 -0.058444537486204658 0.015759843602703414 0.015701427836100706 -0.025921961894895883 -0.061569602842720866 0.012123405849092803 -0.060803826970375695 -0.059909504131029565 0.015741743566410581 -0.058743987121104631 -0.052045119008023721 -0.059793479008768254 -0.0065048562346919307 0.010749811368078781 0.012033755520529156 0.0045407929145517695 -0.017177210084952658 0.0045150429905326857 0.013053582966872148 0.020707611815189986 0.015342218719295657 0.0083889723691180744 -0.049206297975736606 0.0012177392728710235 0.018534440561430793 0.0098148094514375894
leaf_weight=3.3259980753064164 19.041648328304291 53.023905098438263 3.2970138862729064 2.76720206439495 21.993531689047813 33.001054555177689 8.8220801800489408 3.3369816318154335 8.4060528129339236 14.405088774859903 6.9241988360881752 5.6551965624094001 5.2716733366250992 8.6456990092992765 4.4623669087886801 25.267150633037094 6.0379870608448982 5.379271686077117 16.554295286536217 3.0203038230538377 5.817898377776145 11.903324887156487 11.9669876396656 9.0566693544387835 6.0988446623086912 5.8416491448879242 2.7576594278216362 6.5754586532712009 10.665726125240324 12.514263667166231 7.669787749648096 4.7587183117866507 2.7645120397210121 6.2050517052412015 2.939345955848693 4.3888023048639289 12.143923453986643 9.3371062502264959 65.659409143030643 6.8350123018026334 9.9060294851660711 59.002265587449074 9.2964121624827367 8.1965660378336924 605.28169351071119 85.92258682847023 2.2293519675731659 7.1330760121345547 11.318441823124884 9.4200772568583471
leaf_count=6 162 451 6 2 78 130 10 7 6 123 60 49 46 9 39 21 8 48 11 4 6 104 105 78 53 6 2 35 92 19 67 43 2 54 26 40 40 15 105 15 43 134 13 5 798 166 20 18 10 16
internal_value=-2.39505e-05 -0.016633 -0.0377892 0.00874584 -0.00916976 -0.0192471 -0.0543798 0.0106302 -0.0127378 -0.0305704 -0.0161548 -0.0147447 0.0112893 -0.0179771 -0.00355409 0.00379539 -0.0269609 -0.012287 -0.000931133 -0.00540587 -0.0305278 -0.0485307 -0.0488309 -0.0425937 -0.000987562 0.0121193 -0.035904 -0.00968764 -0.0283329 -0.00930574 -0.0287589 0.00195939 -0.0332904 -0.038098 -0.00421424 0.0129096 0.014242 -0.014199 0.00324267 -0.0246663 0.00800398 -0.00212144 -0.00355418 0.00421752 0.0148995 0.00471824 -0.0193591 0.0171884 0.0123496 0.0154233
internal_weight=1272.25 439.4 113.455 832.846 325.944 145.901 67.5012 774.861 45.9542 28.128 57.9847 14.4773 765.319 20.4696 42.6917 38.2293 12.9622 126.86 180.043 145.037 20.7415 14.9236 15.293 11.8239 124.296 744.849 8.8565 121.48 26.5376 26.0257 13.5114 115.439 7.52323 9.54203 94.9427 718.824 631.152 13.7259 87.6721 12.1067 75.5654 92.0033 15.8719 13.7229 617.426 107.916 5.52637 35.0058 18.4515 17.8261
internal_count=3406 1823 686 1583 1137 640 510 1344 176 154 239 59 1283 89 128 89 68 478 497 458 114 108 111 80 344 1194 55 430 140 92 73 289 45 61 290 1102 893 55 209 61 148 264 48 31 838 244 26 39 28 22
is_linear=0
shrinkage=0.02


Tree=5
num_leaves=61
num_cat=0
split_feature=30 30 7 5 23 19 20 16 41 23 20 41 41 27 19 19 23 40 20 41 40 14 23 30 41 16 8 4 27 5 20 16 20 15 15 30 19 11 30 4 41 4 15 27 0 15 40 8 41 40 23 8 15 27 27 5 20 30 40 14
split_gain=1565.71 144.872 127.862 135.159 117.883 55.4999 46.7257 59.7154 44.3675 48.4306 43.274 40.3298 42.6851 38.7016 37.7963 36.2771 78.9496 35.7732 74.1032 63.5106 32.4823 29.4267 28.2274 29.0455 19.2239 29.7023 28.1293 28.915 17.5002 17.3377 47.2213 12.4334 27.9583 11.4593 21.705 21.9484 17.078 20.1353 9.69507 18.7044 9.21381 18.7444 8.87056 5.87633 15.1559 4.53832 6.59733 3.87328 6.31474 3.74028 5.67018 3.69988 3.09166 2.87391 2.83157 7.39989 2.73785 0.880008 0.436682 0.0726658
threshold=-0.32677173614501948 -0.13492938131093976 -0.34909884631633753 0.72203904390335094 0.0081069134175777453 0.14397249370813373 -0.55513682961463917 1.3384397029876711 -0.26986767351627344 -0.67974081635475148 1.1875200867652895 -0.28522382676601404 0.95028769969940197 1.2960993051528933 0.14429535716772082 0.14430031925439837 1.5587345361709597 -0.5845232605934142 -0.88381639122962941 -0.59795999526977528 -0.46041543781757349 -0.34326408803462977 2.0408400297164921 -0.67210641503334034 -0.44178332388401026 1.1335852742195132 -0.8162035048007964 0.031014129519462589 0.21841108053922656 0.18028769642114642 -0.57803732156753529 0.3529967069625855 0.97272327542305004 -0.22928757965564725 -0.23107779026031491 -0.89536970853805531 0.13490014523267749 -0.18749268352985379 -0.43270394206047053 0.030435245484113697 -0.47209618985652918 0.032920967787504203 -0.22892641276121137 -1.1346282958984373 0.095762696117162718 -0.22906879335641858 -0.60674154758453358 -0.46195058524608607 -0.22489768266677854 -0.5282362401485442 0.8743044137954713 -0.8162035048007964 -0.20724099874496457 0.6236577332019807 0.37510994076728826 0.85747686028480541 -0.41528454422950739 -0.85641294717788685 0.171473003923893 -0.028033881448209282
decision_type=2 2 2 2 2 2 2 2 2 2 2 2 2 2 2 2 2 2 2 2 2 2 2 2 2 2 2 2 2 2 2 2 2 2 2 2 2 2 2 2 2 2 2 2 2 2 2 2 2 2 2 2 2 2 2 2 2 2 2 2
left_child=2 4 6 17 10 8 7 13 9 40 -2 -6 31 -1 -7 -3 -17 24 19 -19 -20 38 33 28 45 26 52 -28 -24 42 -31 53 -33 34 36 -36 37 -8 39 -16 41 -5 -22 44 -35 46 -4 -10 -49 50 -45 -46 -26 -13 -30 -56 -51 -47 -38 -27
right_child=1 15 3 5 11 14 22 -9 47 -11 -12 12 -14 -15 21 16 -18 18 20 -21 29 -23 23 -25 25 59 27 -29 54 30 -32 32 -34 43 35 -37 58 -39 -40 -41 -42 -43 -44 49 51 57 -48 48 -50 56 -52 -53 -54 -55 55 -57 -58 -59 -60 -61
leaf_value=-0.064741137611898897 -0.061777063103085554 -0.062782714602794276 -0.010631358883499307 -0.048739618313123484 -0.054272804317657297 -0.061984908924705283 0.0077219133812807201 0.01483622454336401 0.020059570496827855 -0.059795501983631316 0.015723114696060757 0.019954936815543587 -0.051762232272948461 0.015650674854302764 0.016102110367296328 0.012416524401830394 -0.059469129732490862 0.0107644187223394 -0.052462063457351889 -0.065359046488653524 -0.0011989585408717052 -0.055132184412514322 -0.043598738757606628 -0.052078050671889926 0.0015832760905355387 0.021069699883419078 -0.035415058951086723 0.0076102338422495133 0.018735297494692462 0.0099456743349468444 -0.057365751519641711 -0.050689791202857964 0.015514668183663965 -0.040504141658270848 0.013107282670025588 -0.055122111434923855 0.019719095792882099 -0.051076789989358641 0.017423040673065295 -0.048549917792778841 0.016221179236936216 0.01605722153175124 0.018539082496272268 -0.0039553907239973972 0.0020486447763529473 0.00990701116930158 0.018793309074414854 0.015730814409694104 -0.012797548639802791 0.011902994384488771 0.017479854553141404 0.015599644233521608 0.018615289667455185 0.0057696348340537653 -0.014227132242152227 0.014308025364238214 0.019467496640918448 0.021329980628977094 0.013210881433172139 0.013660204480506736
leaf_weight=8.07628893107176 27.589498110115532 128.21663664281368 4.6636239662766457 2.5208668559789658 4.6890647113323203 17.318993896245956 6.4587695375084877 14.948997087776659 10.992423549294474 9.1179172247648221 2.761346995830535 19.557056270539764 4.1586102172732344 2.7490158453583708 2.8251719623804092 9.0521286725997943 15.870510332286356 6.3835120201110866 2.6535536944866172 11.216186329722403 11.10196331143379 4.6413999274373046 1.6962775588035643 3.2088161259889594 7.226204730570319 22.051541976630688 15.391951479017736 9.5010293796658498 8.5297989398241061 16.096277095377449 4.5198665186762801 3.1322127878665906 5.7635872215032578 1.1821469590067852 2.8590447530150414 3.078499346971511 27.825523927807808 2.4379828423261625 5.7831724062561971 2.5275944024324417 5.9762198179960269 2.817676343023777 43.00205209851265 7.5183387771248844 10.272240370512007 6.1674417778849593 5.6402067691087705 5.8275589719414711 4.6763100326061231 27.421435676515102 11.284747779369352 52.994096457958221 11.369012169539927 10.025908686220644 4.766166888177394 8.8299682512879354 475.45917779952288 72.6365921869874 21.403577364981174 11.882411800324915
leaf_count=73 231 1066 18 22 40 147 12 19 8 78 2 16 35 2 2 13 132 10 24 100 31 40 15 28 18 16 92 18 7 28 40 27 6 11 3 28 24 22 5 22 6 2 43 23 25 10 4 6 19 43 11 67 10 21 20 11 451 56 31 16
internal_value=-3.36192e-05 -0.0470396 0.0104368 0.000289613 -0.0242956 -0.0231875 0.0152841 -0.0107682 -0.00751997 -0.0280015 -0.0543856 -0.0042312 0.00234393 -0.0445599 -0.042175 -0.0583306 -0.0338107 0.00709548 -0.00266742 -0.0385468 0.00585602 -0.0179117 0.016293 -0.00355271 0.012658 0.0052324 -0.00564935 -0.0192564 0.00473772 0.00861898 -0.00669024 0.00940516 -0.0103606 0.0171253 0.0088244 -0.0248264 0.0126574 -0.0117215 0.000701422 -0.0169487 0.000232086 -0.0170866 0.0145043 0.0180126 0.0118719 0.0189579 0.00553613 0.0122386 0.00284776 0.0187433 0.00904113 0.0134967 0.0125172 0.0155587 0.0102549 0.00387852 0.0190834 0.0205964 0.0172487 0.0189977
internal_weight=1270.35 230.817 1039.53 336.529 77.6773 75.0253 703.001 25.7743 41.929 20.4327 30.3508 47.3264 42.6374 10.8253 33.0963 153.139 24.9226 261.503 94.9734 17.5997 77.3737 15.7773 677.227 27.031 166.53 77.4222 43.4882 24.893 23.8222 74.7202 20.6161 38.4788 8.8958 650.196 64.0634 5.93754 58.1259 8.89675 11.1359 5.35277 11.3148 5.33854 54.104 586.132 64.4485 89.1079 10.3038 21.4963 10.5039 521.684 18.8031 63.2663 18.5952 29.583 22.1259 13.5961 502.881 78.804 49.2291 33.934
internal_count=3406 1589 1817 891 378 357 926 94 141 108 233 145 105 75 216 1211 145 534 276 110 166 69 832 81 258 170 138 110 53 142 68 70 33 751 120 31 89 34 29 24 30 24 74 631 103 88 22 33 25 528 34 92 28 37 38 31 494 66 55 32
is_linear=0
shrinkage=0.02


Tree=6
num_leaves=57
num_cat=0
split_feature=30 6 7 5 30 17 24 23 20 16 0 4 17 19 41 1 24 27 23 15 23 30 7 27 40 40 5 40 7 6 27 30 17 20 23 24 15 0 30 19 41 1 41 23 20 30 0 6 41 0 0 17 20 40 23 41
split_gain=1486.35 147.494 124.572 129.592 87.6095 55.0691 48.2842 79.7113 45.4206 56.6287 39.7045 55.0768 38.1983 57.5017 55.6772 37.1611 36.0966 35.3859 28.0665 40.4291 27.6533 27.6737 26.8583 24.2464 24.228 18.688 30.5473 35.8155 17.0029 32.2694 16.9034 16.8055 12.4995 22.6674 12.3655 44.0488 11.2861 21.0471 34.5255 18.3915 19.6207 7.17313 6.64052 5.87902 12.2436 11.6562 7.93543 5.19601 14.9642 4.70403 15.1718 4.52701 2.18444 3.06327 1.57615 1.24648
threshold=-0.32677173614501948 -1.5656322240829466 -0.34909884631633753 0.72203904390335094 -0.16151113808155057 -0.057589191943407052 0.17556107789278033 0.35703495144844061 -0.55513682961463917 1.3384397029876711 0.14690376073122027 0.033184761181473739 0.15645744651556018 0.14428093284368518 -0.12968743592500684 -0.04456044174730777 0.54165452718734752 -0.77981230616569508 -0.344605803489685 -0.22906879335641858 2.0408400297164921 -0.67210641503334034 2.6481208801269536 0.64589771628379833 -0.30709980428218836 -0.5845232605934142 -0.22602579742670056 0.025106532499194149 -1.0123875141143797 -1.5983335375785825 0.21841108053922656 -0.5538322627544402 1.174185633659363 0.51339998841285717 0.01879453752189875 -0.25333738327026362 -0.22928757965564725 0.14687723666429522 -0.89536970853805531 0.13490014523267749 -0.59795999526977528 -0.04777827858924865 -0.44178332388401026 -0.07753515243530272 -0.40226083993911738 -0.52643731236457814 0.14689752459526065 0.63043767213821422 -0.3360301405191421 0.14686332643032077 0.14621338993310931 0.35885038971900945 0.47990326583385473 0.10552917793393136 2.8254102468490605 -0.14592979848384854
decision_type=2 2 2 2 2 2 2 2 2 2 2 2 2 2 2 2 2 2 2 2 2 2 2 2 2 2 2 2 2 2 2 2 2 2 2 2 2 2 2 2 2 2 2 2 2 2 2 2 2 2 2 2 2 2 2 2
left_child=2 4 8 12 28 15 22 10 9 16 11 -8 13 25 -15 -5 -1 -7 19 -14 36 30 -3 34 -17 49 -27 -28 -2 -30 -22 47 42 -34 35 -19 37 39 -39 40 -10 -16 -33 44 46 -46 -38 -20 -49 50 -4 54 55 -54 -32 -45
right_child=1 6 3 5 -6 17 7 -9 20 -11 -12 -13 18 14 41 24 -18 23 31 -21 21 -23 -24 -25 -26 26 27 -29 29 -31 51 32 33 -35 -36 -37 43 38 -40 -41 -42 -43 -44 52 45 -47 -48 48 -50 -51 -52 -53 53 -55 -56 -57
leaf_value=-0.061989709203125257 0.019194804734485264 -0.060096360032309004 0.01732975337007972 -0.060362501384401544 -0.056665888340519104 -0.052472645762824115 -0.056867775626776494 -0.059027686896340692 0.0077242559197266223 0.014664583824030358 0.018263498934095724 0.018379855572307778 0.017014653232674978 -0.060172894511195091 0.015857296946025504 0.013123789604095253 0.015516834050096547 0.0075078161908010499 0.021192145303153435 -0.056513485795681495 -0.042547181347916789 -0.05044903737230249 -0.007868166404687375 -0.049069761253142233 -0.048962304827362885 -0.05550499610587574 -0.031852404454291612 0.017029230377298896 -0.052478249580709284 0.016821532818564119 -0.0092527657282451929 0.016639922991985797 -0.054805284805305179 0.015703472021701342 0.016399391259164006 -0.054074761506473196 -0.021154587064857868 0.013688741975831323 -0.056436464455752441 0.018738245544665473 -0.050120673493886825 -0.014047315120458301 -0.0030761333372608486 0.01870882524684591 0.01705242389437436 -0.0036096811421322478 0.015694853266513445 0.019302038433993165 -0.010458289918838379 0.019439268914512153 -0.013297754193190641 0.016381635604455661 0.0094790333268077957 0.018547499321866747 0.0069865654850739534 0.023424284039177699
leaf_weight=8.3080142959952372 19.383838489651684 139.47148636728525 17.220483362674717 18.440765045583252 10.304240114986895 5.580125004053115 9.5183631926774996 25.537937760353088 6.4538030922412872 14.834351256489752 11.148235112428663 5.5020295009016982 5.6622503623366356 11.059192940592768 5.8669095933437347 6.091596819460392 2.7261294275522223 20.125268131494522 87.642555557191372 4.566200062632559 1.727827712893492 3.2777559384703627 4.4774817526340476 3.0604373067617408 2.9261585101485235 3.4513024687767055 7.8610333278775242 17.52817640453577 3.5902316868305224 5.6038206815719569 4.3300975784659412 14.574481517076496 2.8313010185956946 2.7580075189471245 14.381064482033251 4.9614713042974499 5.3399942591786367 5.7635183781385422 3.9263267219066602 45.094370499253273 2.4727556556463224 5.0064694136381132 11.43788306415081 86.721698500216007 214.61518917232752 11.003425925970076 2.7565411552786827 22.493074730038646 8.6507078185677511 22.671996779739857 9.0732307285070402 14.395018771290777 21.503351733088493 140.12672641128302 3.2854464128613472 98.451765015721321
leaf_count=73 17 1133 18 154 85 46 79 209 12 19 10 4 5 94 6 8 2 40 68 40 15 28 16 26 25 31 46 19 31 5 16 16 26 2 16 42 26 7 35 44 22 21 34 86 247 33 2 20 32 20 36 16 38 142 6 57
internal_value=-3.90005e-05 -0.0453825 0.0102876 0.000273485 -0.00945541 -0.0226038 -0.0524276 -0.0345546 0.0151031 -0.010532 -0.00930412 -0.0297527 0.00698223 -0.00270942 -0.0305731 -0.0447198 -0.0429763 -0.00928644 0.0129924 -0.0177415 0.0161082 -0.00353553 -0.0585511 -0.00249872 -0.00969929 0.00540791 -0.00716456 0.00118516 0.00883981 -0.0125368 0.00463881 0.0151993 0.00208381 -0.0226066 0.00218642 -0.00620087 0.0169392 0.00868179 -0.0171602 0.0135811 -0.0115329 0.00189633 0.00810361 0.0178255 0.0151514 0.0160244 -0.0080428 0.0186253 0.0109052 0.0128482 0.00658779 0.0101179 0.0195732 0.017419 -0.002017 0.021339
internal_weight=1267.57 234.538 1033.04 335.922 38.8821 75.5669 195.656 51.7066 697.114 25.8685 26.1686 15.0204 260.355 99.7388 21.9326 27.4585 11.0341 48.1084 160.616 10.2285 671.246 27.0161 143.949 42.5282 9.01776 77.8062 28.8405 25.3892 28.5779 9.19405 23.7384 150.388 31.6017 5.58931 39.4678 25.0867 644.229 63.7108 9.68985 54.0209 8.92656 10.8734 26.0124 580.519 233.715 225.619 8.09654 118.786 31.1438 48.9657 26.2937 22.0106 346.804 161.63 7.61554 185.173
internal_count=3406 1589 1817 891 138 357 1451 302 926 94 93 83 534 291 121 187 75 170 243 45 832 81 1149 124 33 170 96 65 53 36 53 198 78 28 98 82 751 120 42 78 34 27 50 631 308 280 28 120 52 74 54 38 323 180 22 143
is_linear=0
shrinkage=0.02


Tree=7
num_leaves=65
num_cat=0
split_feature=7 17 23 23 8 23 6 19 29 40 40 8 41 1 6 40 40 40 16 1 17 10 8 24 40 40 11 7 14 7 23 1 17 23 23 24 6 14 6 7 11 8 41 8 40 17 0 23 14 0 27 40 1 1 17 27 23 14 14 41 41 6 0 23
split_gain=466.998 197.725 166.369 114.892 76.72 70.6498 64.6823 62.9598 51.3535 43.5918 75.9006 43.3253 49.2345 53.9516 41.0435 73.4828 45.9339 40.3318 37.4085 33.1295 32.6619 36.9535 32.0458 29.4643 33.184 27.1943 39.6301 25.4313 23.9334 21.2388 20.4587 29.5911 22.3336 25.6238 19.4216 17.4227 18.7611 17.1709 15.9625 11.3406 26.2484 10.6112 22.7452 9.73448 8.98127 8.81837 25.9339 24.1862 8.58016 25.6454 7.25907 11.28 23.3428 7.10723 6.79023 19.0717 5.80612 5.406 5.14381 4.27188 3.8883 10.4456 4.26828 3.62757
threshold=-0.34909884631633753 0.30418156087398535 -0.344605803489685 2.0408400297164921 -1.8431614637374876 -1.0859271883964536 -1.5892583131790159 0.13937315344810489 1.0000000180025095e-35 -0.63996699452400196 0.171473003923893 -0.83459725975990284 -0.12968743592500684 -0.047777717933058732 0.54861593246459972 -0.61638343334197987 0.70347893238067638 0.4457573294639588 0.40924735367298132 -0.047342617064714425 0.35885038971900945 0.75065171718597423 -0.86746567487716664 -1.0048960447311399 0.81443867087364208 0.13271268457174304 -1.0822690129280088 -0.32463949918746943 -1.0984240174293516 2.2696366310119633 0.13176860660314563 -0.022663599811494347 -0.74163174629211415 -0.71094685792922963 -0.38185970485210413 0.89322382211685192 -1.8080426454544065 0.17635356634855273 -1.298748731613159 2.421169757843018 0.78804281353950512 0.21899600327014926 3.1002790927886967 -1.1965315341949461 0.25276434421539312 1.174185633659363 0.14558979123830798 1.0064742565155032 -0.45577597618103022 0.14041760563850406 -0.81287863850593556 0.099209729582071318 -0.048094110563397401 -0.049951950088143342 -0.16290429234504697 -1.6427831053733823 -0.40159848332405085 0.23195675760507586 0.31847192347049719 -0.45757639408111567 -0.088587492704391466 0.34040775895118719 0.146902970969677 2.8254102468490605
decision_type=2 2 2 2 2 2 2 2 2 2 2 2 2 2 2 2 2 2 2 2 2 2 2 2 2 2 2 2 2 2 2 2 2 2 2 2 2 2 2 2 2 2 2 2 2 2 2 2 2 2 2 2 2 2 2 2 2 2 2 2 2 2 2 2
left_child=3 4 8 5 56 17 18 9 34 48 -11 19 29 -14 43 28 27 25 -6 22 21 63 -9 24 -7 26 -1 -17 -16 -13 31 32 33 -25 -3 36 -20 -33 -34 40 -30 -22 -43 -4 -12 53 -47 -48 -8 -50 51 -32 -53 -45 -27 -56 -2 -18 -44 -55 61 -52 -62 -5
right_child=1 2 14 20 6 23 7 11 -10 10 44 12 13 -15 15 16 57 -19 35 -21 41 -23 -24 30 -26 54 -28 -29 39 -31 50 37 38 -35 -36 -37 -38 -39 -40 -41 -42 42 58 45 -46 46 47 -49 49 -51 60 52 -54 59 55 -57 -58 -59 -60 -61 62 -63 -64 -65
leaf_value=0.012638820723289399 -0.0082054696390951656 -0.058232959132182294 -0.032451476083517811 -0.0128916493055814 -0.051585719373293051 -0.052372780125781962 0.019278029554829951 -0.041815090515571827 0.0085263253420345547 -0.057587021101882505 0.017362080410778667 -0.056421405165152559 0.0053129087955429543 -0.055834138488673281 -0.04288964046400788 -1.195464329102998e-05 -0.011600442343052589 -0.054948521961881137 -0.046952178817152107 0.0085389547438674916 0.01835397496040082 -0.056755955566505575 0.005187093283078704 0.0078819908537364064 0.012662464346523482 0.01743722017440396 -0.05196241969161397 -0.05893447746350982 0.0097137820260083784 -0.0099289830224758135 0.020410668863891739 -0.05262704759811114 0.01558039402534221 -0.051628684139454491 -0.011198802205824244 0.019440535325915664 0.016000552129580809 0.0039637859755305652 0.006645967001064932 0.0203000527161003 -0.046434869153419954 -0.049400505774483162 0.015364381825735985 -0.025227145465828424 -0.013950087876012445 0.017463278210272163 -0.052997205588225134 0.01556898971510403 -0.04672295116465066 0.018368936660615058 0.017157004949508229 0.012587116213589284 -0.029835160900689266 0.022262874180334916 0.015331945336542042 -0.042551777497678654 0.015658496922059784 0.014533763482705825 -0.010538006185600048 0.012654879033395169 0.023047329220070988 -0.00050676618848166633 0.014924855255946168 0.011605347741392292
leaf_weight=5.9471861645579311 4.6523212641477611 25.320335432887077 0.9026176780462255 4.8886341527104404 3.8954969644546535 4.9175528287887555 11.139702267944815 26.987316176295277 6.6250175684690467 15.995717048645021 8.4886584579944593 85.47786720842123 13.731202796101572 8.7063939124345762 2.4428805112838736 3.6617059335112616 4.7784939333796483 6.7018161192536345 3.0023326426744514 9.7623756229877454 5.4933497980237034 14.22444152086973 6.9689627364277866 6.4495414942502975 5.9532319903373718 13.952342517673971 7.9909236729145059 15.173920579254627 22.38063890486956 4.7265148907899848 16.185158737003803 3.7134280800819388 189.79433285444975 3.8855980038642866 4.808500379323962 16.613052494823933 2.8081883713602993 3.5846999660134315 143.74778717011213 27.372544445097446 2.8817770779132834 3.5858589559793463 5.7011278420686704 0.72403624653816123 4.9888878539204589 13.979418717324736 4.2192344963550559 2.7350634559988976 2.8666831552982313 5.4980675578117371 132.47940797358751 14.961950726807119 6.6827881634235373 40.107105016708374 5.6894773840904236 2.453233137726782 14.932758808135985 5.9781531244516373 4.6466790661215782 48.365787744522095 100.38720359653234 14.57849660515785 48.922769315540791 3.0872534736990929
leaf_count=8 17 206 8 20 33 41 9 178 12 131 8 670 30 72 20 10 19 56 25 18 4 116 15 12 8 14 64 126 40 18 12 32 242 33 19 14 2 8 299 22 24 30 6 6 21 14 36 2 24 4 150 22 38 26 6 20 18 7 18 74 61 40 64 4
internal_value=-4.51828e-05 -0.01547 -0.0021446 0.00951773 -0.0277337 0.0113484 -0.0309413 -0.0347081 -0.0405984 -0.0144626 -0.0294532 -0.0409048 -0.047533 -0.0196984 0.00523669 -0.00520259 -0.0301014 -0.0133587 -0.00128539 -0.0231013 -0.0224379 -0.0384718 -0.032239 0.0128848 -0.0185222 -0.00429445 -0.0252633 -0.0481587 0.00843764 -0.0541428 0.0134121 0.00997582 0.0108535 -0.0168961 -0.0513916 0.00919681 -0.0183518 -0.0274617 0.0117672 0.0116124 0.00170832 -0.00303084 -0.0122602 0.0131906 0.00547036 0.0138713 0.00196666 -0.0272122 0.00842399 -0.00633228 0.0169764 0.00830438 -0.00116152 0.0165902 0.00936775 -0.00463522 0.00976936 0.00275467 0.00365304 0.0172329 0.018045 0.0154008 0.0205162 -0.00295015
internal_weight=1264.31 483.7 232.457 780.606 251.243 738.979 231.657 205.338 36.7539 48.9777 29.4733 156.361 112.642 22.4376 195.703 84.6701 29.5923 42.735 26.3191 43.7187 41.6273 22.2003 33.9563 696.244 10.8708 36.0332 13.9381 18.8356 55.0778 90.2044 685.373 351.175 343.877 10.3351 30.1288 22.4236 5.81052 7.29813 333.542 52.635 25.2624 19.427 13.9337 111.033 13.4775 110.131 20.9337 6.9543 19.5045 8.36475 334.198 37.8299 21.6447 89.1969 22.0951 8.14271 19.5851 10.7566 10.3478 88.4729 296.368 147.058 149.31 7.97589
internal_count=3406 1978 671 1428 1307 1230 1272 1198 237 197 160 1001 790 102 434 268 162 168 74 211 198 140 193 1062 49 112 72 136 106 688 1013 626 586 45 225 41 27 40 541 86 64 58 54 166 29 158 52 38 37 28 387 72 60 106 40 26 35 26 24 100 315 190 125 24
is_linear=0
shrinkage=0.02


Tree=8
num_leaves=48
num_cat=0
split_feature=30 6 7 27 30 17 15 18 20 16 4 19 23 30 24 23 6 27 30 14 6 20 7 0 7 17 30 23 7 6 15 0 30 19 41 17 19 27 0 6 4 23 20 41 8 8 8
split_gain=1365.46 127.383 117.799 100.13 79.9112 69.0874 61.5331 52.1077 43.705 52.7521 41.7414 52.9137 79.5688 35.8161 33.0959 26.3386 26.251 26.0675 25.2983 20.4932 20.1435 49.9424 39.8386 29.9379 19.4828 48.5729 18.1952 38.7535 16.3834 30.2662 11.1975 20.3048 32.3812 18.0016 18.762 10.4853 22.8131 5.80343 14.4825 4.15416 3.52925 3.25857 33.3382 2.02752 1.61364 0.960095 0.447309
threshold=-0.32677173614501948 -1.5656322240829466 -0.34909884631633753 -0.85626885294914235 -0.16151113808155057 0.15645744651556018 -0.2290949150919914 1.0000000180025095e-35 -0.55513682961463917 1.3384397029876711 0.033184761181473739 0.14430031925439837 1.5587345361709597 -0.082534737884998308 0.54165452718734752 2.0408400297164921 0.61040842533111583 0.98155412077903759 -0.67210641503334034 -1.0863584876060484 -0.85879665613174427 -0.43516948819160456 0.28424414992332464 0.14694616943597796 2.421169757843018 1.0618427693843844 -0.5383433699607848 0.2992659211158753 -1.0123875141143797 -1.5983335375785825 -0.22928757965564725 0.14687723666429522 -0.89536970853805531 0.13490014523267749 -0.59795999526977528 0.35885038971900945 0.15142623335123065 -1.1346282958984373 0.095762696117162718 -0.32354427874088282 0.044889748096466071 -0.07753515243530272 -0.41528454422950739 -0.22651670128107068 -0.96311885118484486 -0.88168147206306446 0.72878330945968639
decision_type=2 2 2 2 2 2 2 2 2 2 2 2 2 2 2 2 2 2 2 2 2 2 2 2 2 2 2 2 2 2 2 2 2 2 2 2 2 2 2 2 2 2 2 2 2 2 2
left_child=2 4 8 19 28 6 7 -5 9 14 11 -3 -13 40 -1 30 26 24 35 -4 43 22 -22 -23 25 -18 45 -28 -2 -30 31 33 -33 34 -10 36 -17 38 -32 -40 -12 42 -39 -8 -43 -7 -47
right_child=1 10 3 5 -6 16 20 -9 15 -11 13 12 -14 -15 -16 18 17 -19 -20 -21 21 23 -24 -25 -26 -27 27 -29 29 -31 37 32 -34 -35 -36 -37 -38 41 39 -41 -42 44 -44 -45 -46 46 -48
leaf_value=-0.058802397165297303 0.01884046328215927 -0.056490945362618401 -0.0043359054243830974 -0.056863937761511212 -0.053583955377346497 0.0092963074621814513 0.018707056016805848 0.0082698923709982174 0.0074616398256068077 0.014364766667191393 0.015604097483742816 0.014159351052849272 -0.053488108394170071 -0.050291982387144656 0.015328099246794062 -0.049667709989865083 0.0043269732754443917 -0.046738965797476391 -0.047473185760389516 -0.055449161486164064 -0.023638515307180929 -0.057314342160159633 0.010758813641397483 0.010782486167744102 0.019174784509845128 -0.053996891409743543 -0.052892333631852195 0.015082310822190404 -0.050405416462005255 0.016527354553573952 -0.039480134010591923 0.013385624807429273 -0.054350387384782657 0.018407018585426375 -0.048965866744746352 0.014867105810701029 0.010480146775535566 -0.050218041888654946 0.015685860330889 0.002729099146622374 -0.0062186143823796001 0.01259720874393669 0.016828827902683401 0.0058104573683734652 0.020048834815062946 0.022051346954659108 0.01509896698915727
leaf_weight=8.5799505040049571 18.981431260704998 157.67304070293903 4.3243115842342403 15.731663711369039 10.610764533281325 6.0006502047181121 13.678881727159025 6.5581632032990447 6.3915242552757263 14.626460969448088 5.7887355908751505 11.603311665356161 15.057823754847048 6.6536200642585746 2.6936446875333777 2.8987315073609405 55.42858749628067 3.1538091450929633 3.4037961661815634 13.75066442042589 18.138299733400345 9.7134414836764318 44.442518949508667 2.9701293706893912 24.634324051439762 5.3534913733601561 3.5700996220111838 11.60776302218437 3.6827317625284213 5.5091812908649409 1.2090270668268193 5.6743082031607628 4.0257515385746938 44.27752261608839 2.5147142261266691 14.436616033315657 6.3117566183209419 2.0564643219113341 48.459378786385059 13.464504592120646 4.3506886884570122 20.374982632696629 188.67101439833641 10.016159243881701 296.32209336012602 68.88515854626894 17.028988227248192
leaf_count=73 17 1243 14 128 85 10 12 12 12 19 6 15 119 53 2 25 127 26 28 111 89 81 76 4 22 45 31 14 31 5 11 7 35 44 22 18 10 19 60 32 15 30 219 21 260 47 21
internal_value=-5.27576e-05 -0.042889 0.0100392 0.000307285 -0.00935416 0.00298272 -0.00882651 -0.038082 0.0147785 -0.0103434 -0.0492675 -0.0520359 -0.0245271 -0.0175494 -0.0411214 0.0157807 0.0103186 0.00219363 -0.00337163 -0.0441939 -0.00190189 -0.00698517 0.00054272 -0.0415992 0.00454345 -0.00156848 0.0169372 -0.003064 0.00850105 -0.0124074 0.0166058 0.00833802 -0.0169917 0.0132231 -0.0116036 0.00456382 -0.0112642 0.0174974 0.0113526 0.0129885 0.00634308 0.0182341 0.0158373 0.0137925 0.0196169 0.020259 0.0208859
internal_weight=1261.29 239.911 1021.38 334.987 38.7841 316.912 121.249 22.2898 686.392 25.9001 201.127 184.334 26.6611 16.793 11.2736 660.492 195.663 88.5702 27.0509 18.075 98.9594 75.2644 62.5808 12.6836 85.4164 60.7821 107.093 15.1779 28.1733 9.19191 633.441 62.8838 9.70006 53.1838 8.90624 23.6471 9.21049 570.557 63.1329 61.9239 10.1394 507.425 190.727 23.695 316.697 91.9148 85.9141
internal_count=3406 1589 1817 891 138 766 423 140 926 94 1451 1377 134 74 75 832 343 220 81 125 283 250 165 85 194 172 123 45 53 36 751 120 42 78 34 53 35 631 103 92 21 528 238 33 290 78 68
is_linear=0
shrinkage=0.02


Tree=9
num_leaves=60
num_cat=0
split_feature=30 6 7 5 30 17 17 15 27 1 23 15 14 30 7 36 23 30 14 27 1 8 27 7 7 6 30 17 23 1 0 30 11 30 14 27 14 23 8 17 23 17 1 27 41 0 1 15 8 6 41 1 27 14 15 1 11 14 11
split_gain=1301.22 118.368 114.725 116.798 75.7734 46.9171 34.3184 47.8074 29.9891 29.9803 25.5363 36.3842 24.425 29.5968 49.248 24.3647 23.1238 24.1818 22.8918 21.5082 17.6419 35.0919 45.0897 23.667 15.95 28.9228 15.8826 15.5185 12.9252 26.5418 21.7464 19.4965 22.6029 11.8006 17.8285 11.7448 17.7092 11.5613 22.1673 11.4479 19.9095 10.192 21.6778 6.9251 6.39456 6.09903 18.7507 6.01925 8.05762 5.00829 14.1355 2.94022 2.75303 7.1532 9.87839 2.72005 2.35585 1.07593 0.132732
threshold=-0.32677173614501948 -1.5656322240829466 -0.34909884631633753 0.72203904390335094 -0.16151113808155057 -0.057589191943407052 0.15645744651556018 -0.22913233190774915 -0.77981230616569508 -0.04456044174730777 -0.344605803489685 -0.22906879335641858 0.79692497849464428 0.63671159744262706 -0.32463949918746943 1.0000000180025095e-35 2.0408400297164921 -0.67210641503334034 -1.3733701705932615 0.64589771628379833 -0.047779098153114312 -0.53964841365814198 0.66213792562484752 0.28424414992332464 -1.0123875141143797 -1.5983335375785825 -0.5538322627544402 1.4964741468429568 0.13176860660314563 -0.031555322930216782 -0.025706271640956398 -1.0726141333580015 -0.20400746911764142 -0.48660063743591303 -0.99884241819381703 -0.69494396448135365 0.85162216424942028 0.01879453752189875 0.2541500329971314 1.174185633659363 1.0064742565155032 0.35885038971900945 -0.043128656223416321 -2.6759357452392574 -0.44178332388401026 -8.1835083961486799 -0.041986912488937371 -0.23879189044237134 0.064795255661010756 0.63043767213821422 -0.3360301405191421 -0.047804422676563256 -0.81287863850593556 -0.67020002007484425 -0.20724099874496457 -0.11034918576478957 -1.899596571922302 -1.3240593075752256 0.82135307788848888
decision_type=2 2 2 2 2 2 2 2 2 2 2 2 2 2 2 2 2 2 2 2 2 2 2 2 2 2 2 2 2 2 2 2 2 2 2 2 2 2 2 2 2 2 2 2 2 2 2 2 2 2 2 2 2 2 2 2 2 2 2
left_child=2 4 16 6 24 9 7 18 -7 -5 11 -8 15 14 35 -3 28 41 -4 37 51 23 -23 -22 -2 -26 49 -16 29 31 -31 32 -1 43 -35 -14 -37 38 -10 44 -41 42 -18 -33 -28 -11 -47 48 -30 58 -51 55 53 -49 -55 -9 -54 -58 -12
right_child=1 12 3 5 -6 8 10 20 19 45 26 -13 13 -15 27 -17 17 -19 -20 -21 21 22 -24 -25 25 -27 39 -29 47 30 -32 33 -34 34 -36 36 -38 -39 -40 40 -42 -43 -44 -45 -46 46 -48 52 -50 50 -52 -53 56 54 -56 -57 57 -59 -60
leaf_value=0.017869813117317036 0.018668360825216328 -0.054529100358092303 0.0066934021822532058 -0.05466289393715712 -0.051811609942458391 -0.047587853548250098 0.016916735316307104 0.015322649879638389 0.002187645706412192 0.011104419473601732 0.02159599033618758 -0.052107343288655912 0.011219079570729928 -0.052620427812330908 -0.051870532636018457 -0.0052531481760312608 -0.048066239293063681 -0.046146888625551739 -0.051994095657173389 -0.045426611508061453 -0.0226055260186157 -0.059261812304106674 -0.0015283789115589697 0.018010969684898102 -0.048887024886532196 0.016372967028546462 0.01630405094681122 -0.0088899255914531954 0.018069703068451234 0.0051044092389851813 -0.049784930107928858 -0.026304453443708777 -0.053950405448749503 0.016318367470201739 -0.019018659587489092 0.015259719190310548 -0.044624208794606275 0.016019285159307589 -0.046741705854632977 -0.050377743259661649 0.015307860695438174 0.014699653894535279 0.010316872604374739 0.015395585179239063 -0.0031210151008210958 0.015555491066076788 -0.046903841270918872 0.02082596959809185 -0.014590081797910756 0.018870601905746576 -0.010087134345662694 0.019122720087372445 -0.012640905733747605 -0.019229544334361352 0.013654129830319892 -0.0018785984304232732 0.012198247048338105 0.020094415942309662 0.014866764920170663
leaf_weight=2.5438101291656494 18.784497708082203 129.92096578329802 3.2228944525122634 19.409579604864124 10.786627285182474 5.8718385249376288 5.630246527493 5.7077167779207212 21.679356090724472 3.0197537690401077 71.025392778217793 4.8018646389245969 12.019049450755121 28.163815870881081 18.175460375845436 4.4659300819039336 2.9622196555137661 3.4597523286938658 9.3086274340748769 3.2063904404640189 6.3661339357495335 7.5367023944854763 15.132817856967447 25.595572657883167 3.7515173852443713 5.4598343297839129 14.327843904495243 4.7865737378597251 5.3971024304628354 6.6039091125130653 3.8445279747247678 0.6999383270740499 2.7270750850439063 11.160959884524347 9.7652656584978086 2.6818177476525298 3.663113996386528 14.095183521509169 3.4331987649202338 3.0059009194374076 2.6901471242308617 14.321604758501051 6.2720535695552853 312.16357755661011 11.400505259633064 2.7327529489994049 3.2847726419568044 15.861334860324861 4.7146174013614655 21.923317424952987 8.7121630981564504 19.879679374396801 0.19729733467101951 4.9075902923941603 8.5597860515117628 7.3305476233363152 14.252437390387056 250.10828622430563 13.887238167226313
leaf_count=1 17 1009 6 154 85 46 5 6 54 4 51 40 19 218 141 15 25 28 74 26 32 65 43 26 31 5 16 18 4 14 32 6 25 12 44 2 29 16 28 26 2 18 10 402 34 2 27 11 20 20 32 18 2 23 11 21 21 217 17
internal_value=-5.79152e-05 -0.0415667 0.00989744 0.000292172 -0.00919653 -0.0211983 0.00676148 -0.00236817 -0.00880342 -0.0411561 0.0125572 -0.0164587 -0.0476396 -0.0367222 -0.0248529 -0.0529572 0.0146045 -0.00335547 -0.0373736 -0.00241555 0.0029853 -0.00395571 -0.0224997 0.00941992 0.00837441 -0.0121944 0.0147276 -0.0437393 0.015354 0.0126336 -0.017502 0.0136169 -0.0216477 0.0142428 -0.000195834 -9.51517e-05 -0.0204092 0.00209445 -0.00595885 0.00197024 -0.0214037 0.00447136 -0.0110828 0.0152124 0.00782704 -0.00939203 -0.0200794 0.0184234 0.00271938 0.0181332 0.0105138 0.0143407 0.0189458 0.0121365 0.001032 0.00606416 0.0196446 0.0197238 0.0207046
internal_weight=1257.4 242.659 1014.74 334.218 38.7825 76.7328 257.485 100.081 48.286 28.4469 157.405 10.4321 203.877 69.4898 41.326 134.387 680.523 27.0156 12.5315 42.4141 87.5492 54.6312 22.6695 31.9617 27.9958 9.21135 146.973 22.962 653.508 349.509 10.4484 339.061 5.27089 333.79 20.9262 18.364 6.34493 39.2077 25.1126 31.4244 5.69605 23.5559 9.23427 312.864 25.7283 9.03728 6.01753 303.998 10.1117 115.548 30.6355 32.9179 293.887 29.3287 13.4674 13.0383 264.558 264.361 84.9126
internal_count=3406 1589 1817 891 138 357 534 291 170 187 243 45 1451 427 209 1024 926 81 80 124 211 166 108 58 53 36 198 159 845 536 46 490 26 464 56 50 31 98 82 78 28 53 35 408 50 33 29 309 24 120 52 45 285 45 34 27 240 238 68
is_linear=0
shrinkage=0.02


Tree=10
num_leaves=47
num_cat=0
split_feature=30 6 6 30 5 1 24 4 20 40 30 4 15 40 40 27 30 0 5 40 20 30 20 25 23 27 15 6 8 24 16 11 19 5 40 23 23 16 0 4 41 40 28 4 4 15
split_gain=1241.74 111.887 110.36 71.9669 59.3908 54.3366 69.3393 36.5545 45.3273 78.2441 32.7076 31.0265 32.5517 51.8909 27.6919 24.0803 21.6907 21.6908 18.0009 17.9173 15.9298 42.0748 27.896 22.9582 16.4201 19.6771 16.2605 28.2843 24.409 15.4428 12.7826 12.4857 10.4361 15.2328 8.95821 21.0119 23.3168 12.3962 9.37175 12.2302 6.44826 5.69635 3.09254 2.8986 2.6054 4.47995
threshold=-0.32677173614501948 0.50595387816429149 -1.5656322240829466 -0.16151113808155057 0.99291470646858226 -0.046052757650613778 0.31404447555541998 0.033184761181473739 1.1631784439086916 0.37255354225635534 -0.082534737884998308 0.041913069784641273 -0.22916044294834134 0.81443867087364208 1.949036240577698 -1.8101537823677061 -0.38060967624187464 0.14768509566783908 0.99291470646858226 -1.0167310833930967 -0.40710498392581934 -0.42811720073223108 -1.0964409708976743 4.9389605522155771 -0.38185970485210413 -0.72620970010757435 -0.23879189044237134 -0.80150797963142384 -0.18649916350841519 0.65261486172676098 1.3384397029876711 -0.95705306529998768 0.14366700500249865 -1.0000000180025095e-35 -0.38735838234424586 -0.33973367512226099 -0.9539833366870879 1.1335852742195132 0.14690477401018145 0.0253456449136138 -0.45757639408111567 -1.2589420676231382 1.0000000180025095e-35 0.018365210853517059 0.03069909289479256 -0.22889564931392667
decision_type=2 2 2 2 2 2 2 2 2 2 2 2 2 2 2 2 2 2 2 2 2 2 2 2 2 2 2 2 2 2 2 2 2 2 2 2 2 2 2 2 2 2 2 2 2 2
left_child=1 14 3 32 11 6 19 8 -4 -10 41 12 13 -3 20 -14 31 -18 -16 -6 21 22 -1 -23 25 -24 27 28 -22 -8 -31 -17 33 -2 35 36 -28 -37 43 -40 -26 -9 -7 -36 45 -34
right_child=2 4 7 -5 5 42 29 10 9 -11 -12 -13 15 -15 18 16 17 -19 -20 -21 26 23 24 -25 40 -27 34 -29 -30 30 -32 -33 44 -35 38 37 -38 -39 39 -41 -42 -43 -44 -45 -46 -47
leaf_value=-0.04417239699853269 -0.044568078784975644 -0.050786899205273982 -0.052722215006499859 -0.050178454475138357 -0.0093655882869214686 0.00068757469961743813 0.016396882737277855 0.018642214926447444 0.016372938942661171 -0.050701162975021544 -0.047321427990010573 -0.048804081739451992 -0.044783196464430325 0.013637820700294637 -0.048116781071509997 0.016859261184278825 -0.051944637625647598 0.014903206600623458 0.0028610441983547199 -0.054609668302798009 0.012838737901627333 -0.052989686588958397 0.0082809053296353553 0.010570120272739729 0.020519085819910608 -0.049068553944818127 0.015142513337243479 0.015383578362657779 -0.055363285943678522 -0.046230239318777955 0.0062160108101147341 0.0061032577506111158 -0.0086747582332345179 0.015121783336171897 0.0080625659481521322 0.0029959238456149736 -0.05762142002817644 0.019275335397853168 -0.038094168734414229 0.011530907612762806 0.0099783513920211377 -0.0089544642471867941 0.017894428297166014 0.019367214538149571 0.019659692767712445 0.016180074543552272
leaf_weight=2.541424259543418 2.3838252350687981 9.2669794932007807 162.38915325701237 10.945829167962073 4.7634577527642277 6.9599937200546274 11.165955781936647 5.587499663233757 11.152902737259867 15.807344175875185 6.847965568304061 3.3400938361883155 2.5194926112890235 9.0269360393285734 3.5041813328862172 59.83992687612772 3.7426908463239661 2.6197181716561317 6.7580881714820862 23.37491749972105 2.8186090067029008 5.6722177267074567 6.1843393594026566 2.9400798231363297 50.074319459497922 2.6474098116159421 2.6614798456430435 14.233419381082056 4.4992644935846346 2.74721536040306 3.1644898727536201 160.52324906736612 4.3395501896739033 2.6389640569686916 11.917205870151518 30.512530453503132 2.7144597396254531 50.611527882516384 1.0864592939615239 53.396631136536598 51.388426728546627 4.54216416180134 10.867801778018475 388.02831912785769 13.063389375805853 5.3897228240966788
leaf_count=21 20 73 1243 85 18 18 12 4 12 122 53 28 21 12 29 69 32 2 16 185 3 47 11 4 40 23 2 17 39 23 6 342 16 2 22 73 26 46 10 86 90 17 10 361 10 5
internal_value=-6.46675e-05 0.00975724 -0.0403484 -0.00904542 -0.000146375 -0.0173492 -0.0288417 -0.0461474 -0.0486863 -0.0232892 -0.0165872 0.00422032 0.00513733 -0.0198344 0.0142324 0.00721626 0.007997 -0.0258627 -0.0170952 -0.0476034 0.0147297 0.00802726 0.0113746 -0.0322412 0.0130579 -0.0119491 0.0161565 -0.000757683 -0.0304683 0.00288398 -0.0210293 0.00909607 0.00825133 -0.0155714 0.0168342 0.0106589 -0.0245593 0.0132877 0.0179793 0.00983652 0.0153495 0.00639538 0.0116764 0.0190563 0.014019 0.0051324
internal_weight=1253.2 1008.11 245.088 38.7613 313.923 63.0438 45.216 206.327 189.349 26.9602 16.9776 250.879 247.539 18.2939 694.19 229.245 226.726 6.36241 10.2623 28.1384 683.928 121.448 112.836 8.6123 110.294 8.83175 562.48 21.5513 7.31787 17.0777 5.91171 220.363 27.8155 5.02279 540.929 86.5 5.37594 81.1241 454.429 54.4831 101.463 10.1297 17.8278 399.946 22.7927 9.72927
internal_count=3406 1817 1589 138 851 272 244 1451 1377 134 74 579 551 85 966 466 445 34 45 203 921 236 185 51 164 34 685 59 42 41 29 411 53 22 626 147 28 119 479 96 130 21 28 383 31 21
is_linear=0
shrinkage=0.02


Tree=11
num_leaves=61
num_cat=0
split_feature=30 7 5 6 30 17 17 19 14 24 23 14 27 1 23 15 23 30 40 27 7 1 19 14 30 7 6 11 19 24 6 24 1 17 23 23 30 16 14 40 24 23 1 30 41 15 10 17 6 6 41 30 14 27 14 11 7 19 11 11
split_gain=1185.93 109.696 108.74 103.278 68.4719 42.822 32.7234 47.3892 63.9724 32.5797 59.5101 31.6838 27.1037 26.4851 24.7541 34.5407 22.336 22.629 21.0636 20.1219 18.8857 16.329 29.9058 25.1426 15.4421 15.1418 27.0934 14.8155 15.9885 13.9776 16.4877 11.2411 42.9229 11.0353 18.6722 10.5696 18.7406 28.5987 28.1675 10.2267 9.96964 16.846 8.09653 7.71165 6.19117 5.76597 7.60739 4.99053 15.7237 4.88244 13.8333 4.43378 4.32082 2.66123 7.03111 2.30877 1.80862 1.01559 0.170178 0.165209
threshold=-0.32677173614501948 -0.34909884631633753 0.72203904390335094 -1.5656322240829466 -0.16151113808155057 -0.057589191943407052 0.15645744651556018 0.14428093284368518 -1.1468679904937742 0.17556107789278033 0.35703495144844061 0.79692497849464428 -0.77981230616569508 -0.04456044174730777 -0.344605803489685 -0.22906879335641858 2.0408400297164921 -0.67210641503334034 -0.30709980428218836 0.64589771628379833 2.6481208801269536 -0.047735365107655518 0.14359539002180102 1.6915464997291567 -0.5538322627544402 -1.0123875141143797 -1.5983335375785825 -0.29147581756114954 0.14430031925439837 -1.0514274239540098 -1.0000000180025095e-35 -0.41247959434986109 -0.04778588563203811 1.174185633659363 1.0064742565155032 0.1168896146118641 -0.48660063743591303 1.1784263849258425 1.9635877609252932 -0.60674154758453358 1.9694871902465823 2.7157270908355717 -0.031555322930216782 -1.0625472068786619 -0.44178332388401026 -0.23879189044237134 0.061856893822550781 -0.33215139806270594 -1.8207456469535825 0.63043767213821422 -0.3360301405191421 -0.88214033842086781 -0.013921483419835566 -0.81287863850593556 -0.67020002007484425 -1.899596571922302 0.092576507478952422 0.14987402409315112 0.13107297569513324 0.82135307788848888
decision_type=2 2 2 2 2 2 2 2 2 2 2 2 2 2 2 2 2 2 2 2 2 2 2 2 2 2 2 2 2 2 2 2 2 2 2 2 2 2 2 2 2 2 2 2 2 2 2 2 2 2 2 2 2 2 2 2 2 2 2 2
left_child=1 16 6 4 25 13 7 21 -9 20 11 -11 -7 -4 15 -8 29 40 -15 31 -5 47 39 -24 49 -2 -27 -13 -29 30 -1 56 -33 44 -35 36 42 38 -38 -23 41 -18 43 -31 -26 46 -37 58 -49 59 -51 57 -44 54 -47 -55 -14 -42 -3 -16
right_child=3 2 5 9 -6 12 14 8 -10 10 -12 27 19 18 24 -17 17 -19 -20 -21 -22 22 23 -25 33 26 -28 28 -30 35 -32 32 -34 34 -36 45 37 -39 -40 -41 51 -43 52 -45 -46 53 -48 48 -50 50 -52 -53 -54 55 -56 -57 -58 -59 -60 -61
leaf_value=0.017871476525259576 0.018340004792304354 0.012778162881106956 -0.051728865292428525 -0.050805509303826241 -0.048668949103557041 -0.044936373152865687 0.016666264366594942 0.012249535594591783 -0.053571039884503228 -0.04544170670036763 -0.050329640982702227 0.01526345295086917 0.01980449980472157 0.012679444778459238 0.021297400180129822 -0.05053411338635732 -0.046858302201755866 -0.044391269442639693 -0.04466407783842169 -0.043581012244579179 -0.0071042666828409597 0.017074100175359461 -0.055395591176110051 0.010605391861068233 0.016041806850645622 -0.046711965018456335 0.016196975842306317 -0.04171542909058111 0.015020913104665561 -0.0020828656278914425 -0.043052100564680458 0.0097986243698993791 -0.050801161945442201 -0.048602628715116343 0.015014479085903226 0.017783643290642321 -0.057539657435470445 0.013690785358466871 0.015206225546422354 -0.0093491984952570779 -0.0067976898239753801 0.015100155866982859 -0.015561868723337301 0.015023782816059879 -0.0031254323054232033 0.020548992829327702 -0.013985175682738308 0.01770616651567835 -0.020058074441979459 0.018638611675332206 -0.010054127072519263 0.018884956261177352 0.011216474061612221 -0.012598241266799233 0.0008246349718393079 0.019327610157387858 0.0060710796132973999 0.0064615450211160672 0.020437290974161866 0.014514326856927088
leaf_weight=2.544137716293335 18.404544785618786 12.343184664845468 19.888649620115761 150.08219582587481 11.089135482907293 6.0208387672901145 5.5487066805362701 9.3903746306896227 13.451986469328402 5.8556886538863209 27.46820080280304 14.114752121269706 8.4153238236904162 5.9448058977723122 69.504442885518074 4.8873389512300474 2.5869229733944001 3.5316501632332793 3.0937895849347097 3.2782491147518149 4.5337392613291732 13.699365690350534 6.0373958721756917 2.950252041220665 14.138347864151005 3.8499239534139651 5.4020195379853213 3.7819945514202091 2.6402970552444458 10.480764538049696 2.7242198660969725 15.455509155988691 5.5451306924223926 3.0762760192155829 2.6391740813851357 5.2987991422414762 5.1305309608578691 11.36558586359024 2.6725455224514008 8.8098695054650324 4.0489182472229066 2.6541104018688202 5.0356551557779312 295.8255428224802 11.387688666582108 15.550373300909998 4.770195372402668 10.77713790535927 6.04773374646902 21.625131309032444 8.7155270129442197 10.868221364915366 3.0317221134901029 0.19832322001457114 13.378868915140627 264.59795590490103 9.6241983175277692 3.2165592536330223 16.213122464716434 13.637715063989161
leaf_count=1 17 18 154 1133 85 46 5 14 107 45 209 17 6 8 51 40 22 28 25 26 16 14 51 4 16 31 5 29 2 30 22 27 45 26 2 4 45 15 2 32 14 2 22 388 34 11 20 10 29 20 32 9 4 2 34 245 20 6 12 17
internal_value=-7.00395e-05 0.00961778 0.000211898 -0.0392104 -0.00889009 -0.0204119 0.00652711 -0.00238441 -0.0270498 -0.0447665 -0.0302297 -0.00816396 -0.00851724 -0.0392731 0.0122459 -0.0162966 0.0142738 -0.00340459 -0.00924323 -0.00237181 -0.0495908 0.00517183 -0.00574463 -0.0346375 0.0144155 0.00813161 -0.0117886 0.00398852 -0.0192397 0.0150213 -0.0151549 0.00204063 -0.00769336 0.00181915 -0.0210675 0.0152972 0.0127315 -0.00612874 -0.0335 0.00668946 0.00427311 -0.0177694 0.0139036 0.0144271 0.00762004 0.0180566 0.0026487 0.012752 0.00365579 0.0178196 0.0102748 0.0113441 -0.00515081 0.0185672 0.0118263 0.0192489 0.0132864 -0.000614059 0.0177387 0.0203943
internal_weight=1248.88 1001.66 332.147 247.222 38.7456 77.2665 254.881 99.7204 22.8424 208.477 53.8609 26.3927 48.3392 28.9272 155.16 10.436 669.512 26.9064 9.0386 42.3184 154.616 76.8781 31.4969 8.98765 144.724 27.6565 9.25194 20.537 6.42229 642.605 5.26836 39.0402 21.0006 31.2415 5.71545 637.337 333.542 19.1687 7.80308 22.5092 23.3747 5.24103 314.374 306.306 25.526 303.795 10.069 45.3812 16.8249 113.483 30.3407 18.1337 8.06738 293.726 28.9292 264.796 18.0395 7.26548 28.5563 83.1422
internal_count=3406 1817 891 1589 138 357 534 291 121 1451 302 93 170 187 243 45 926 81 33 124 1149 170 101 55 198 53 36 48 31 845 23 98 72 78 28 822 506 62 47 46 53 24 444 418 50 316 24 69 39 120 52 29 26 292 45 247 26 20 30 68
is_linear=0
shrinkage=0.02


Tree=12
num_leaves=56
num_cat=0
split_feature=30 7 5 6 30 17 4 19 40 17 19 14 30 27 1 23 15 23 30 40 27 1 19 14 30 7 6 24 40 24 1 17 23 4 23 1 0 30 25 17 17 19 41 15 10 40 17 6 6 41 19 40 4 7 24
split_gain=1134.31 106.8 104.643 96.8439 65.2204 40.4458 32.2868 39.3495 77.6063 31.75 45.3475 60.4785 29.8111 25.8544 24.7243 24.0277 32.9451 21.826 21.6842 20.2165 19.3036 15.8458 28.5476 23.7194 15.1409 14.7412 25.9618 13.036 21.7293 10.9098 40.9033 10.6511 17.8514 10.4391 9.99474 14.6286 18.22 16.1426 19.6932 10.6255 9.6954 20.1644 6.02628 5.70075 7.38105 5.46137 4.88847 15.2006 4.82806 13.4559 2.80729 2.92248 2.02096 1.7785 0.00526049
threshold=-0.32677173614501948 -0.34909884631633753 0.72203904390335094 -1.5656322240829466 -0.16151113808155057 -0.057589191943407052 0.033184761181473739 0.14430031925439837 0.37255354225635534 0.15645744651556018 0.14428093284368518 -1.1468679904937742 -0.082534737884998308 -0.77981230616569508 -0.04456044174730777 -0.344605803489685 -0.22906879335641858 2.0408400297164921 -0.67210641503334034 -0.30709980428218836 0.64589771628379833 -0.047735365107655518 0.14359539002180102 1.6915464997291567 -0.5538322627544402 -1.0123875141143797 -1.5983335375785825 -1.0048960447311399 0.81443867087364208 -0.41247959434986109 -0.04778588563203811 1.174185633659363 1.0064742565155032 0.031371219083666808 0.13176860660314563 -0.031555322930216782 -0.025706271640956398 -1.0726141333580015 2.9154608249664311 -0.77177783846855152 0.35885038971900945 0.15142623335123065 -0.44178332388401026 -0.23879189044237134 0.061856893822550781 -1.2589420676231382 -0.33215139806270594 -1.8207456469535825 0.63043767213821422 -0.3360301405191421 0.14429785311222079 0.171473003923893 0.031437499448657043 0.092576507478952422 -0.98877117037773121
decision_type=2 2 2 2 2 2 2 2 2 2 2 2 2 2 2 2 2 2 2 2 2 2 2 2 2 2 2 2 2 2 2 2 2 2 2 2 2 2 2 2 2 2 2 2 2 2 2 2 2 2 2 2 2 2 2
left_child=1 17 9 4 25 14 7 -5 -9 10 21 -12 45 -7 -4 16 -11 27 40 -16 29 46 33 -24 48 -2 -27 28 -1 53 -31 42 -33 -23 35 37 -37 38 -29 -39 41 -19 -26 44 -36 -8 54 -48 -17 -50 52 -52 -45 -15 -3
right_child=3 2 5 6 -6 13 12 8 -10 15 11 -13 -14 20 19 24 -18 18 -20 -21 -22 22 23 -25 31 26 -28 34 -30 30 -32 32 -34 -35 43 36 -38 39 -40 -41 -42 -43 -44 50 -46 -47 47 -49 49 -51 51 -53 -54 -55 -56
leaf_value=-0.044074194885205531 0.018173872514761318 0.020492884789425365 -0.05011733404550351 -0.049543012255675957 -0.047269765467104825 -0.043773870766829918 0.018449042783011863 0.019293690847347163 -0.047932053242803113 0.016510205146408562 0.012095339871850108 -0.051814885851193627 -0.044655616648859295 0.019632381721878853 0.012533786253526538 0.020227631910967065 -0.048999085172313842 -0.046018369511952775 -0.043253714567928869 -0.043515717958092108 -0.042493466536226522 0.017066963040282705 -0.053497481987702988 0.010491334505101617 0.015872001463942242 -0.045433896831030933 0.016046381854128641 -0.050065054949341041 0.014772097942444501 0.0096612581081481734 -0.049242858350087133 -0.04721587345896703 0.014888064073136285 -0.0096924270060731697 0.01763247571546912 0.0085640238531803723 -0.045178676667937338 -0.013245188691025913 0.017618177455886595 0.0144707414580284 0.01431907195335941 0.010046130379057302 -0.0030635237952616268 0.021356448987452269 -0.013676561850830334 -0.0086113920114405454 0.017541495974047278 -0.019564485644399117 0.018466088372055513 -0.0098299037296591431 -0.0025616493555457791 0.015302121897701226 0.016210888166841506 0.0059781537063942972 0.013518305546213624
leaf_weight=3.1113474965095502 18.212410509586338 13.767638333141806 20.147059909999374 166.0855805426836 11.21728792786598 6.0830292850732794 5.521159827709198 10.459648862481119 16.69446262717247 5.4990847185254097 9.3332114592194575 13.661456719040869 7.0125190168619147 8.3289572894573229 5.9056318029761314 82.185706116259098 4.9701060503721219 3.041372045874601 3.5778612941503516 3.1378581523895246 3.3200675249099723 13.684105619788175 6.1607659757137281 2.9337179958820343 14.015751495957378 3.9066013321280497 5.3535368815064395 2.6034707576036444 5.5125066488981247 15.376771569252012 5.6368859186768558 3.1320877075195304 2.6170657500624657 8.7348337024450284 5.2464438378810865 6.2444408759474754 2.9312850981950742 4.8202680200338355 2.4939060211181641 314.09803837537766 14.053473584353922 6.1949945017695427 11.405485153198242 142.14121101051569 4.8025133535265923 4.5613047629594821 10.671198613941671 6.1009865924715987 21.40221802145243 8.7584165930747968 3.3881996423006049 68.155247785151005 71.505805432796478 9.5941719189286214 14.528935819864271
leaf_count=25 17 10 154 1243 85 46 4 8 126 5 14 107 53 6 8 68 40 25 28 25 26 14 51 4 16 31 5 23 6 27 45 26 2 32 4 11 24 20 1 426 18 10 34 105 20 17 10 29 20 32 10 86 84 20 20
internal_value=-7.4866e-05 0.00948424 0.000196565 -0.0381629 -0.00875083 -0.0199806 -0.0434966 -0.0458452 -0.0222004 0.00642813 -0.0023454 -0.0263683 -0.0157715 -0.00838555 -0.0382021 0.0120931 -0.0159757 0.0141057 -0.00337858 -0.00911119 -0.00235085 0.00508887 -0.00564549 -0.0336632 0.0142508 0.00801436 -0.0115958 0.0148503 -0.0086245 0.00200027 -0.00756798 0.00177419 -0.0206321 0.00658693 0.0151888 0.0127059 -0.0111607 0.0134202 -0.0191643 0.0140055 0.00419337 -0.0109116 0.00750629 0.0179319 0.00260494 0.00635405 0.0125977 0.00359006 0.0176486 0.0101332 0.018454 0.0144049 0.0197271 0.0131312 0.0175637
internal_weight=1244.04 995.016 331.093 249.025 38.6898 77.5304 210.335 193.24 27.1541 253.563 99.5769 22.9947 17.095 48.3399 29.1905 153.986 10.4692 663.922 26.8677 9.04349 42.2569 76.5822 31.5134 9.09448 143.517 27.4725 9.26014 637.055 8.62385 38.9368 21.0137 31.1704 5.74915 22.4189 628.431 333.191 9.17573 324.016 5.09738 318.918 23.2898 9.23637 25.4212 295.239 10.049 10.0825 45.0688 16.7722 112.346 30.1606 285.19 71.5434 213.647 17.9231 28.2966
internal_count=3406 1817 891 1589 138 357 1451 1377 134 534 291 121 74 170 187 243 45 926 81 33 124 170 101 55 198 53 36 845 31 98 72 78 28 46 814 505 35 470 24 446 53 35 50 309 24 21 69 39 120 52 285 96 189 26 30
is_linear=0
shrinkage=0.02


Tree=13
num_leaves=55
num_cat=0
split_feature=30 24 30 5 23 40 40 20 30 27 0 16 24 15 27 16 30 27 1 20 40 23 11 5 23 27 36 15 40 16 40 0 0 10 23 11 5 27 20 27 5 24 16 41 40 23 0 0 15 0 41 23 30 30
split_gain=1085.75 81.0266 72.708 46.092 54.8537 53.409 60.3867 43.9641 73.3714 36.5909 31.489 30.0637 27.717 23.4168 30.6273 18.5881 17.508 40.3113 26.7765 26.5295 24.3342 16.5132 24.7381 16.059 15.7231 25.7808 14.7991 14.6158 39.0402 21.2909 31.948 14.5906 11.413 12.7055 11.1309 14.9528 10.7404 10.6746 13.046 9.4822 10.8148 9.02524 5.76836 4.83557 3.87091 11.3935 1.9963 1.98589 5.94567 1.9682 1.70115 1.04403 0.392032 1.78733
threshold=-0.32677173614501948 0.13566101342439654 -0.13492938131093976 0.99291470646858226 -0.056449817493557923 0.13271268457174304 -0.98467558622360218 -0.15365958958864209 -0.38060967624187464 -0.67180722951889027 0.14689186215400699 1.2376822829246523 0.56192833185195934 -0.22915287315845487 0.19023216515779498 1.3384397029876711 -0.58734217286109913 -0.070673245936632142 -0.055396510288119309 -1.284412622451782 -0.81860327720642079 2.0408400297164921 0.039998264983296401 0.58660119771957409 2.0408400297164921 1.4560294151306155 1.0000000180025095e-35 -0.22916044294834134 -0.31714758276939387 0.36042548716068273 0.41159781813621527 0.14690449088811877 0.14713297039270404 -0.188701257109642 -0.056449817493557923 1.3011869192123415 0.45116336643695837 1.1135035753250124 0.97272327542305004 -1.1208372712135313 0.45116336643695837 -0.81990274786949147 -0.6138736605644225 -0.1142488159239292 -0.46041543781757349 -0.12378573417663573 0.14690496772527697 0.14660925418138507 -0.066745549440383897 0.14690449088811877 -0.22945397347211835 -0.90878313779830922 -0.9663899540901183 -0.66430053114891041
decision_type=2 2 2 2 2 2 2 2 2 2 2 2 2 2 2 2 2 2 2 2 2 2 2 2 2 2 2 2 2 2 2 2 2 2 2 2 2 2 2 2 2 2 2 2 2 2 2 2 2 2 2 2 2 2
left_child=3 26 10 7 5 6 42 8 13 11 37 -4 -8 14 34 -12 19 18 -18 -15 -19 27 32 -21 50 -26 31 28 -9 49 -31 -2 33 -23 35 -1 -33 47 -39 40 43 -42 -5 -29 45 -41 -46 48 -3 -30 -6 -7 -52 -54
right_child=1 2 9 4 24 51 12 21 -10 -11 15 -13 -14 16 -16 -17 17 20 -20 23 -22 22 -24 -25 25 -27 -28 39 29 30 -32 36 -34 -35 -36 -37 -38 38 -40 44 41 -43 -44 -45 46 -47 -48 -49 -50 -51 52 -53 53 -55
leaf_value=-0.040744197826630198 -0.048022148474833382 -0.0092256076434816155 -0.042385498918390441 0.016614165116546429 0.0070521298565564732 0.018515077774225345 -0.051131909567378654 -0.04362135755645425 -0.052754920335128984 -0.047812538634508357 -0.045901303244112991 0.015280030026730821 0.010335382004202873 -0.044529133386882851 -0.048166823719718227 0.0099507035385569473 0.014871353631234494 0.017195584751005591 -0.053504095801762123 0.01389651627936455 -0.0037829252308878071 0.012397910739051577 -0.046603231219957901 -0.0047232738903888547 -0.044942156744350169 0.016193085369533726 -0.0096821395718200264 -0.0022853633532574232 0.020378257304137556 -0.051432254997722658 0.0062527437033071485 0.014870597667557852 0.016156635795045862 -0.040839132561878787 0.017010787923754923 0.015244900428269377 -0.034440947660250687 -0.039037841925899763 0.014675923156697496 -0.0089420572244638362 0.014889892321299709 -0.024737848447920326 -0.0090476504296978996 0.015673085258222183 0.019102592358181965 0.015767040333917036 0.012565966280452213 0.0183268980968425 0.019195320788869891 0.0092320735563771218 0.022238062641156991 0.0069364022290362764 0.0039247373329361086 0.017980829908542193
leaf_weight=3.2186682522296897 149.84839813411236 4.7318259999156025 5.0254798233509055 8.0967937186360341 9.1604617536067945 7.7511487603187588 24.925033882260326 4.6791593581438056 7.5158492475748053 36.373714089393616 7.3128645643591863 8.1026777699589712 2.9072626531124106 2.3853627592325202 5.9387649148702613 2.8330511525273323 2.6141372174024582 38.466493010520935 7.2025830969214422 191.06082251667976 49.404882714152336 2.7446270287036931 3.1485121622681609 19.852918148040771 3.9176623523235303 5.3888228386640549 5.1492837592959395 6.9169814810156813 38.178121112287045 3.7612571045756367 18.894723415374756 2.614004857838153 14.180638238787649 2.654504299163821 8.3109827563166636 2.6792511716485023 2.5570873469114304 2.8607900589704505 2.5797962099313736 7.8640238791704169 2.6173856481909752 5.722693704068659 4.7761294320225707 29.949452959001064 299.47371643036604 54.120362602174282 30.4190813601017 15.463575646281241 5.1006925925612476 11.512528985738752 14.931002959609026 9.1345660388469678 5.9648149013519243 15.867430023849019
leaf_count=25 1111 18 38 8 18 6 192 36 61 271 56 9 4 20 47 4 2 42 59 270 150 3 26 63 31 5 20 20 30 32 39 2 16 21 8 2 19 22 2 28 2 30 18 36 282 66 45 14 3 20 8 18 13 15
internal_value=-7.96753e-05 -0.037182 -0.0216327 0.00935246 -0.00264463 -0.0161802 -0.0283978 0.010902 0.00522802 -0.0376864 -0.00171094 -0.00809049 -0.0445061 0.00670497 -0.0136955 -0.0306327 0.00807271 0.00102187 -0.0354197 0.0112727 0.00546826 0.0144612 -0.0020603 0.0121204 0.0114707 -0.0112119 -0.0457556 0.0151981 0.00699359 0.0108446 -0.00500869 -0.0468713 0.00692169 -0.0157555 0.00280038 -0.0164972 -0.0108193 0.00843728 -0.0149334 0.0166201 0.00762961 -0.0118246 0.00698304 0.0122795 0.0176301 0.0125082 0.0185457 0.0139166 0.00574429 0.0180684 0.0162509 0.0131013 0.0182426 0.0145682
internal_weight=1238.86 250.553 90.3845 988.31 112.821 57.5909 40.7052 875.488 338.651 49.5019 40.8826 13.1282 27.8323 331.135 20.1477 10.1459 310.987 97.6881 9.81672 213.299 87.8714 536.838 22.7283 210.914 55.2302 9.30649 160.169 514.109 77.0258 72.3466 22.656 155.019 19.5798 5.39913 14.2089 5.89792 5.17109 30.7367 5.44059 437.084 45.2065 8.34008 12.8729 36.8664 391.877 61.9844 329.893 25.2961 9.83252 49.6907 45.9237 16.8857 36.7632 21.8322
internal_count=3406 1589 437 1817 336 246 222 1481 749 318 119 47 196 688 82 60 606 253 61 353 192 732 66 333 90 36 1152 666 157 121 71 1132 40 24 35 27 21 59 24 509 88 32 26 56 421 94 327 35 21 50 54 24 36 28
is_linear=0
shrinkage=0.02


Tree=14
num_leaves=44
num_cat=0
split_feature=30 6 6 30 5 1 16 41 4 19 40 4 15 40 30 40 30 1 7 1 5 20 30 20 7 23 7 11 15 30 30 7 6 40 19 14 40 41 20 28 6 40 1
split_gain=1040.2 102.01 85.6817 59.4009 51.3584 47.0598 51.8733 31.9744 29.1621 34.4978 70.9723 28.6096 27.8613 44.9959 27.4821 25.2366 18.4164 18.4051 17.2794 36.6081 15.5572 15.1784 51.7203 24.9001 19.1996 16.8707 15.9814 21.1843 16.57 22.3318 18.1431 14.0422 24.0734 12.6571 8.9485 14.4916 5.14201 5.02974 3.76908 2.96695 1.63633 0.982148 0.429787
threshold=-0.32677173614501948 0.50595387816429149 -1.5656322240829466 -0.16151113808155057 0.99291470646858226 -0.046052757650613778 0.36042548716068273 -0.14183515310287473 0.033184761181473739 0.14430031925439837 0.37255354225635534 0.041913069784641273 -0.22916044294834134 0.81443867087364208 -0.082534737884998308 1.949036240577698 -0.38060967624187464 -0.048356836661696427 1.3890960216522219 -0.047777717933058732 0.99291470646858226 -0.40710498392581934 -0.41486892104148859 -1.0964409708976743 -0.90437492728233326 -0.38185970485210413 0.11356437951326372 1.3184551596641543 -0.23879189044237134 -0.58272761106491078 -0.64485695958137501 -1.0123875141143797 -1.5983335375785825 -1.0167310833930967 0.14430031925439837 -0.87026327848434437 -1.2589420676231382 -0.15228994190692899 1.2175344228744509 1.0000000180025095e-35 0.21283680945634845 -0.73222732543945301 -0.047849178314208977
decision_type=2 2 2 2 2 2 2 2 2 2 2 2 2 2 2 2 2 2 2 2 2 2 2 2 2 2 2 2 2 2 2 2 2 2 2 2 2 2 2 2 2 2 2
left_child=1 15 3 31 11 6 -6 33 9 -4 -11 12 13 -3 36 21 18 -18 19 -14 -17 22 23 -1 -25 -26 28 37 29 30 -23 -2 -33 -8 38 -36 -10 40 -30 -7 -28 -20 -9
right_child=2 4 8 -5 5 39 7 42 14 10 -12 -13 16 -15 -16 20 17 -19 41 -21 -22 26 -24 24 25 -27 27 -29 34 -31 -32 32 -34 -35 35 -37 -38 -39 -40 -41 -42 -43 -44
leaf_value=-0.041200357188408532 0.017861500062638386 -0.046157804926362678 -0.046831298540716215 -0.044762357084480682 -0.049187849249798965 0.00047879654186310373 -0.0016297977829961869 0.017722746413702521 0.018256135479843054 0.019017823659777802 -0.045401626908142853 -0.0464997347469688 0.013075372687023381 0.01345850022615901 -0.042346727720556421 -0.044322723409392265 0.014383780650851004 -0.047084544041782896 0.020668970941358406 -0.0053347305696619376 0.0026989001282531656 -0.020444057797136757 -0.047795326175749005 -0.042191636051214808 -0.012103271701234056 0.015685374167590159 -0.011223056906455111 -0.046928157074769924 0.018222261585824011 -0.046971808082062722 0.019799495701258087 -0.043329984538780057 0.015761682921539101 -0.046255924016818925 0.019995632227232406 0.00096782286881330398 -0.0080078613175780331 0.017251892745998396 0.0058174934924644537 0.017455765888264509 0.0055733872713734124 0.011324335335887576 0.007955636957993277
leaf_weight=2.6375532299280158 17.845968537032608 9.6237327083945292 168.86878754198551 11.430257901549338 20.882622472941875 6.8709445521235475 4.0405453592538834 5.2758990600705138 5.4531262516975403 10.263675361871721 16.98632687330246 3.4313103258609763 95.197974912822247 8.930488742887972 7.1412251740694037 3.655082628130911 2.5281831249594688 3.9616846591234198 33.973216943442822 77.464752972126007 6.6683258563280106 5.5810933411121413 5.4293056651949874 1.5814467221498478 8.7579149454832059 100.07208567112684 4.522743672132493 2.568914681673049 427.81621234118938 2.581285059452056 13.181411094963551 3.9968585446476954 5.2614191398024523 6.7363778203725833 28.445851095020771 35.838812917470932 4.6124138161540049 7.77835737168789 11.707667186856268 10.55927162617445 3.0132084637880325 11.535632185637949 9.0315168425440771
leaf_count=21 17 73 1243 85 159 18 12 4 4 8 126 28 142 12 53 29 2 32 26 246 16 27 43 14 34 124 18 22 435 22 10 31 5 52 23 91 17 7 24 10 6 18 17
internal_value=-8.27964e-05 0.00922272 -0.0362615 -0.00848913 -0.000261825 -0.0161785 -0.0266441 -0.00663368 -0.0412058 -0.0434133 -0.021253 0.00387007 0.00477637 -0.0181403 -0.0149334 0.0135966 0.00674986 -0.0241486 0.0077841 0.00482105 -0.0162168 0.0140886 0.00747563 0.0105434 0.0121562 0.0133411 0.0155114 -0.00284137 0.0161444 -0.000983669 0.0072987 0.00778509 -0.0112907 -0.0312534 0.0168745 0.00959554 0.00640418 0.00685462 0.0179103 0.0112611 -0.00440664 0.0186377 0.0126104
internal_weight=1233.74 981.881 251.86 38.5345 310.044 63.3972 45.967 25.0843 213.326 196.119 27.25 246.647 243.216 18.5542 17.2068 671.837 224.661 6.48987 218.172 172.663 10.3234 661.514 118.478 113.049 110.411 108.83 543.036 17.8832 525.152 21.3438 18.7625 27.1042 9.25828 10.7769 503.809 64.2847 10.0655 15.3143 439.524 17.4302 7.53595 45.5088 14.3074
internal_count=3406 1817 1589 138 851 272 244 85 1451 1377 134 579 551 85 74 966 466 34 432 388 45 921 236 193 172 158 685 53 632 59 37 53 36 64 573 114 21 31 459 28 24 44 21
is_linear=0
shrinkage=0.02


Tree=15
num_leaves=63
num_cat=0
split_feature=30 7 5 6 30 19 41 23 40 15 1 40 4 19 40 30 19 24 24 23 14 30 41 16 24 7 6 23 1 0 30 26 30 16 24 23 24 6 41 30 30 4 41 1 15 8 4 40 30 8 41 30 27 14 15 23 6 14 1 0 30 30
split_gain=997.343 99.8733 94.1531 80.8648 56.7851 34.3204 32.2856 33.3949 28.3931 43.4991 33.6664 30.0129 27.4826 32.3074 67.8634 26.3212 22.4539 20.9479 33.531 20.4285 19.9056 19.5938 14.6117 19.4275 21.6536 13.6704 23.1259 12.4868 23.2301 18.4165 17.8031 19.5246 10.9306 27.471 9.32605 15.2001 8.36669 7.75925 9.04771 19.5545 7.40762 13.9877 6.97811 13.0133 5.48651 6.9717 5.45574 5.00988 4.19158 3.30714 5.0805 2.93562 2.80137 6.93628 9.62943 1.85082 1.27176 1.13137 1.0214 0.70487 0.574005 0.205461
threshold=-0.32677173614501948 -0.34909884631633753 0.72203904390335094 -1.5656322240829466 -0.16151113808155057 0.14397249370813373 -0.26986767351627344 -0.67974081635475148 -0.5845232605934142 -0.22914978861808774 -0.047782892361283295 0.71862971782684337 0.033184761181473739 0.14430031925439837 0.37255354225635534 -0.082534737884998308 0.14429535716772082 -0.22798714041709897 -0.41247959434986109 2.0408400297164921 -0.34326408803462977 -0.67210641503334034 -0.44178332388401026 0.40924735367298132 -0.3240377008914947 -1.0123875141143797 -1.5983335375785825 0.13176860660314563 -0.031555322930216782 -0.025706271640956398 -1.0726141333580015 1.0000000180025095e-35 -0.48660063743591303 1.1784263849258425 1.9694871902465823 2.7157270908355717 -1.2960474491119383 0.57992202043533336 -0.61885485053062428 -0.38776172697544092 -0.43270394206047053 0.030435245484113697 -0.47209618985652918 -0.04456044174730777 -0.23879189044237134 0.064795255661010756 0.032619349658489234 -1.2589420676231382 -0.88214033842086781 -0.46195058524608607 -0.22489768266677854 -0.9315759241580962 -0.81287863850593556 -0.67020002007484425 -0.20724099874496457 -0.35317400097846979 -0.15763451904058454 -1.3240593075752256 -0.72911140322685231 0.14689951390028003 -0.53384423255920399 -1.0147213935852049
decision_type=2 2 2 2 2 2 2 2 2 2 2 2 2 2 2 2 2 2 2 2 2 2 2 2 2 2 2 2 2 2 2 2 2 2 2 2 2 2 2 2 2 2 2 2 2 2 2 2 2 2 2 2 2 2 2 2 2 2 2 2 2 2
left_child=1 19 8 4 25 6 7 42 9 -3 37 17 13 -5 -15 47 -7 18 -12 27 40 34 55 24 -24 -2 -27 28 30 -30 31 -1 36 -34 35 -21 -32 56 -39 -40 41 -18 43 -4 45 -29 51 -14 61 -8 -51 -13 53 -46 -55 -11 -10 -54 -59 -25 -57 -36
right_child=3 2 5 12 -6 16 49 -9 10 22 11 46 15 14 -16 -17 20 -19 -20 21 -22 -23 23 59 -26 26 -28 44 29 -31 32 -33 33 -35 48 -37 -38 38 39 -41 -42 -43 -44 -45 52 -47 -48 -49 -50 50 -52 -53 57 54 -56 60 -58 58 -60 -61 -62 -63
leaf_value=-0.049554230095931233 0.017700589593076917 -0.043254811213039437 -0.037759805938251019 -0.045602187043220492 -0.043630846542708469 -0.047130215099769314 0.018906255513816979 -0.047456569554962934 0.0080203001549577768 0.0066210383926771478 -0.031357322079226049 0.011036894062605386 0.018098829530264326 0.018860935434488732 -0.044246548886515198 -0.041346794353356808 0.01577332824252204 -0.051559946662456835 0.010615724854246944 -0.044079746391355909 -0.042782163721848787 -0.040732967467408149 0.0046796896032511052 0.010906844592525776 -0.030743501261120847 -0.042257061607180769 0.015615853631121149 0.017263530588744146 0.0048560858981311914 -0.045115349757758098 -0.027240743236808355 0.017231047390762561 -0.030190350503534101 0.015824004699111847 -0.0035688267998390923 0.014693874669327461 0.014461828560433439 0.013320755377091159 -0.047347273823858602 0.016266122311186564 0.016683163446091259 -0.038953399973614772 0.015405327531378882 0.015242175636869462 0.019973351634315503 -0.013273800468040959 0.020977154479042043 -0.0078541127199524326 0.018450656075077041 0.014732408984672216 -0.011028120076676253 -0.011464389661495843 0.011109383354416634 -0.019826568895929347 0.012953171941971368 0.021437438283660279 0.01891513049431149 -0.0061184577216277097 0.019149772267515689 0.019777311401253425 0.014237613542239 0.0023194688632275852
leaf_weight=2.8931095600128165 17.659014143049721 4.6754510700702658 2.8986479789018631 169.96726024150848 11.517177388072012 19.620115965604782 10.181140154600145 10.205569714307783 9.1446859538555163 6.1645655632019034 17.513251803815365 2.9999537467956543 5.3997412621974945 10.151518151164057 17.106017783284187 7.1913114339113227 2.7698710709810257 7.1903225108981159 12.165784165263174 2.6848892569541993 5.2770094126462928 3.6731146275997153 29.445973947644234 11.382423684000967 7.9235459864139548 4.0413029491901415 5.2141573876142466 5.1176781058311445 6.5367896631360054 4.0508011132478696 1.0212933346629132 2.4158508777618408 7.126213602721692 13.35292361676693 3.839766748249537 2.5829577893018723 296.7912452891469 6.0992326438426954 3.1267110705375654 2.8524020686745661 5.4964541941881198 2.8478955775499344 5.7240806445479411 2.6787788793444633 14.896129027009012 4.8342746496200562 7.546135701239109 4.6280658617615718 10.567879721522326 5.4740140661597252 4.7914362922310811 4.4750463366508466 13.549740329384802 4.8437533229589453 8.2676592469215375 56.949740298092365 20.503767982125282 0.095002688467501595 235.50993876159191 22.530595727264881 16.76770206540823 3.3984194844961166
leaf_count=25 17 36 22 1243 85 147 8 78 17 12 101 4 4 8 126 53 2 58 20 22 40 28 66 18 46 31 5 4 14 32 8 1 41 15 12 2 400 8 26 2 5 22 6 2 11 20 4 17 9 6 19 18 21 23 11 40 18 1 218 18 22 8
internal_value=-8.75091e-05 0.00909255 8.06152e-05 -0.0354039 -0.00836513 -0.0189558 -0.00634237 -0.0229853 0.00609015 0.0112967 -0.00258356 -0.0132425 -0.0401791 -0.042312 -0.0208369 -0.0146582 -0.0330282 -0.0227903 -0.0143017 0.0136355 -0.0142939 -0.00330726 0.0132703 0.00651003 -0.00338454 0.00767646 -0.0111152 0.0143723 0.0116532 -0.0163338 0.0126225 -0.0209323 0.0132522 -0.000754802 0.00401195 -0.0171959 0.0142214 0.0106245 -0.00261178 -0.0187309 0.00148224 -0.0133618 0.00101183 -0.0135524 0.0174788 0.0023895 0.0100275 0.00631353 0.0109733 0.0113259 0.00261944 -0.00196118 0.0180029 0.0110896 0.000154769 0.0191229 0.0159913 0.0187246 0.0191053 0.017255 0.020039 -0.000615462
internal_weight=1228.35 975.472 327.422 252.876 38.4317 77.965 41.9537 21.5071 249.457 155.84 93.6173 51.8905 214.444 197.225 27.2575 17.2191 36.0113 36.8694 29.679 648.049 16.3912 26.747 151.165 71.2825 37.3695 26.9145 9.25546 621.302 334.188 10.5876 323.601 5.30896 318.292 20.4791 23.0739 5.26785 297.813 41.7268 12.0783 5.97911 11.1142 5.61777 11.3015 5.57743 287.114 9.95195 15.0211 10.0278 17.8061 20.4466 10.2655 7.475 277.162 28.0075 13.1114 79.882 29.6485 249.155 235.605 33.913 73.7174 7.23819
internal_count=3406 1817 891 1589 138 357 141 108 534 258 276 205 1451 1377 134 74 216 179 121 926 69 81 222 148 112 53 36 845 536 46 490 26 464 56 53 24 408 71 36 28 29 24 30 24 309 24 26 21 29 33 25 22 285 45 34 74 35 240 219 36 62 20
is_linear=0
shrinkage=0.02


Tree=16
num_leaves=61
num_cat=0
split_feature=30 7 5 30 7 20 16 14 17 17 15 24 41 27 1 36 30 40 20 14 27 1 24 11 20 24 0 4 0 11 41 24 24 1 11 40 40 5 8 20 41 17 7 27 14 8 27 15 40 40 17 1 4 17 7 40 30 14 30 41
split_gain=957.116 97.1306 90.6735 67.9155 64.0946 39.6109 45.0228 35.6076 34.4783 29.0091 36.1822 27.1173 22.9859 21.6066 20.5216 20.3505 19.534 18.3298 17.669 17.2317 17.0448 15.4818 30.6116 26.8109 15.0421 48.0324 13.7519 16.1017 15.432 20.7402 25.5063 16.7897 10.058 35.6793 9.80535 12.2244 9.3522 28.84 23.0776 14.136 9.04726 9.00726 14.6406 6.37735 16.1301 20.2552 8.5611 6.32324 20.1613 4.51664 3.17976 2.95066 4.66071 2.46405 1.72803 1.30843 2.92764 1.12605 2.07687 0.0234622
threshold=-0.32677173614501948 -0.34909884631633753 0.72203904390335094 -0.13492938131093976 -1.0123875141143797 -0.55513682961463917 1.3384397029876711 0.79348424077034008 -0.057589191943407052 0.15645744651556018 -0.22913233190774915 0.54165452718734752 -0.28522382676601404 -0.77981230616569508 -0.04456044174730777 1.0000000180025095e-35 -0.40236328542232508 -0.30709980428218836 0.4543162882328034 -1.3733701705932615 0.64589771628379833 -0.047779098153114312 -0.10848224908113478 0.3239161372184754 1.1875200867652895 1.023987412452698 0.14690487831830981 0.021837597712874416 0.14735317975282672 0.81110909581184398 -0.14032433927059171 1.8762938976287844 -0.41247959434986109 -0.04778588563203811 -0.13292381167411801 -1.3030896186828611 -0.59219887852668751 1.0000000180025095e-35 -1.2815222740173338 -0.72812876105308522 -0.10257339850068091 1.174185633659363 1.430977523326874 -1.1346282958984373 0.36481441557407385 0.58035647869110119 -1.4926131367683408 -0.23879189044237134 0.83877038955688488 0.66523584723472606 -0.83789697289466847 -0.047804422676563256 0.031014129519462589 0.39686226844787603 0.092576507478952422 1.7361627817153933 -0.7305912673473357 0.59216779470443737 -0.86882042884826649 -0.58379444479942311
decision_type=2 2 2 2 2 2 2 2 2 2 2 2 2 2 2 2 2 2 2 2 2 2 2 2 2 2 2 2 2 2 2 2 2 2 2 2 2 2 2 2 2 2 2 2 2 2 2 2 2 2 2 2 2 2 2 2 2 2 2 2
