tree
version=v4
num_class=1
num_tree_per_iteration=1
label_index=0
max_feature_idx=50
objective=binary sigmoid:1
feature_names=Column_0 Column_1 Column_2 Column_3 Column_4 Column_5 Column_6 Column_7 Column_8 Column_9 Column_10 Column_11 Column_12 Column_13 Column_14 Column_15 Column_16 Column_17 Column_18 Column_19 Column_20 Column_21 Column_22 Column_23 Column_24 Column_25 Column_26 Column_27 Column_28 Column_29 Column_30 Column_31 Column_32 Column_33 Column_34 Column_35 Column_36 Column_37 Column_38 Column_39 Column_40 Column_41 Column_42 Column_43 Column_44 Column_45 Column_46 Column_47 Column_48 Column_49 Column_50
feature_infos=[-930.4788818359375:762.36920166015625] [-100:100] [0:1] [0:1] [9.7144514654701197e-14:6.355931282043457] [-970.8515625:1569.0750732421875] [-1465.4178466796875:2477.95751953125] [0:1] [0.035714287310838699:1] [0:1] [0:1] [0:4.0360360145568848] [0:80.295242309570312] [0:1] [0:1] [0:1] [0:1] [-3.0656933784484863:8.1493024826049805] [0:1] [0:5] [0:1] none [0:4.3831777572631836] [0:1] [0:2.5425286293029785] [-108.64920043945312:151.45307922363281] [-3.8060159683227539:4.0052061080932617] [-100:72.768257141113281] [0:1] [0:1] [0:8.0516958236694336] [0:1] [0:3] [-0.36909431219100952:1.5756500959396362] [35:100] none [0:1] [-51.136363983154297:66.666664123535156] [0:1] [0:3] [0:1] [0:1] [0:3] [0:1] [1.7364061932312325e-05:5] [0:1] [0:1] [0:4.0052061080932617] [0.0010183060076087713:17.622222900390625] [-2.3781063556671143:4.3566136360168457] [0:8.1052627563476562]
tree_sizes=7011 6981 6996 7019 7001 7007 7031 7022 7040 7017 7023 6993 7050 7023 7018 7012 6969 6967 7059 7016 7060 6911 7011 7004 7036 6985 6973 7036 6965 7046 7039 6988 7007 7046 7025 7048 6990 7019 7018 6958 6995 6957 6985 6987 7031 6982 7072 7010 7048 7012 6983 7006 7042 5569 6983 6959 7035 7014 4942 6963 7031 6994 6154 6252 5648 5177 6193 7056 5333 5379 7020 6130 7010 7009 6962 5215 6969 6800 7005 6059 7040 6943 6992 6927 6935 6753 7012 5837 6846 5092 4763 5699 5441 6788 4380 6993 7010 6497 6986 6972 7028 6922 6947 6965 6537 6857 6128 6974 6950 5749 7007 7053 6955 7029 5753 6519 5243 5742 7036 6748 6992 3389 7009 4413 7019 6963 6546 4830 4173 3857 6987 7000 6412 7008 6306 4873 7017 5046 6944 4075 6991 7034 5300 4819 5041 6973 5156 5718 5316 6973 5435 3609 5444 6536 6873 7017 4708 5242 5278 5677 5934 6010 6940 5885 4753 6347 4136 6969 6026 6955 6847 7035 6980 5691 3171 6894 6208 3381 5467 2957 6311 4918 5332 4056 4905 6109 7011 2959 4292 4249 5488 2425 6977 6964 5213 2641 4019 6094 6248 6796

Tree=0
num_leaves=63
num_cat=0
split_feature=7 25 38 50 1 30 44 25 24 7 7 8 45 22 26 33 33 48 30 33 8 24 48 8 29 31 44 48 19 47 7 34 34 30 8 33 0 25 19 10 27 27 48 34 27 4 24 48 10 47 22 30 48 34 6 48 4 10 10 50 44 33
split_gain=447.932 87.2572 86.5271 60.5625 53.5548 55.1521 50.7828 42.4054 37.6234 36.0115 32.2165 30.3912 29.6829 33.3041 34.1819 29.6224 26.2885 24.7681 27.977 24.6776 23.7925 25.5855 23.5648 32.679 22.9127 42.4961 22.2274 21.8188 28.289 21.4522 20.9182 22.8387 20.8153 20.1397 20.0203 19.6264 19.1527 17.7631 17.5917 16.4037 15.5917 15.0613 20.9764 15.0322 14.114 13.9815 13.2603 12.3023 15.195 12.2498 12.1777 12.175 11.5809 11.4222 11.2885 10.9158 10.8491 10.7938 10.5833 10.1471 9.84053 9.36274
threshold=0.60716891288757335 3.9300000935327268e-05 1.0000000180025095e-35 0.31374065577983862 -1.0000000180025095e-35 0.72970616817474376 1.3248686194419863 -3.4780000532919071e-06 0.47529281675815588 0.88923770189285289 0.93950074911117565 0.76785713434219371 1.0000000180025095e-35 0.17500000447034839 -1.0909864902496336 0.37796333432197576 0.50453767180442821 4.1975469589233407 1.984246611595154 0.22393184900283816 0.19642857462167743 0.36318728327751165 0.63291278481483471 0.5892857313156129 1.0000000180025095e-35 1.0000000180025095e-35 0.072100974619388594 0.70075249671936046 4.8729588985443124 0.80635300278663646 0.7976769506931306 69.949409484863295 68.753959655761733 1.3128231167793276 0.62500000000000011 0.86618694663047802 -2.4088235477393024e-05 2.4020000637392518e-06 2.6327496767044072 0.9690590798854829 -0.35326926410198206 -0.44081144034862513 1.2166200876235964 83.773811340332045 0.81640696525573742 1.1029461026191714 0.27166400849819189 1.3928501009941103 0.40317787230014807 2.3901451826095585 0.30075868964195257 1.0792289376258852 1.4820104837417605 44.66521072387696 0.00013813529221806678 0.49761846661567694 0.92486926913261425 0.99556884169578563 0.107195932418108 0.60608634352684032 0.15273444354534152 1.0146327018737795
decision_type=2 2 2 2 2 2 2 2 2 2 2 2 2 2 2 2 2 2 2 2 2 2 2 2 2 2 2 2 2 2 2 2 2 2 2 2 2 2 2 2 2 2 2 2 2 2 2 2 2 2 2 2 2 2 2 2 2 2 2 2 2 2
left_child=1 4 3 7 5 34 8 -2 22 19 27 12 13 26 -15 -7 56 18 35 60 21 -14 23 38 40 29 -6 43 -29 -26 55 37 52 -25 -1 49 -10 -32 -3 -34 53 42 51 -9 -17 -22 50 48 58 -11 -24 -21 -12 -13 -33 -18 -5 -43 -8 -42 -4 -60
right_child=2 6 9 16 11 15 47 10 36 17 32 24 20 14 -16 44 30 -19 -20 41 45 -23 46 33 25 -27 -28 28 -30 -31 31 54 39 -35 -36 -37 -38 -39 -40 -41 59 57 -44 -45 -46 -47 -48 -49 -50 -51 -52 -53 -54 -55 -56 -57 -58 -59 61 -61 -62 -63
leaf_value=0.017627641186419483 -0.00046064644908870052 0.00051920353615911936 0.024623181864673341 0.0068377425847153559 0.0025799656170335337 0.024509929097954804 0.0097688091164848997 -0.012752943743815016 -0.0089058121537654699 -0.02871451655098288 -0.024621095908623512 -0.0032449276375041362 -0.00085205874695929134 -0.025669158203584987 0.0022010915443007877 -0.033149855120518691 -0.010442647980388827 0.01141288485290008 -0.047099804562425678 -0.0093776227674190818 0.0069544342694612422 0.027193030587920049 0.00064826912306642644 -0.0071483340337424386 -0.042658306273852947 0.010184197746695475 0.0070139677901863654 0.00016144332741743891 -0.017428767816334963 0.0024965174246323429 0.0037333896049864803 -0.019485540876360032 0.015128711658961012 -0.040315883388204923 0.051745471550128867 -0.0063591649141142561 -0.051252051812058406 -0.012122502819718418 -0.0054062870487108774 -0.013138232798951429 -0.0053181957576448379 -0.031454994769776042 0.012782460441886412 0.012781813043343552 0.0055343770205571871 0.0022945625528592883 0.019773852343776863 0.01172218762805686 0.0074174115728189386 -0.0016890182453043715 -0.024717821387402219 -0.032415799905807043 -0.0097971883487863124 0.0055440665658062754 -0.0026953233630012383 0.0017414399521091574 -0.00208812274481622 -0.0087410608550428578 -0.026044126546300027 0.0043525417834497718 -0.0028615519313265414 -0.0030681781040144528
leaf_weight=25.481592640280724 372.95123434066772 1841.3610956072807 20.739049315452576 290.80885756015778 1337.870537891984 26.521010756492615 23.818962529301643 634.88198228180408 20.320648819208145 194.39825487136841 272.56369298696518 175.23972788453102 1749.9219858646393 59.053969338536263 115.42125107347965 19.453187003731728 74.393310949206352 15.683254212141035 49.945650488138199 116.55813759565353 978.50293539464474 28.771803289651871 4318.0215372294188 807.64093124866486 40.01259970664978 34.447518825531006 4301.9310356676579 388.73854008316994 103.26148545742035 12.012984201312063 70.243318796157837 36.554821506142616 18.453207209706306 15.922018095850943 46.884389460086823 55.562238752841949 18.551772803068161 607.32813653349876 595.81681822240353 404.95296339690685 452.60076314210892 57.979501649737358 32.439878925681114 20.564898639917374 13.88262018561363 1429.8528857976198 31.540659099817276 337.96815766394138 246.63419663906097 16.755527526140213 16.096168771386147 24.783892750740051 60.511787950992584 540.52077303826809 964.44390973448753 539.75077962875366 209.96325454115868 29.736733511090279 27.899952724575996 123.28095155954361 24.683132782578468 37.111225917935371
leaf_count=88 1497 7337 67 1104 5249 86 88 2780 87 944 1290 718 7044 282 454 98 321 57 271 499 3712 91 17189 3402 212 127 16313 1553 467 47 273 168 65 84 114 233 104 2648 2479 1778 1882 287 117 74 53 5622 107 1234 932 68 77 124 260 2073 3935 2131 853 127 134 477 101 152
internal_value=-7.4739e-09 0.00212998 -0.00740429 -0.00608963 0.00382272 0.02274 -0.000206692 -0.0097211 -0.000901331 -0.0178011 -0.0115323 0.00360067 0.00417616 0.00556338 -0.00730748 0.00129622 -0.00312625 -0.0246459 -0.0264715 -0.0103236 0.00224825 -0.000381696 -0.000748866 -0.00267822 -0.000573624 -0.0154337 0.00596331 -0.00834602 -0.00355219 -0.0323248 -0.00448664 -0.00621911 -0.016344 -0.00784132 0.0401768 -0.0224359 -0.0299692 -0.0104712 -0.000929794 -0.0118665 0.000430082 -0.0138692 -0.00864379 -0.011929 -0.0172605 0.00419119 0.000691779 0.00768513 0.00358627 -0.0266022 0.000547692 -0.0136377 -0.0219743 0.00338655 -0.0033303 0.000246087 0.00309263 -0.0239739 -0.00698156 -0.00323879 0.00988301 -0.0132191
internal_weight=25560 19850.4 5709.63 5070.37 11511.7 132.223 8338.7 2276.88 7665.27 639.265 1903.93 11379.4 10001.3 5814.28 174.475 59.8568 2793.49 332.345 316.662 306.92 4187.05 1778.69 7626.4 3260.74 1378.12 86.4731 5639.8 1147.45 492 52.0256 2292.71 1678.57 756.482 823.563 72.366 266.716 38.8724 677.571 2437.18 423.406 1291.64 261.498 173.782 655.447 33.3358 2408.36 4365.66 673.432 335.464 211.154 4334.12 141.342 333.075 715.761 1001 614.144 500.772 87.7162 88.8301 575.882 45.4222 65.0112
internal_count=102240 78148 24092 21197 44742 439 33406 9764 30866 2895 8267 44303 38767 22298 736 237 11433 1573 1516 1322 16469 7135 30675 13302 5536 386 21562 4874 2020 259 9476 7024 3393 3486 202 1245 191 2921 9816 1843 5150 1154 740 2854 151 9334 17373 2540 1306 1012 17266 623 1550 2791 4103 2452 1957 414 374 2359 168 286
is_linear=0
shrinkage=1


Tree=1
num_leaves=63
num_cat=0
split_feature=12 8 8 32 12 1 5 34 29 50 6 11 6 47 12 17 47 47 12 6 6 4 17 32 4 32 12 7 32 12 33 48 37 10 17 7 12 44 48 6 4 38 47 7 7 32 49 34 44 11 5 6 47 44 6 49 10 47 50 8 49 7
split_gain=612.086 103.769 98.8955 106.402 72.3124 67.9546 51.7525 51.4316 47.6808 37.9136 37.5362 36.6081 33.4176 34.2408 30.5386 27.8696 27.1 26.6805 34.4861 28.9424 26.647 30.6689 25.7358 25.5057 25.1589 24.5482 24.5392 23.1376 22.3276 27.9479 21.6017 23.4376 21.5136 21.3688 21.1134 20.5036 19.4603 17.6871 17.0545 27.4359 15.1885 14.9337 14.5538 14.0601 13.997 13.1734 13.3 12.9288 12.5428 11.6617 11.1391 11.0811 10.7571 18.6135 10.4579 10.0274 9.77442 11.499 9.77283 9.51305 8.89735 8.72554
threshold=5.3130006790161142 0.73214286565780651 0.66071426868438732 0.6517462730407716 3.735352754592896 -1.0000000180025095e-35 0.00035027941339649265 83.169013977050795 1.0000000180025095e-35 0.41807433962821966 3.9301470678765334e-05 0.098319560289382948 0.00068897058372385811 1.1317400932312014 10.69234609603882 -0.73669242858886708 0.70446121692657482 0.90085729956626903 9.0677351951599139 22.053161621093754 6.8836324214935312 1.9045499563217165 1.0589572191238406 1.2715073823928835 0.98136582970619213 0.83913818001747142 13.703806400299074 0.0054955969098955402 0.2461187690496445 6.779226779937745 0.79595860838890087 0.64638930559158336 14.264782905578615 0.95722192525863659 -0.06943774968385695 0.70490923523902904 3.929360151290894 1.4938576817512514 0.47171404957771307 0.00051958824042230855 1.0939292311668398 1.0000000180025095e-35 1.5314200520515444 0.019449181854724888 0.05995305813848973 0.24223661422729495 -0.1608292609453201 69.501949310302749 1.1701406836509707 1.0007948279380801 0.003336764639243484 0.0026869118446484212 1.1317400932312014 0.11646448448300363 0.40548528730869299 0.058449871838092811 0.96617653965950023 1.576872766017914 0.82358992099761974 0.16071429103612903 -1.0000000180025095e-35 0.019449181854724888
decision_type=2 2 2 2 2 2 2 2 2 2 2 2 2 2 2 2 2 2 2 2 2 2 2 2 2 2 2 2 2 2 2 2 2 2 2 2 2 2 2 2 2 2 2 2 2 2 2 2 2 2 2 2 2 2 2 2 2 2 2 2 2 2
left_child=1 12 6 7 5 10 14 9 30 17 -3 20 23 15 28 -14 -16 18 -4 -19 21 58 24 25 -17 27 -11 32 37 -30 31 -7 -1 -22 -10 49 -29 42 39 52 -36 54 -2 -32 50 55 -47 -23 -35 -13 -40 -5 53 -8 -18 59 57 -41 -6 -15 -12 -52
right_child=2 4 3 51 11 8 38 -9 34 26 60 35 13 45 16 22 41 19 -20 -21 33 47 -24 -25 -26 -27 -28 36 29 -31 43 -33 -34 48 40 -37 -38 -39 44 56 -42 -43 -44 -45 -46 46 -48 -49 -50 -51 61 -53 -54 -55 -56 -57 -58 -59 -60 -61 -62 -63
leaf_value=0.0020451531221591665 -0.011383742508476621 0.045878161380605416 -0.018271310095597734 -0.019233852567914496 -0.0074763411523760962 -0.0014872054587581997 -0.0281835358581734 -0.0002093842085572826 -0.041899126676153108 -0.0059764894350446043 -0.0076003619867913257 -0.022216891315162038 0.0071081639229340875 -0.0014468993320638402 -0.041723954282180113 0.00083447075242577948 -0.0023934062060202215 -0.013013025059942137 -0.041954137911287971 -0.036870973335294543 0.0042973504678166441 -0.0021306073125625579 0.0061535208327951939 -0.036087387854401291 -0.0043525967130955672 0.031878134624659882 -0.022503806414389739 0.0069310447933468248 0.028891971405294044 -0.015951963945895081 0.01170325554559859 0.0049641561602416333 0.0078227615079090977 -0.043229413626354227 -0.017278866867498823 -0.039268748403446532 0.0022099093315216078 0.015095502916355589 0.0063051560543935107 -0.023100288174187605 0.0094509792030683937 -0.040629931743175633 -0.0034437875301189932 -0.0032141826150029577 0.0077713875594502884 0.0029641974484586687 0.041052775597772137 0.0092305263955601551 -0.015757509195941703 0.016863261326692636 -0.0023743516413138105 -0.049324858976263035 0.0080336616027300214 0.0073809106228728411 -0.030249543024095622 0.0084829916280912809 -0.035970059405418336 0.0036727282370656758 0.0023910709678211391 0.0051322919998007385 0.021476544866617701 -0.021228115651697646
leaf_weight=3549.1226720511913 531.16714990139008 45.439788639545441 285.29859080910683 15.332050502300261 1166.6986227482557 756.09418348968029 22.984260410070419 306.96131698787212 24.429574742913246 731.8152861893177 20.94001892209053 15.056820124387743 497.90353405475616 267.60275399684906 40.980997771024704 2030.5475213080645 68.510228589177132 1422.0808809548616 69.43071973323822 46.795416548848152 20.944506213068962 190.98706293106079 470.96553054451942 12.806497573852537 1435.070548504591 28.90839858353138 90.380144745111465 4021.9159525632858 33.064451679587364 18.86557811498642 59.270458996295929 1530.1727398484945 693.474155575037 32.430125564336777 82.098219677805901 45.093527749180794 980.51619455218315 29.185274481773376 71.455313757061958 34.407694295048714 23.989942833781242 13.567326828837393 344.90287241339684 993.39697957038879 386.63506901264191 15.370666190981863 17.727984577417374 168.70207193493843 31.153692379593849 11.008815094828604 61.898105591535568 76.093333780765533 102.19789016246796 28.665322110056877 13.880319520831106 534.60162802040577 21.875718787312508 23.679710686206818 96.967305675148964 746.39920105040073 15.646799027919768 33.992671325802803
leaf_count=13971 2304 117 1298 71 4931 3061 112 1231 130 3060 89 71 1886 1082 216 8070 279 6250 366 240 81 777 1796 66 5926 87 423 15246 103 85 216 5896 2611 173 372 235 3855 103 272 162 89 72 1415 4072 1456 60 48 629 140 38 252 419 384 108 69 2002 112 92 381 2872 52 158
internal_value=-2.0971e-07 0.00226814 -0.00950057 -0.0128426 -0.00133599 0.0011365 -0.00408899 -0.0118443 0.000493617 -0.0131925 0.0279589 -0.00627134 0.00352379 0.00178078 -0.00830799 0.00042795 -0.0215238 -0.0156065 -0.0230201 -0.0137997 -0.00538129 -0.00451593 -0.000417799 0.00465231 -0.0013132 0.00471278 -0.00782204 0.00462407 -0.00639366 0.0125504 0.001192 0.00282959 0.00299186 -0.0217182 -0.0172231 -0.0272212 0.00600689 -0.00749635 0.00176987 -0.00500435 -0.0111746 -0.0125246 -0.00826875 -0.0023611 0.00463824 0.00556902 0.0240585 0.00320051 -0.0302681 -0.00558734 -0.00258591 -0.0445738 0.0024027 -0.00862313 -0.00742877 0.00515663 -0.0191461 -0.0122579 -0.0067155 0.00339332 0.00499547 -0.00923897
internal_weight=25559.6 20633.5 4926.1 3044.19 5330.52 3551.48 1881.92 2952.76 3469.45 2645.8 82.0266 1779.04 15302.9 6016.19 1094.12 4434.49 136.939 1823.61 354.729 1468.88 1707.88 1623.36 3936.58 9286.74 3465.62 9273.94 822.195 9245.03 957.185 51.93 3338.93 2286.27 4242.6 84.5283 130.518 71.1592 5002.43 905.255 787.792 233.811 106.088 95.9579 876.07 1052.67 553.981 1581.7 33.0987 359.689 63.5838 26.0656 167.346 91.4254 153.847 51.6496 82.3905 1548.6 79.9631 58.0874 1263.67 1014 36.5868 95.8908
internal_count=102240 81128 21112 13358 21550 14094 7754 12868 13836 11637 258 7456 59578 23742 4646 17678 636 8154 1664 6490 7112 6718 15792 35836 13996 35770 3483 35683 4010 188 13245 8957 16582 394 591 344 19101 3822 3108 970 461 420 3719 4288 2138 6064 108 1406 313 109 682 490 604 220 348 5956 366 254 5312 3954 141 410
is_linear=0
shrinkage=0.03


Tree=2
num_leaves=63
num_cat=0
split_feature=12 8 8 32 12 1 5 34 29 6 11 6 46 26 45 8 12 6 17 4 12 22 6 6 4 8 26 32 12 22 31 5 5 10 7 12 12 34 26 5 48 26 12 12 48 8 4 5 33 27 42 6 27 19 5 7 4 32 34 6 33 6
split_gain=576.229 97.6647 93.0563 100.433 68.0786 64.101 48.698 48.5878 44.9332 35.4402 34.53 31.4359 41.2909 32.1938 29.2841 33.1639 28.8522 28.8091 27.6779 27.6609 29.4913 25.3134 28.6485 25.1421 28.8606 21.72 21.7091 21.0229 26.3637 20.9207 20.3018 56.6078 30.976 20.165 19.3421 18.8092 17.9296 17.2809 17.2789 16.8789 16.074 33.5394 19.4094 15.3473 15.2997 21.5429 14.9259 14.4109 15.9913 14.3807 13.9035 13.8358 13.781 13.5211 13.4589 13.1807 12.7139 13.0876 12.1697 11.7381 11.547 11.1707
threshold=5.3130006790161142 0.73214286565780651 0.66071426868438732 0.6517462730407716 3.735352754592896 -1.0000000180025095e-35 0.00035027941339649265 82.055839538574233 1.0000000180025095e-35 3.9301470678765334e-05 0.098319560289382948 0.00068897058372385811 1.0000000180025095e-35 1.1927369236946108 1.0000000180025095e-35 0.19642857462167743 10.69234609603882 22.053161621093754 -0.75136101245880116 1.0306851267814638 8.8805251121521014 0.17500000447034839 -0.016988234594464299 6.8836324214935312 1.9045499563217165 0.33928571641445165 -0.18585446476936338 0.2461187690496445 6.779226779937745 0.12499999627470972 1.0000000180025095e-35 0.0094632352702319639 0.010210294276475908 0.95722192525863659 0.70490923523902904 12.602349281311037 1.1450895071029665 79.478691101074233 -0.1146656572818756 2.501529455184937 0.47171404957771307 -1.1182917356491087 6.4155166149139413 3.735352754592896 0.68588703870773327 0.30357143282890325 1.4090026021003725 -0.002858382416889071 0.48569864034652716 1.1918190121650698 0.076517585664987578 1.1769117463700242e-05 -38.215005874633782 2.9882349967956547 0.00071720589767210196 0.05995305813848973 3.1665203571319585 0.24223661422729495 69.501949310302749 22.053161621093754 0.25899164378643041 431.45483398437506
decision_type=2 2 2 2 2 2 2 2 2 2 2 2 2 2 2 2 2 2 2 2 2 2 2 2 2 2 2 2 2 2 2 2 2 2 2 2 2 2 2 2 2 2 2 2 2 2 2 2 2 2 2 2 2 2 2 2 2 2 2 2 2 2
left_child=1 11 6 7 5 9 16 17 26 -3 23 14 18 44 21 36 27 19 -13 20 -4 39 49 24 -6 38 29 37 -29 -7 31 -10 -32 -25 60 -21 -16 52 -20 43 41 -8 -43 -1 45 -14 -17 48 -18 -23 -48 -38 -2 -24 -27 -42 57 -15 -26 -35 -12 -28
right_child=2 4 3 -5 10 8 40 -9 30 -11 34 12 13 56 15 46 47 -19 25 35 -22 22 53 33 58 54 61 28 -30 -31 32 -33 -34 59 -36 -37 51 -39 -40 -41 55 42 -44 -45 -46 -47 50 -49 -50 -51 -52 -53 -54 -55 -56 -57 -58 -59 -60 -61 -62 -63
leaf_value=0.0073607301481674083 0.0029760098864952803 0.044595062805219778 -0.015710266208523713 -0.043306690151306101 -0.0065142851833217127 0.0062769190814607996 0.0077946583815359585 -0.0014615307260173994 -0.048708571393159282 0.0048545193626369767 0.012726971037100455 0.0083698734449421126 0.0036363882519030075 0.0088021874821129775 -0.010577084436307871 0.0068881088857364525 -0.047832262708028886 -0.033314592556466481 0.0024741041400453759 -0.0099226068887583122 -0.036584604786665163 -0.036344143249508194 0.0063267498900037144 0.0041742746894158 -0.0020670349554458038 -0.0029711734484378174 -6.4197336454827129e-05 0.028056373199836747 -0.01549881807503292 -0.012442882299597878 0.016029536660581691 0.0011623882596984401 -0.032549633471545679 -0.045631684724806415 -0.038146559465971876 -0.018352797788637368 0.00086081038588022637 0.015368853119920277 -0.0064648670329191917 -0.0053511091526155605 -0.0025114850879570973 -0.0021871592387130525 -0.025484914919128836 0.0028914164146166123 0.0041480115746107141 -0.0048331557465386482 0.0013952689293795556 -0.011934315551111135 -0.016234627073399482 0.0014996359061362724 0.02822141147377065 -0.015575335902855786 -0.0093042044746576655 -0.019127418113244071 0.003882364241534546 0.0075390629769349453 -0.0067829663963364494 0.030516587006340783 0.0089552396275359644 -0.018337047865342758 -0.025831628629363994 -0.016307201842559429
leaf_weight=4164.9910406917334 90.97904509305954 45.374436527490616 342.69522531330585 91.326613858342171 1263.6278598159552 854.41009296476841 103.7880797535181 379.7549977004528 43.608803436160088 36.584968969225883 13.915799736976625 247.87608499825001 541.58530703186989 855.58890472352505 146.50125873088837 1389.6697732657194 28.715058490633965 60.684771671891212 238.45760940015316 1818.0042766481638 74.727811560034752 31.634765595197678 106.55428723990917 20.944661766290665 190.9858690649271 441.31526175141335 2390.4552353769541 33.057581871747971 18.863903701305389 56.316036865115166 31.847807660698891 37.581029549241066 17.44090810418129 24.38781712949276 45.057365164160728 276.60112217068672 1521.984246134758 28.388434901833534 1036.2501249164343 107.3837511241436 167.3418878018856 59.329056188464165 70.674542382359505 834.14090168476105 1431.0203022956848 537.40917029976845 886.51746010780334 76.353125989437103 31.839723169803619 12.184864580631254 16.757557839155197 46.524907633662224 785.86896340548992 21.737903714179993 616.84353470802307 386.6241212785244 44.725798591971397 25.059921771287918 168.70211501419544 39.168167233467102 12.14638416469097 37.730816200375557
leaf_count=15713 356 117 1537 490 5312 3256 390 1538 241 141 50 928 2108 3194 632 5262 158 306 936 7839 384 162 406 81 777 1804 9572 103 85 247 112 150 88 133 235 1264 6044 100 4342 446 682 242 338 3259 5544 2228 3504 334 144 48 52 208 3366 100 2394 1456 188 76 629 180 59 170
internal_value=-6.77717e-07 0.00220018 -0.00921908 -0.0124612 -0.00129641 0.00110262 -0.00396958 -0.0114918 0.000478434 0.0271642 -0.00608528 0.00341833 0.00172776 0.00388164 0.0045129 0.00257728 -0.00806231 -0.01297 -0.00113864 -0.0124643 -0.0195329 0.00598124 -0.00530154 -0.00522099 -0.00438047 -0.0021534 0.00115633 -0.00620162 0.0121815 0.00510369 -0.0167228 -0.0258546 -0.00140607 -0.0210928 -0.0264379 -0.0110455 -0.00057654 -0.0072716 -0.00478969 0.00636307 0.00171377 -0.00486296 -0.0149734 0.00661632 0.00211503 -0.000579785 0.00493672 -0.0209099 -0.0318006 -0.0259554 0.00192692 0.000361759 -0.00802469 0.001876 0.00102109 0.00449854 0.00866276 0.00945741 0.00310485 -0.0294017 -0.00542305 -0.000324436
internal_weight=25558.6 20633 4925.62 3043.79 5330.29 3551.35 1881.82 2952.47 3469.39 81.9594 1778.94 15302.7 6016.13 3435.39 9286.58 4007.96 1094.07 2572.71 2580.74 2512.03 417.423 5278.63 172.112 1707.82 1623.32 2332.87 3338.91 957.158 51.9215 910.726 130.479 81.1898 49.2887 84.5006 71.1195 2094.61 1715.01 905.236 1274.71 5106.52 787.758 233.792 130.004 4999.13 2510.01 1078.99 2292.94 136.908 60.5548 43.8196 903.275 1568.51 876.848 128.292 1058.16 553.966 925.375 880.649 359.688 63.556 26.0622 2428.19
internal_count=102240 81128 21112 13358 21550 14094 7754 12868 13836 258 7456 59578 23742 13338 35836 15702 4646 11330 10404 11024 1921 20134 716 7112 6718 9476 13245 4010 188 3503 591 391 200 394 344 9103 6884 3822 5278 19418 3108 970 580 18972 9880 4336 8818 636 302 210 3556 6252 3722 506 4198 2138 3458 3270 1406 313 109 9742
is_linear=0
shrinkage=0.03


Tree=3
num_leaves=63
num_cat=0
split_feature=12 8 8 32 12 1 50 5 29 45 34 6 46 26 29 22 45 8 12 12 17 22 24 6 6 4 7 26 24 6 26 8 32 12 22 17 10 6 9 34 5 6 12 9 5 6 49 12 48 26 12 12 4 30 29 5 26 30 34 17 49 4
split_gain=542.394 91.9321 87.6057 94.8894 64.0933 60.4926 46.0477 45.8343 42.3721 33.5511 30.3896 29.5976 36.3702 31.6185 28.8166 27.5892 27.5314 31.012 27.2385 26.4932 26.1052 24.6324 29.7253 29.4411 23.5958 27.5395 23.486 22.7044 21.8098 21.6247 20.4264 20.0839 19.7957 24.8785 19.7009 19.3241 19.0445 18.1498 17.3883 16.2847 15.9805 15.9619 15.5301 15.4641 15.3996 25.7128 17.4312 15.1774 15.1344 31.5907 18.2866 14.602 14.301 14.2376 21.8968 13.6221 14.9258 12.7944 12.6112 12.4943 11.9923 11.6078
threshold=5.3130006790161142 0.73214286565780651 0.66071426868438732 0.6517462730407716 3.735352754592896 -1.0000000180025095e-35 0.39719443023204809 0.00035027941339649265 1.0000000180025095e-35 1.0000000180025095e-35 65.94315338134767 0.00064497059793211531 1.0000000180025095e-35 1.150096118450165 1.0000000180025095e-35 0.14500000327825549 1.0000000180025095e-35 0.19642857462167743 10.69234609603882 10.69234609603882 -0.75136101245880116 0.17500000447034839 0.18813014030456546 -0.016988234594464299 6.8836324214935312 1.9045499563217165 0.70490923523902904 0.67890939116477977 0.36318728327751165 8.03235270723235e-05 -0.18585446476936338 0.33928571641445165 0.2461187690496445 6.779226779937745 0.12499999627470972 -0.06943774968385695 0.95722192525863659 64.759883880615249 1.0000000180025095e-35 79.478691101074233 2.501529455184937 12.34085273742676 1.1450895071029665 1.0000000180025095e-35 0.00043555883166845893 0.0022805882617831235 -0.64633327722549427 13.703806400299074 0.47171404957771307 -1.1182917356491087 6.4155166149139413 3.735352754592896 1.0851521492004397 1.0320661664009096 1.0000000180025095e-35 -0.002858382416889071 1.5221865177154543 0.79314154386520397 62.401683807373054 1.2942121028900149 -0.26660120487213129 3.1665203571319585
decision_type=2 2 2 2 2 2 2 2 2 2 2 2 2 2 2 2 2 2 2 2 2 2 2 2 2 2 2 2 2 2 2 2 2 2 2 2 2 2 2 2 2 2 2 2 2 2 2 2 2 2 2 2 2 2 2 2 2 2 2 2 2 2
left_child=1 11 7 6 5 9 10 18 30 57 19 16 20 44 37 24 21 28 32 29 -13 40 -23 -24 25 -6 -17 -21 42 -4 34 41 39 -34 -7 -10 -26 -12 -32 60 51 -22 -18 -33 45 -14 -46 -8 49 -9 -51 -1 -37 54 -19 56 -20 -3 -50 -49 -2 -15
right_child=2 4 3 -5 15 8 47 48 35 -11 14 12 13 61 -16 26 17 53 55 27 31 22 23 -25 36 -27 -28 -29 -30 -31 38 43 33 -35 -36 52 -38 -39 -40 -41 -42 -43 -44 -45 46 -47 -48 59 58 50 -52 -53 -54 -55 -56 -57 -58 -59 -60 -61 -62 -63
leaf_value=0.0071832112957234788 -0.010745089427995515 0.027300302167293677 -0.0079544377089700736 -0.042104235765901811 -0.0063872043290771167 0.0060889544557942953 -0.0048389958403306102 0.0075634422854283078 -0.039884869388875206 0.047872929507268139 -0.0089749744354341299 0.0081512772617383378 -0.0059419784156553527 0.0089015701643144797 -0.044060764396408637 -0.0025862581294484525 -0.010262066807941362 0.0043942531922602111 -0.04167708181889021 -0.051440737655361023 -0.0054276815927423033 -0.041472871069363502 -0.023015883783532039 0.0066843913281014666 0.0040547583662545591 0.0030120980381748699 -0.037082776846476213 -0.022589173651051744 0.026388853439412257 -0.019336435169824275 0.002540310134861481 -0.0027698279139671306 0.027255511391697233 -0.015060278022387099 -0.01207729243007436 -0.016544053732150423 -0.028575251486317534 -0.032776149585118659 -0.0025702783505128154 0.014924694757666782 -0.0051919724868082964 0.0072456061343414233 -7.0508613830172641e-05 0.004450601227402695 -0.0031309675962748903 0.0025774660315182455 0.0068726037323154493 -0.02164724803992946 -0.00042157850514106291 -0.0021226634931366009 -0.02474018613369338 0.0027933017047232791 0.0090505111110891785 -0.020116922240692114 0.018975912035599792 -0.011582430127267278 -0.0097827113783353226 -0.0041042818939571405 0.0086271682202946533 -0.002384861089706179 -0.0035999866567260753 -0.0065838959842907637
leaf_weight=4116.6229601502419 512.15569756925106 19.040424078702927 217.95846307277679 91.147863566875458 1260.1052594184875 854.3930715918541 944.5054524987936 103.78270995616913 24.366732403635979 35.678624540567398 966.34372462332249 253.26429779827595 458.0592765212059 955.92131045460701 21.619604229927063 29.518308237195015 146.49919636547565 2175.3874510377645 39.330334007740021 34.861345589160919 1195.6314871460199 17.302756294608116 39.550004482269287 114.79058249294758 20.944628238677979 359.67958161234856 44.989073008298874 92.291704207658768 25.649232193827629 506.05154347419739 1070.9286864697933 500.23446024954319 33.037717267870903 18.859978348016739 56.310493275523186 81.069974929094315 63.501584127545357 29.006335064768791 1357.2522667646408 28.386062264442444 107.38546779751778 95.61929389834404 1542.1633317470551 569.68690031766891 195.8687943816185 1042.7895994782448 767.29978364706039 93.830249160528183 261.08279231190681 59.328181535005569 70.648372918367386 822.28982236981392 24.954042419791222 19.451883584260941 96.091374963521957 76.343147665262222 21.176125839352608 27.131474167108536 292.86119750142097 45.481142818927765 364.64775824546814 44.726006180047989
leaf_count=15526 2220 59 930 490 5300 3256 3931 390 130 87 4151 948 1912 3558 117 121 632 8392 210 197 4978 92 187 436 81 1406 235 436 81 2333 4203 2042 103 85 247 368 313 147 5539 100 446 362 6167 2200 802 4090 2908 440 1046 242 338 3213 93 90 328 334 92 112 1092 186 1502 188
internal_value=-1.12045e-06 0.00213407 -0.00894572 -0.012092 -0.00125849 0.00106927 -0.0111503 -0.00385208 0.000463254 0.0264037 -0.0140056 0.00331592 0.00168957 0.00370506 -0.0104797 -0.00590538 0.00438724 0.00251417 -0.00782296 -0.0181977 -0.00098061 0.00582366 -0.00531948 -0.00100621 -0.0051135 -0.00429763 -0.0236709 -0.0308624 -0.000535885 -0.0159298 0.00112137 -0.00196442 -0.00601515 0.011827 0.0049504 -0.0162464 -0.0204944 -0.0097038 -0.000314944 -0.00705333 0.00620425 -0.004482 -0.000961999 0.0010725 0.00187562 -2.28972e-05 0.00483404 -0.0062176 0.00166168 -0.00472029 -0.0145343 0.00645365 -0.0104638 0.00479708 0.00502051 -0.0203092 -0.030904 0.00908698 0.00436387 -0.0154418 -0.00778447 0.00820054
internal_weight=25556.9 20632.1 4924.74 3043.1 5329.86 3551.13 2951.95 1881.64 3469.28 81.8505 1868.13 15302.3 6079.1 3464.66 1016.97 1778.74 9223.18 4005.24 1093.94 851.163 2614.44 5217.94 171.643 154.341 1704.23 1619.78 74.5074 127.153 1714.31 724.01 3338.88 2361.17 957.087 51.8977 910.704 130.391 84.4462 995.35 2428.18 905.19 5046.3 1291.25 1688.66 1069.92 2464.02 1500.85 963.169 1083.82 787.703 233.759 129.977 4938.91 106.024 2290.93 2271.48 136.85 60.5065 46.1719 553.944 139.311 876.803 1000.65
internal_count=102240 81128 21112 13358 21550 14094 12868 7754 13836 258 8311 59578 23988 13458 4415 7456 35590 15690 4646 3896 10530 19900 715 623 7100 6706 356 633 6880 3263 13245 9582 4010 188 3503 591 394 4298 9742 3822 19185 5340 6799 4242 9712 6002 3710 4557 3108 970 580 18739 461 8810 8720 636 302 171 2138 626 3722 3746
is_linear=0
shrinkage=0.03


Tree=4
num_leaves=63
num_cat=0
split_feature=25 32 29 22 49 24 47 26 34 45 30 30 44 33 33 24 17 26 5 46 20 6 30 42 13 27 32 32 26 22 37 46 6 6 26 25 17 5 47 11 25 34 16 33 33 49 37 13 6 33 13 44 49 49 44 32 24 44 16 49 26 25
split_gain=202.635 109.676 57.936 53.9436 51.1471 36.1227 32.3994 28.7765 28.6062 39.1122 51.561 38.0715 30.5166 29.514 24.8364 22.9156 31.4583 22.6091 21.181 20.3313 19.8221 19.2213 17.8261 17.6131 16.9161 16.0779 16.9735 21.7705 15.7306 14.724 14.9832 14.7012 16.7912 14.1741 17.1171 13.4026 13.0375 12.6962 12.6832 12.367 16.8178 11.4277 9.99662 9.97088 9.55087 9.26907 10.2326 8.6717 8.52235 9.88643 8.44224 8.42698 8.33233 8.1898 7.69052 7.5583 7.45189 7.34039 7.02949 6.46308 6.33708 5.45672
threshold=3.9300000935327268e-05 1.5696568489074709 1.0000000180025095e-35 0.17500000447034839 1.0000000180025095e-35 0.54244241118431102 2.5088946819305424 1.4701342582702639 61.766706466674812 1.0000000180025095e-35 1.0000000180025095e-35 0.62352153658866893 0.077674891799688353 0.22922226041555407 0.45094944536685949 0.51394286751747142 -0.66332912445068348 1.4701342582702639 -0.0006795588124077766 1.0000000180025095e-35 1.0000000180025095e-35 1.1769117463700242e-05 1.984246611595154 0.31296642124652868 0.57133969664573681 -27.702933311462399 0.28620186448097235 0.12871795147657397 -0.81817302107810963 0.60231783986091625 -18.968789100646969 1.0000000180025095e-35 0.0018564117490313949 -16.779411315917965 0.055159404873847968 5.1068198680877694 -2.0059924125671382 -0.057985292747616761 0.54929843544960033 1.1362373232841494 -0.001489999995101243 82.055839538574233 0.49434201419353491 0.709550440311432 0.98281103372573864 -0.52539765834808339 14.264782905578615 0.11130468547344209 -0.0082161761820316297 0.21808119118213656 0.6112303137779237 2.8885264396667485 0.20784181356430056 -0.60417029261589039 0.38906909525394445 0.73738789558410656 0.79274019598960888 0.2798601388931275 0.26244249939918524 0.75148636102676403 -0.059639304876327508 -0.0083400001749396307
decision_type=2 2 2 2 2 2 2 2 2 2 2 2 2 2 2 2 2 2 2 2 2 2 2 2 2 2 2 2 2 2 2 2 2 2 2 2 2 2 2 2 2 2 2 2 2 2 2 2 2 2 2 2 2 2 2 2 2 2 2 2 2 2
left_child=3 2 4 8 5 6 14 22 9 12 21 28 33 -13 -2 29 18 20 38 25 -14 23 44 -11 48 -10 27 -27 -12 -5 -31 32 59 53 -35 -8 -33 -34 60 40 -32 -9 -19 -21 55 46 -45 -38 61 -50 -41 -47 -24 -1 56 -4 -26 -28 -23 -6 -17 -18
right_child=1 -3 7 15 31 -7 35 41 19 10 11 13 17 -15 -16 16 24 42 -20 43 -22 58 52 -25 54 26 57 -29 -30 30 39 36 37 34 -36 -37 47 -39 -40 50 -42 -43 -44 45 -46 51 -48 -49 49 -51 -52 -53 -54 -55 -56 -57 -58 -59 -60 -61 -62 -63
leaf_value=-0.025369546703119892 -0.00017733591534256396 -0.051362353362155048 0.0048162049363396752 -0.034667469495964963 -0.0011891357636040409 -0.036482848760774296 -0.011832687758102971 -0.051816899748386859 0.017359814304896543 0.001193448930407705 0.015514539761875831 0.036044096018611096 0.0064148083530098177 -0.0070293058061870169 -0.0042335185334165977 -0.00073605019406635774 0.015739256320716686 -0.0044893407340530662 0.014480632419699024 0.012259097533459565 0.015096016905999432 -0.0013154160978594894 -0.052890306590515586 0.020887838923945405 -0.02320002193582717 -0.0027843966480118778 -0.042480496346228955 0.035360750076187164 0.042083457675952014 0.027082290810049058 -0.021174156385454966 -0.026231690073686319 0.0046392730357986637 0.0053752505760027115 -0.00099336492553304197 -0.034325292484754168 0.0064120546001851025 -0.0048999852070312185 -0.0431107043040517 -0.030134501089151309 -0.0019666501139393149 -0.014448193280228694 -0.036007771195906139 -0.011788358750546513 -0.022653615306941995 0.0046766109918966754 0.013354094615028921 0.0011814412097407184 0.040133206796081705 0.011626224503594259 -0.0077059155194128459 -0.015325636719901311 -0.014043122793967753 -0.0032753384962097881 0.014700635742808124 -0.019214472817464294 0.0056206715731245659 -0.010257816540448749 -0.018507472446733141 0.0059027582609376501 -0.029541935796675078 -0.0084729629218155671
leaf_weight=24.056435883045197 1764.878775075078 40.613022550940514 51.477447047829628 23.68961276113987 199.86680221557617 29.297646418213844 214.84744668006897 29.706261292099953 35.240605294704437 4620.6344103813171 35.912092074751854 17.555173829197884 3696.5808791667223 61.58874648809433 5925.1427921950817 18.504014268517494 19.856586813926697 27.482294887304306 14.982979625463484 107.99827764928341 253.28053084015846 34.132063493132591 11.739663615822794 40.259895578026772 20.197639420628548 1299.4845973402262 12.246842965483667 12.600627228617666 51.732349991798401 8.3760562241077405 57.428426191210747 13.97718971967697 141.13171790540218 814.07856278121471 709.52621479332447 26.540527477860451 325.0314961373806 1069.9307747930288 20.222284540534019 44.560476273298264 139.98091818392277 11.307964652776716 12.97842864692211 69.433421283960342 23.176899045705795 494.64039501547813 17.377577662467957 2314.0061268508434 22.804331079125404 23.115806639194489 24.513404607772827 18.688213765621185 10.160112529993055 39.839964121580124 12.142002478241919 14.180551797151564 12.283014833927153 14.498661592602728 59.016441360116005 270.62855419516563 10.201847314834597 13.002653762698172
leaf_count=115 7078 231 200 121 806 152 941 169 122 18290 126 49 14032 260 24520 75 70 114 53 392 897 138 68 135 96 5299 66 36 137 26 268 68 545 3118 2855 136 1238 4443 109 221 569 51 67 302 110 1906 62 9184 63 84 105 84 46 163 43 66 47 63 269 1034 51 56
internal_value=-1.61608e-06 -0.0027343 -0.00257128 0.00260974 -0.00234268 -0.00377034 -0.00364454 -0.020937 0.00298888 0.00362592 0.00167503 0.0180208 0.00534588 0.00281804 -0.00330315 -0.00718748 0.00102313 0.00674556 -0.0158947 -0.000221867 0.00697592 0.00109727 -0.012737 0.00136865 0.0098665 -0.00235095 -0.00288458 -0.00238913 0.0315286 -0.0123351 -0.0102808 0.000278865 -0.00191414 0.00182373 0.00240878 -0.0144495 0.00167019 -0.00378294 -0.0253602 -0.0115633 -0.00764799 -0.0421746 -0.0152964 0.00390266 -0.00653018 0.00237599 -0.00662649 0.00182898 0.0181544 0.0264006 -0.0224413 0.0039142 -0.0363989 -0.0119026 -0.0047768 -0.000539233 -0.0123691 -0.0261201 -0.0123206 0.00288762 -0.0117243 0.00610242
internal_weight=25554.4 12487.6 12447 13066.7 12295.3 7960.71 7931.41 151.749 12580.9 10498.7 4920.83 166.788 5577.82 79.1439 7690.02 485.862 187.313 3990.32 63.9111 2082.21 3949.86 4754.04 110.735 4660.89 123.402 1374.07 1338.83 1312.09 87.6444 298.549 274.859 4334.57 1681.56 1587.5 1523.6 241.388 2653.01 1211.06 48.9281 266.483 197.409 41.0142 40.4607 708.138 88.8349 600.14 86.811 2639.04 78.7794 45.9201 69.0739 513.329 21.8998 63.8964 44.6227 65.658 32.4807 26.7455 93.1485 470.495 28.7059 32.8592
internal_count=102240 51086 50855 51154 50145 32827 32675 710 49097 40765 19404 572 21361 309 31598 2057 747 15110 288 8332 14929 18832 490 18425 459 5586 5464 5335 263 1310 1189 17318 6828 6251 5973 1077 10490 4988 235 1163 837 220 181 2746 376 2354 364 10422 273 147 326 1990 114 278 186 266 143 129 407 1840 126 126
is_linear=0
shrinkage=0.03


Tree=5
num_leaves=63
num_cat=0
split_feature=12 8 8 30 12 1 34 5 50 25 6 45 47 12 23 47 4 46 8 33 46 13 33 47 44 10 7 6 4 5 12 30 1 44 48 12 38 10 4 34 17 8 34 12 44 49 10 44 48 26 12 34 6 49 25 4 42 12 31 7 6 34
split_gain=502.242 85.3913 80.9274 77.0352 59.3748 55.3996 44.3338 42.7474 35.7711 33.7553 30.3499 30.0458 29.6699 25.6208 25.3739 25.2883 25.1233 26.3009 24.9766 24.694 23.4781 22.8144 22.2985 22.0436 27.9983 25.8699 21.9589 21.8609 26.0761 19.4344 21.5106 19.2719 19.1924 19.0503 18.5845 17.9887 22.5122 17.8474 17.6407 17.3213 16.358 16.1009 22.5341 15.3102 15.2925 14.6365 14.6812 14.4379 14.2669 29.3662 17.1525 14.0188 13.3313 13.1983 13.1163 12.6976 12.8519 12.6639 12.4487 12.3325 11.6586 11.4959
threshold=5.3130006790161142 0.73214286565780651 0.66071426868438732 1.2941058874130251 3.735352754592896 -1.0000000180025095e-35 83.169013977050795 0.00035027941339649265 0.297890454530716 3.9300000935327268e-05 0.00060107352328486751 1.0000000180025095e-35 1.0875063538551333 9.0677351951599139 1.0000000180025095e-35 0.70446121692657482 0.88992905616760265 1.0000000180025095e-35 0.19642857462167743 1.0218894481658938 1.0000000180025095e-35 0.40920177102088934 0.79595860838890087 0.97057843208312999 0.15647602081298831 0.9690590798854829 0.70490923523902904 6.8836324214935312 1.9045499563217165 0.44547058641910559 4.8224172592163095 1.0418462157249453 0.0020549487089738254 0.38877689838409429 0.64638930559158336 13.703806400299074 1.0000000180025095e-35 0.95722192525863659 1.1580131053924563 55.557394027709968 -1.6180577874183653 0.16071429103612903 65.219013214111342 1.4860150814056399 0.18186781555414203 -0.26660120487213129 0.488526001572609 0.058095442131161697 0.47171404957771307 -1.1182917356491087 6.4155166149139413 61.766706466674812 -0.0033624999923631545 1.0000000180025095e-35 0.93688002228736889 1.4090026021003725 0.16925445199012759 3.3747085332870488 1.0000000180025095e-35 0.05995305813848973 0.00044252941734157508 69.501949310302749
decision_type=2 2 2 2 2 2 2 2 2 2 2 2 2 2 2 2 2 2 2 2 2 2 2 2 2 2 2 2 2 2 2 2 2 2 2 2 2 2 2 2 2 2 2 2 2 2 2 2 2 2 2 2 2 2 2 2 2 2 2 2 2 2
left_child=1 9 7 6 5 10 8 13 23 11 -3 29 16 31 27 60 32 21 43 -5 41 -18 34 24 -4 -25 44 28 -6 30 51 45 33 -11 -7 -10 -37 -29 57 -33 -36 42 -14 -13 -16 46 -2 -19 49 -9 -51 -1 -32 -22 -39 -20 -57 -24 -55 -50 -15 -30
right_child=2 4 3 19 14 22 -8 48 35 12 -12 18 20 15 26 -17 17 47 55 -21 53 -23 38 25 -26 -27 -28 37 61 -31 52 39 -34 -35 40 36 -38 54 -40 -41 -42 -43 -44 -45 -46 -47 -48 -49 59 50 -52 -53 -54 58 -56 56 -58 -59 -60 -61 -62 -63
leaf_value=0.0073707026116162852 -0.015909943879704628 0.039056289588055917 -0.031259954550884719 -0.046650038039488154 -0.0061801239274019305 -0.0016812654172600611 0 0.007255291509575418 -0.0075190548138862811 0.00087286356443576818 0.0010960642180065378 -0.0070752192372750934 0.0030959119596441274 -0.052215655393913075 -0.023495837660079837 -0.010424169175484199 -0.014189489429945723 -0.0071610215595019969 0.0063548617085336405 -0.00050205635964085515 0.0048957885837603203 -0.0022371728219861783 -0.0041548090217678364 -0.0080290894422971951 -0.011872977652843248 -0.017874786988248421 -0.035745521721953395 0.0040078439368459451 -0.0020601273338526943 -0.0021898174907067163 0.0065635965378930787 -0.0010729380062383356 0.029439982869390788 0.0084927999622874933 -0.0086241632538006062 -0.014155177028506102 -0.050571001431079919 -0.044089738866001753 0.0023472393184746755 0.041332743566298451 0.0047276531043968315 0.0029567858662442872 -0.020187467332531954 0.00078187269339655867 0.018292646971528537 -0.0015356744656946435 -0.0052671624886710131 0.0012671791263276764 -0.0025465228189236718 -0.0020326527975650694 -0.023943123976064497 0.0034555255753714515 -0.011593790010214306 0.010620667662646688 -0.015659592529233324 0.0012446688392304651 0.030763995650944193 -0.015812643086005242 0.036699553381838432 0.007174987622724339 -0.022748545446934405 0.0086526312977382863
leaf_weight=3900.8717154860497 195.2873936444521 51.557219594717026 162.2720047980547 71.068943366408348 1259.9843745082617 777.57369887828827 305.04666545987129 103.76875397562981 1237.2362812459469 2179.6213258802891 30.000712484121323 265.57783490419388 74.634332597255707 19.961647897958755 14.593869268894197 155.39335398375988 264.94278782606125 216.91163541376591 1263.4781347960234 12.38254740834236 663.46976292133331 315.28622423112392 658.54755011200905 431.48802548646927 118.0118323713541 553.22071050107479 44.847264230251312 20.944412365555763 190.98215858638287 260.30498060584068 57.044466122984886 20.705605089664459 22.018195956945419 340.8812719732523 86.398038044571877 134.23654545843601 16.657202258706093 25.345702141523361 367.49194899201393 13.691611021757124 1483.3047995269299 435.91213129460812 73.173604413866997 1369.1332245469093 14.915666192770002 356.31668131053448 294.59406912326813 1138.0966822355986 167.3388400375843 59.325236842036247 70.591874152421951 1050.7588572949171 96.435349017381668 392.85948444902897 38.055896699428558 890.72351759672165 12.489787474274634 95.717571809887886 16.526996642351151 386.57671661674976 37.724512726068497 168.69171422719955
leaf_count=14662 879 139 813 396 5300 3152 1225 390 5268 8655 119 1120 292 114 70 676 1174 914 4790 51 2550 1284 2722 1850 521 2537 235 81 777 1056 216 83 68 1275 368 602 95 139 1448 36 5716 1704 338 5438 51 1446 1232 4508 682 242 338 4076 418 1438 174 3519 37 430 46 1456 180 629
internal_value=-2.02629e-06 0.00205248 -0.00861102 -0.011636 -0.00121747 0.00102306 -0.0108237 -0.00371508 -0.0120686 0.00319152 0.0253115 0.00434429 0.00146795 -0.00755051 -0.00569057 -0.0168709 0.000197903 -0.00237637 0.00230161 -0.0399251 0.00489692 -0.007715 0.000444041 -0.0157228 -0.0231791 -0.0135761 -0.0227463 -0.00493165 -0.00414663 0.00579028 0.00619811 -0.00527524 0.00215865 0.00190756 0.00210731 -0.00872748 -0.0185014 -0.0197458 -0.00303246 0.0164125 0.00398582 4.89732e-05 -0.00846877 -0.000496314 -0.00236816 -0.0061787 -0.0095397 -8.40927e-05 0.00160988 -0.00458752 -0.0140528 0.00654136 -0.00482694 0.0075293 -0.0275797 0.00441321 0.00168976 -0.00565716 0.0117676 0.0042334 -0.0337124 0.00296604
internal_weight=25553 20630.1 4922.9 3041.62 5328.95 3550.59 2958.17 1881.28 2653.12 15301.2 81.5579 9166.82 6134.33 1093.67 1778.36 213.08 4477.76 1935.24 3801.4 83.4515 1656.58 580.229 3469.03 1264.99 280.284 984.709 74.3568 1704 1619.66 5365.42 5105.11 880.595 2542.52 2520.5 2347.28 1388.13 150.894 84.346 1121.76 34.3972 1569.7 583.72 147.808 1634.71 29.5095 846.198 489.881 1355.01 787.601 233.686 129.917 4951.63 153.48 1072.86 63.4016 2166.69 903.213 754.265 409.386 553.916 57.6862 359.674
internal_count=102240 81128 21112 13358 21550 14094 12911 7754 11686 59578 258 35332 24246 4646 7456 970 17878 7880 14904 447 6368 2458 13836 5721 1334 4387 356 7100 6706 20428 19372 3676 9998 9930 9236 5965 697 394 4600 119 6084 2334 630 6558 121 3557 2111 5422 3108 970 580 18738 634 4034 313 8346 3556 3152 1484 2138 294 1406
is_linear=0
shrinkage=0.03


Tree=6
num_leaves=63
num_cat=0
split_feature=12 8 8 32 12 1 34 5 50 25 45 45 26 17 12 24 32 22 24 8 46 4 4 33 6 4 4 12 24 8 34 5 12 5 48 4 24 25 26 48 26 12 12 38 12 22 32 6 0 9 12 24 49 25 30 34 18 17 26 34 4 46
split_gain=472.884 80.3752 76.2166 83.5846 55.9116 52.3328 42.6642 40.245 33.0148 31.7597 29.1286 28.2699 27.4994 24.6254 24.4133 28.149 26.1989 23.9891 23.6085 23.5095 22.9218 21.2823 21.2596 20.984 20.6644 24.5406 19.9956 25.6099 19.1989 18.5565 23.174 18.2908 20.2445 17.5624 17.4865 16.6044 15.5873 14.3795 14.0456 13.4343 27.6687 16.1771 13.3221 17.0833 13.2765 13.2486 12.776 12.5537 12.4678 12.3354 17.6398 14.2916 12.3132 11.8834 11.8802 11.8284 11.8084 10.8549 13.2604 10.8219 10.4323 10.363
threshold=5.3130006790161142 0.73214286565780651 0.66071426868438732 0.6517462730407716 3.735352754592896 -1.0000000180025095e-35 82.055839538574233 0.00035027941339649265 0.29736538231372839 3.9300000935327268e-05 1.0000000180025095e-35 1.0000000180025095e-35 1.0821983814239504 -0.89567786455154408 6.1062636375427255 0.33679293096065527 0.25164778530597692 0.14500000327825549 0.4870977401733399 0.19642857462167743 1.0000000180025095e-35 0.73563244938850414 0.88992905616760265 0.79595860838890087 6.8836324214935312 1.9045499563217165 0.81573474407196056 8.6783881187438983 0.36318728327751165 0.19642857462167743 65.219013214111342 0.44547058641910559 4.8224172592163095 -0.008847058750689028 0.64638930559158336 1.1580131053924563 0.14070706814527514 0.00057602001470513653 -0.70191779732704151 0.47171404957771307 -1.1182917356491087 6.4155166149139413 13.703806400299074 1.0000000180025095e-35 1.1450895071029665 0.17500000447034839 0.22839856892824176 -0.0033624999923631545 0.00028547058172989642 1.0000000180025095e-35 4.6055650711059579 0.41004730761051184 -0.22182893753051755 0.49172000586986547 0.79314154386520397 62.401683807373054 1.0000000180025095e-35 0.20090396702289584 1.7415717840194704 69.501949310302749 1.3220346570014956 1.0000000180025095e-35
decision_type=2 2 2 2 2 2 2 2 2 2 2 2 2 2 2 2 2 2 2 2 2 2 2 2 2 2 2 2 2 2 2 2 2 2 2 2 2 2 2 2 2 2 2 2 2 2 2 2 2 2 2 2 2 2 2 2 2 2 2 2 2 2
left_child=1 9 7 6 5 10 8 14 26 11 54 31 13 -11 16 21 -2 24 22 28 29 38 -15 34 25 -6 27 -4 44 30 -14 32 45 -28 -7 52 -36 -23 -16 40 -9 -42 -10 -44 -13 -1 48 -34 -22 51 -51 -21 -25 -26 -3 -41 -33 -5 -59 -27 -31 -55
right_child=2 4 3 57 17 23 -8 39 42 12 -12 19 20 18 15 -17 -18 -19 -20 49 46 37 -24 35 53 59 33 -29 -30 60 -32 56 47 -35 36 -37 -38 -39 -40 55 41 -43 43 -45 -46 -47 -48 -49 -50 50 -52 -53 -54 61 -56 -57 -58 58 -60 -61 -62 -63
leaf_value=0.006610850336636301 -0.0032760317439041614 0.02610366180256813 -0.017956580573715662 -0.048936729103876836 -0.005995393752423318 -0.0016308979142373914 -0.0010144052030713006 0.0070405109122685574 -0.0074913379974265552 0.0080804370142894648 0.044799077908942178 -0.0097985984896942491 0.0032019160430971551 0.0015808606436175899 0.00025841562107076042 -0.044559058640654431 0.028164883460196605 -0.02212327140982856 -0.040948792636653603 0.0031360964796362627 0.004741709070190751 -0.0033097371669653596 -0.0027506803793246317 -0.01251992456886016 -0.042248813021657387 -0.0019986627153146617 -0.0062147326672418752 -0.046251252069105908 0.025403827029585727 0.011346475498498052 -0.01986465829860309 -0.025848626769454725 0.0063704932943539046 -0.015828284358053692 0.0044788205989321978 0.0022769860937264792 -0.010682898908531507 -0.012898802121006843 -0.026932913285523014 -0.00052714945391289976 -0.0019727212399784267 -0.023257502910654627 -0.013600908913576839 -0.04851312306517138 -5.6210999593582846e-05 -0.00271661566606565 0.024906219098018687 -0.011248890345884275 0.012265337526525274 0.0087977305193487083 -0.02047870997017872 -0.026638948442811131 -0.0033847705839849672 -7.9376406494700486e-06 -0.004175717249138994 0.0082363049023563006 -0.00039569883807396455 -0.013050493485317616 -0.050212691204776276 0.0083952796234297578 0.00033310038936537053 -0.023473303876704717
leaf_weight=4811.0558642297983 354.7703909277916 18.992667391896248 111.83375060558319 51.180061489343643 1259.8752744048834 777.5708953589201 379.68061995506287 103.75700740516186 1201.6482132077217 330.58816051483154 35.248934671282768 136.71901282668114 73.666863322257996 2362.5732658207417 20.90127857029438 20.424333840608597 24.560154899954796 74.21325971186161 11.892647981643675 1541.5370980352163 777.27531000971794 347.15686269104481 1792.4406799226999 172.23305511474609 15.606420025229452 190.98054495453835 217.23583672940731 39.485324218869209 24.380843013525009 103.99599638581276 81.74164105951786 16.613476857542992 57.04077385365963 857.73465473949909 1507.1058130860329 367.49625550210476 62.560746699571609 238.19318200647831 87.431541919708252 261.06848925352097 59.324112921953201 70.523194655776024 128.91215692460537 13.371349170804022 1473.5981146991253 140.09678490459919 35.117658823728561 96.440925389528275 267.68134540319443 593.25252272188663 18.136910542845726 13.63580898940563 581.9950855076313 30.072050973773003 27.118586733937263 292.80968143045902 243.69412982463837 26.22439356148243 12.999079838395117 168.6778140515089 297.15766344964504 38.557651281356812
leaf_count=18165 1463 59 516 293 5300 3152 1538 390 5124 1238 87 590 288 9328 84 112 75 356 64 5992 2984 1432 7324 757 86 777 924 220 77 380 378 80 216 3892 5812 1448 272 1054 426 1046 242 338 578 76 5891 573 112 418 966 2204 84 66 2395 123 112 1092 976 121 76 629 1184 185
internal_value=-2.3188e-06 0.00199109 -0.00835755 -0.011294 -0.00118158 0.000992596 -0.0104131 -0.00360594 -0.0117994 0.00309617 0.0246282 0.0042144 0.00142429 0.000211568 -0.00732791 -0.0105919 -0.00116377 -0.00552283 -0.000413791 0.00223295 0.00475287 -0.00952474 -0.000287223 0.00043045 -0.00478543 -0.00402254 -0.0153641 -0.0256147 -0.00048149 -0.000188152 -0.00896088 0.0056171 0.00601279 -0.0138959 0.00204398 -0.00294205 0.00386621 -0.00723222 -0.0217049 0.00156103 -0.00445393 -0.0136453 -0.00853543 -0.0172185 -0.000890788 0.00634582 0.00729957 -0.00468246 0.00668175 0.00428169 0.00789232 0.00285615 -0.00548863 -0.0191984 0.00852167 0.00410677 -0.00212435 -0.0395799 -0.0263832 0.00287748 0.00321681 -0.0133822
internal_weight=25549.9 20628.6 4921.23 3040.31 5328.31 3550.32 2949.9 1880.92 2570.22 15300.3 81.3602 9166.2 6134.13 4497.49 1093.44 714.107 379.331 1777.98 4166.91 3801.26 1636.64 693.683 4155.01 3468.96 1703.77 1619.53 1226.29 151.319 1634.7 556.562 155.409 5364.94 5104.63 1074.97 2347.24 1121.72 1569.67 585.35 108.333 787.482 233.604 129.847 1343.93 142.284 1610.32 4951.15 1080.07 153.482 1044.96 2166.56 611.389 1555.17 754.228 84.2361 46.1113 553.878 260.308 90.4035 39.2235 359.658 401.154 68.6297
internal_count=102240 81128 21112 13358 21550 14094 12868 7754 11330 59578 258 35332 24246 17954 4646 3108 1538 7456 16716 14904 6292 2996 16652 13836 7100 6706 5552 736 6558 2230 666 20428 19372 4816 9236 4600 6084 2486 510 3108 970 580 5778 654 6481 18738 4062 634 3950 8346 2288 6058 3152 394 171 2138 1056 490 197 1406 1564 308
is_linear=0
shrinkage=0.03


Tree=7
num_leaves=63
num_cat=0
split_feature=7 32 50 6 6 17 1 8 7 46 17 5 17 46 8 26 32 24 6 34 0 10 18 19 24 7 14 44 17 7 1 22 27 44 32 10 44 4 19 10 6 47 6 34 9 4 17 34 34 4 22 8 26 1 7 27 47 8 8 27 34 50
split_gain=309.822 66.7221 53.7149 46.9111 46.2389 43.6024 39.344 34.7834 33.0903 27.5028 35.5742 32.5725 23.9649 23.8692 22.3314 20.5632 19.5404 18.306 29.5167 23.4762 17.3296 16.8934 16.5606 16.2738 15.8447 15.5076 15.3158 14.8804 13.458 16.4359 13.3878 14.0004 12.888 12.0997 12.8001 12.7428 12.0138 11.6549 10.6701 12.3587 11.3507 10.3613 10.2198 12.6191 10.2087 9.66547 9.60378 9.948 9.31787 12.0667 11.1421 9.42905 8.99632 10.1942 8.85362 9.35463 8.22745 10.5818 9.27868 8.15356 7.89292 7.7824
threshold=0.60716891288757335 0.59841349720954906 0.41807433962821966 0.0035142647102475171 0.00064497059793211531 1.2707897424697878 -1.0000000180025095e-35 0.66071426868438732 0.92854380607604992 1.0000000180025095e-35 -0.2717887014150619 0.00082073529483750473 0.035737091675400741 1.0000000180025095e-35 0.80357143282890331 -0.24212440848350522 1.4867354035377505 0.14621509611606601 -0.00063220589072443534 70.322795867919936 -0.0013523529050871728 0.2088863402605057 1.0000000180025095e-35 0.45410755276679998 0.8245852291584016 0.92861717939376842 1.0000000180025095e-35 0.32542026042938238 0.035737091675400741 0.81913265585899364 0.0092624071985483187 0.20181818306446078 -21.541775703430172 0.1207268349826336 0.42345826327800756 0.51148134469985973 2.2712608575820927 1.2264901995658877 0.029945517890155319 0.7628844976425172 6.4250001742038889e-05 0.91603711247444164 64.759883880615249 82.055839538574233 1.0000000180025095e-35 2.5169721841812138 0.92862775921821605 45.164978027343757 56.897115707397468 1.3220346570014956 1.158084034919739 0.8392857313156129 0.12964239716529849 -0.00087472042650915671 0.7976769506931306 -1.5934168100357053 0.6324594020843507 0.5892857313156129 0.80357143282890331 -6.4309742450714102 40.626289367675788 0.2396190017461777
decision_type=2 2 2 2 2 2 2 2 2 2 2 2 2 2 2 2 2 2 2 2 2 2 2 2 2 2 2 2 2 2 2 2 2 2 2 2 2 2 2 2 2 2 2 2 2 2 2 2 2 2 2 2 2 2 2 2 2 2 2 2 2 2
left_child=4 2 8 25 6 9 7 52 12 10 23 16 38 14 30 21 20 18 61 -20 -11 -16 28 -6 -19 41 27 -12 32 -30 31 -8 -4 35 -35 -13 -31 -28 39 -2 -40 -3 43 -14 -25 46 47 -15 50 -50 60 -51 53 -1 55 -5 57 -7 -59 -47 -24 -10
right_child=1 3 22 54 5 56 13 -9 17 11 26 33 42 45 15 -17 -18 24 19 -21 -22 -23 48 44 -26 -27 37 -29 29 36 -32 -33 -34 34 -36 -37 -38 -39 40 -41 -42 -43 -44 -45 -46 59 -48 -49 49 51 -52 -53 -54 -55 -56 -57 -58 58 -60 -61 -62 -63
leaf_value=-0.0055204199944478864 -0.022627349992556407 -0.0050962056453785895 -0.030517358291367737 -0.0025773094731358537 0.0078345829924737573 0.0062381149025684882 0.0030633718309250012 0.034905495078033359 -0.0047367942988469488 0.0024402811873287301 -0.0059665446506539611 -0.0020569536165744588 -0.0024782380206787818 0.0015534238577860704 0.0082455705346292981 -0.0067541383338871434 -0.036625458359106057 -0.038161193979252772 -0.016041827370461333 -0.0080064967008158204 -0.0021732122518075595 -0.0025796049630884828 -0.0026235831274822739 -0.0028900223358328762 0.00087146128736227256 -0.025266369975805315 -0.0084277401006178712 0.00010218469710749004 0.0078644765993593248 -0.011710328789772741 -0.021157711132942729 -0.0032499431919464287 -0.0090305009721724575 0.0063622489985768879 0.035365975137937135 0.0079484000437696004 0.0012915958101287627 -0.032052433404635455 -0.0034567314196072801 0.0042962993072945673 -0.011572581562945775 0.028581701045219048 -0.022536005964263084 0.010896098541909765 0.0052745455458278866 -0.027548689863684299 0.00027271345540336677 0.0092417365798944349 -0.0062379250402828197 0.0069603316116070768 -0.0158349172531017 -0.0011901072487297097 -0.017006215176082466 0.021833499155142214 -0.042650907091243452 -0.040599335113058493 0.010177584037912817 -0.027779452602380555 0.0008005227997293264 0.0063881489837663173 0.0074676059040677013 0.00836280060305317
leaf_weight=21.473181053996083 17.212077766656876 16.633771196007732 33.589433446526527 13.342514157295229 293.21112129092216 160.05903327465057 8760.8923796564341 64.197147056460381 84.410286873579025 1109.7237773239613 1490.1463297903538 362.73721063137054 897.01285816729069 182.4727785885334 223.46052947640419 443.82084031403065 12.612538501620291 38.218764573335648 663.49920080602169 656.95909236371517 2151.1710067987442 306.09060268104076 91.39477701485157 491.61171108484268 12.040455445647238 14.906901121139525 49.699760511517525 479.5818996578455 86.143285140395164 177.64919419586658 19.962520658969879 326.72228154540062 100.1152595281601 874.2712064832449 13.019602969288824 166.12031129002571 98.73577293753624 30.800052911043167 203.8089228272438 96.42975240945816 679.11573292315006 14.56575985252857 20.345976188778877 67.279301956295967 190.28207457065582 12.665319055318834 167.84524680674076 933.22918416559696 350.50374096632004 158.42386656999588 23.605766475200653 640.99814136326313 13.941247940063475 26.204611778259281 76.478969231247902 9.8081192821264249 412.72754988074303 15.98512080311775 25.058097049593925 11.145227164030073 282.90876856446266 77.032324224710464
leaf_count=89 82 71 167 57 1104 608 34080 181 352 4364 6238 1472 3682 717 837 1869 67 203 3010 2821 8759 1249 373 2012 49 74 212 1920 325 779 93 1342 430 3321 37 624 393 154 841 377 2986 46 97 248 730 62 666 3454 1477 602 108 2606 63 86 422 54 1518 78 100 42 1070 290
internal_value=-2.83756e-06 -0.00616488 -0.00563581 -0.0261435 0.0017683 6.51603e-05 0.0029999 0.0196233 -0.00788528 -0.000547137 -0.00277701 0.000891016 -0.00531768 0.00281428 0.00231876 -0.00199693 -0.00075285 -0.0111978 -0.0105757 -0.0120554 -0.000601996 0.00198969 -0.00176599 0.00193656 -0.0289172 -0.000995174 -0.00502013 -0.00448813 -0.00652931 -0.00349873 0.00278049 0.00283573 -0.0146372 0.00469087 0.00683054 0.00108925 -0.00706679 -0.017786 -0.00859609 3.04978e-05 -0.00970859 0.0109328 -0.00199116 -0.00153167 -0.000602924 0.00662822 0.00698375 0.00798952 -0.000233708 -0.00160485 0.00371534 0.00042802 0.00335068 0.00959186 -0.0376263 -0.0198242 0.00775414 0.00273984 -0.0106552 -0.0119254 0.00499519 0.00150821
internal_weight=25546.1 5703.17 5557.43 145.736 19842.9 8328.82 11514.1 125.816 3513.36 7714.99 3025.33 4689.66 1981.2 11388.3 10080.9 973.372 3273.51 1532.16 1481.9 1320.46 3260.89 529.551 2044.07 975.105 50.2592 46.1064 2050.23 1969.73 496.233 362.528 9107.58 9087.61 133.705 1416.15 887.291 528.858 276.385 80.4998 996.566 113.642 882.925 31.1995 984.638 964.292 681.894 1307.36 1283.55 1115.7 1547.84 1149.93 397.909 799.422 61.619 47.6778 99.6296 23.1506 613.83 201.102 41.0432 23.8105 374.304 161.443
internal_count=102240 24092 23368 724 78148 33318 44830 419 15038 31014 12370 18644 8313 44411 39470 3955 13190 6725 6473 5831 13123 2086 8330 3846 252 191 8524 8158 2094 1497 35515 35422 597 5454 3358 2096 1172 366 4286 459 3827 117 4027 3930 2742 4941 4837 4171 6236 4685 1551 3208 238 175 533 111 2304 786 178 104 1443 642
is_linear=0
shrinkage=0.03


Tree=8
num_leaves=63
num_cat=0
split_feature=12 8 8 32 12 1 29 50 5 47 44 25 30 47 32 12 47 38 49 29 25 4 46 13 46 27 31 5 5 7 12 29 8 1 44 26 32 12 22 7 12 25 33 44 4 25 9 33 19 27 4 27 38 12 33 12 50 49 4 28 25 32
split_gain=434.606 70.8817 67.4455 76.494 51.5621 47.2704 38.5994 37.7777 37.0527 28.9964 30.9878 28.2474 26.5124 25.9801 25.687 23.7155 23.1701 22.4856 26.755 22.3139 22.2854 21.4352 23.189 20.7621 20.7463 19.7212 19.4054 53.3917 28.5521 18.8819 18.7782 18.7657 18.5278 18.3677 18.3589 17.5413 17.2244 21.7429 16.8065 16.6798 20.8725 18.163 17.4584 15.7941 15.0334 22.3749 14.8304 14.5369 14.2481 14.186 13.6416 13.4326 13.3984 13.3765 12.8494 12.4473 12.4293 11.7885 14.0953 11.5499 11.1446 10.7611
threshold=5.3130006790161142 0.73214286565780651 0.66071426868438732 0.6517462730407716 3.735352754592896 -1.0000000180025095e-35 1.0000000180025095e-35 0.39719443023204809 0.00035027941339649265 0.97057843208312999 0.15647602081298831 3.9300000935327268e-05 0.79314154386520397 1.1317400932312014 1.2715073823928835 10.69234609603882 0.70446121692657482 1.0000000180025095e-35 -0.11435917392373084 1.0000000180025095e-35 5.1068198680877694 0.88992905616760265 1.0000000180025095e-35 0.40920177102088934 1.0000000180025095e-35 -0.57546666264533985 1.0000000180025095e-35 0.0094632352702319639 0.010210294276475908 0.84459090232849132 9.3068108558654803 1.0000000180025095e-35 0.16071429103612903 0.0020549487089738254 0.38877689838409429 -0.18585446476936338 0.2461187690496445 6.779226779937745 0.12499999627470972 0.011958367656916382 3.929360151290894 -0.056940000504255288 0.4101626873016358 1.4938576817512514 1.7084919214248659 0.11961999908089639 1.0000000180025095e-35 1.0378621220588686 0.68357175588607799 -13.009747028350828 0.82597577571868908 -38.215005874633782 1.0000000180025095e-35 13.703806400299074 0.8487321436405183 2.7038224935531621 0.8133944869041444 0.034904928877949722 1.2795552015304568 1.0000000180025095e-35 -0.00034060000325553114 0.24223661422729495
decision_type=2 2 2 2 2 2 2 2 2 2 2 2 2 2 2 2 2 2 2 2 2 2 2 2 2 2 2 2 2 2 2 2 2 2 2 2 2 2 2 2 2 2 2 2 2 2 2 2 2 2 2 2 2 2 2 2 2 2 2 2 2 2
left_child=1 11 8 7 5 12 35 9 15 10 50 14 -3 21 39 36 -17 19 -19 44 31 33 23 -23 32 29 27 -8 -28 -20 -12 -11 48 34 -13 38 43 -38 -7 41 42 -1 -41 51 56 -46 -37 -24 -15 -43 -4 -2 -18 -9 59 -14 -6 58 -10 -55 -59 -26
right_child=2 4 3 -5 17 6 26 53 57 20 30 13 55 24 -16 16 52 18 25 -21 -22 22 47 -25 61 -27 28 -29 -30 -31 -32 -33 -34 -35 -36 46 37 -39 -40 40 -42 49 -44 -45 45 -47 -48 -49 -50 -51 -52 -53 -54 54 -56 -57 -58 60 -60 -61 -62 -63
leaf_value=-0.0020135708076445967 0.003813244145500984 0.03810398054781939 -0.034298331187547729 -0.037956522882216473 -0.0065335121366572359 0.0057108687029032096 -0.046665257928982649 -0.0041784656128316007 -0.0089152721082323087 -0.0096461587831823195 -0.0064231671389286139 0.00082668532679776828 0.019718579153293465 0.0080543883901473233 -0.034626056250116194 -0.037522787263152065 -0.0056804010006494734 -0.027912103161591706 0.01673537882270856 -0.029601288839097458 -0.040823599689383906 -0.012809266800538507 -0.00076428302385256287 -0.0018323901474953004 0.0067437621159495541 -0.02010872931400897 0.016205625046556645 0.0017993955603949714 -0.030486509959752186 -0.015769022510444028 -0.033846230547076264 -0.034004293921865401 0.0032186596127267886 0.028775881578728551 0.0082752452670000389 0.0024166795387122473 0.025675050420584808 -0.01391654528272018 -0.01107410229703237 0.0088494254800028475 0.0013265067183923342 0.0089368576620162486 0.0045817979039456834 0.014944164489447907 0.0031824424660900478 -0.015514671262424218 -0.0023033445670567246 0.010880376456954463 -0.015125240582410906 0.0029576268366904974 -0.018164616633344618 -0.0083861755952803988 -0.037155057438040109 -0.035543516539592777 -0.0072420285864372869 -0.015407285276353957 0.0055963390252958293 -0.0061448098680499845 0.0019028367879416856 -0.0030820594473233492 0.01015784243289479 0.024311883241694591
leaf_weight=608.08458775281906 89.648083433508873 46.433151632547379 121.46867263317108 89.643183127045631 968.98273441195488 854.2679118514061 43.455249816179276 944.11085940897465 147.14012721180916 1430.9305289685726 151.93621137738228 2192.2699923664331 18.419875502586365 30.249285146594048 14.463617488741873 40.71696625649929 82.299722507596016 81.06023745238781 43.330426946282387 29.217694744467735 20.817278295755386 284.54572860896587 1332.67998239398 341.91895815730095 956.90378499031067 46.92170874774456 31.824282765388489 37.553148418664932 17.387237414717674 24.231399565935135 25.663118675351143 28.330079093575478 393.10280334949493 22.015869528055191 343.95462441444397 1070.8536577373743 32.951327160000801 18.83573305606842 56.25868247449398 1526.14061178267 909.48599393665791 395.34243373572826 2005.2809406816959 29.179530590772629 436.78665937483311 65.317703291773796 1357.0734464973211 103.00613649189472 101.23698796331882 3706.1197127699852 85.661720469594002 786.01058861613274 13.492661103606222 34.643692046403885 90.216664955019951 16.026539340615273 81.47660930454731 45.965447321534157 402.43540319800377 14.210381016135214 191.76234506070614 31.780935347080231
leaf_count=2461 350 125 627 490 4102 3256 241 3931 630 6243 649 8703 61 114 74 216 348 402 153 145 113 1254 5362 1390 3607 221 112 150 88 112 133 147 1532 68 1285 4203 103 85 247 5656 3585 1467 7684 103 1708 299 5539 376 454 14405 399 3369 72 180 386 72 314 192 1584 60 702 101
internal_value=-3.12362e-06 0.00190767 -0.00801601 -0.0107802 -0.00107217 0.00101581 0.000482951 -0.0099402 -0.00354583 -0.0125297 -0.0198803 0.00294543 0.0235467 0.00136862 0.00400014 -0.00711765 -0.0187841 -0.00524206 -0.0148217 -0.00404729 -0.0106049 0.000250218 -0.00202442 -0.00683543 0.00477896 -0.00536555 -0.0154761 -0.0244139 -0.000510335 0.00497379 -0.0105699 -0.0101441 -3.83995e-05 0.00208501 0.00184088 0.0011108 -0.00543185 0.0112273 0.00465947 0.00406529 0.00538518 0.00281918 0.00642893 -0.00639997 -0.00354571 0.000718208 -0.000220173 7.60897e-05 -0.00974943 0.00353674 -0.0277598 -0.00713088 -0.0104828 -0.00547186 -0.0141384 0.00331767 -0.00558541 0.00141242 -0.000999023 -0.0264127 0.00698057 0.00733551
internal_weight=25543.5 20625.5 4918.07 3037.63 5326.88 3549.55 3468.67 2947.99 1880.44 1864.81 384.73 15298.6 80.8796 6133.67 9164.92 1093.13 136.509 1777.33 195.544 1581.78 1480.08 4620.39 2062.15 626.465 1513.27 114.484 130.22 81.0084 49.2115 67.5618 177.599 1459.26 524.589 2558.24 2536.22 3338.45 956.625 51.7871 910.527 9150.45 4440.91 4709.55 3531.42 904.838 1552.56 502.104 2427.93 1435.69 131.486 4101.46 207.13 875.659 95.7924 1083.18 139.071 34.4464 1050.46 787.303 549.576 48.8541 237.728 988.685
internal_count=102240 81128 21112 13358 21550 14094 13836 12868 7754 8311 1808 59578 258 24246 35332 4646 636 7456 888 6568 6503 18438 8382 2644 5808 486 591 391 200 265 782 6390 2100 10056 9988 13245 4010 188 3503 35258 16925 18333 13340 3822 6423 2007 9742 5738 568 15872 1026 3719 420 4557 626 133 4416 3108 2214 240 894 3708
is_linear=0
shrinkage=0.03


Tree=9
num_leaves=63
num_cat=0
split_feature=7 32 25 50 25 17 1 33 7 24 46 48 8 32 24 11 25 11 34 1 8 27 17 7 0 18 6 25 29 6 34 7 17 7 25 24 5 0 25 5 49 17 7 37 33 22 34 47 6 34 47 24 26 4 34 34 34 8 46 8 8 25
split_gain=275.353 59.9458 53.3764 48.7325 44.0715 37.7309 35.1931 35.6477 30.4046 30.174 27.3865 27.3579 26.544 22.8324 21.0124 44.2692 19.9763 34.3061 27.6978 19.899 19.8185 19.5168 18.9073 17.7185 17.5983 15.4644 15.3636 14.0958 14.0285 13.3635 13.2261 12.9019 12.7291 15.2778 13.3397 12.6113 12.4974 11.4643 10.3771 10.2791 9.97978 11.0147 9.87121 9.84637 9.8103 11.4444 10.501 9.69095 9.3438 9.08538 8.72817 8.60691 8.5728 9.86454 8.13525 8.04941 7.65964 7.35621 7.19566 6.60559 6.51258 9.81093
threshold=0.60716891288757335 0.59841349720954906 3.9300000935327268e-05 0.41807433962821966 0.00017620000289753082 1.2707897424697878 -1.0000000180025095e-35 0.37796333432197576 0.92854380607604992 0.47529281675815588 1.0000000180025095e-35 0.61385235190391552 0.80357143282890331 1.538013279438019 0.28018088638782507 0.49634350836277014 -1.2819999938074032e-05 2.1655417680740361 70.322795867919936 0.0092624071985483187 0.66071426868438732 -0.35326926410198206 -0.090810917317867265 0.92861717939376842 -2.4088235477393024e-05 1.0000000180025095e-35 31.376294136047367 0.00011362000077497215 1.0000000180025095e-35 0.012616176158189775 80.962017059326186 0.12225826829671861 0.035737091675400741 0.81913265585899364 8.8600001618033289e-05 0.32586891949176794 -9.7544120762904623e-06 5.6533234119415292 4.1979999878094538e-05 6.4704117774963388 -0.59837016463279713 0.94388380646705639 0.23089551925659182 18.010216712951664 0.59043496847152721 1.137697756290436 70.058219909667983 0.81351178884506237 64.759883880615249 42.211355209350593 0.8205154836177827 0.32530485093593603 -0.31511729955673212 0.85295897722244274 55.000223159790046 43.708045959472663 64.291484832763686 0.73214286565780651 1.0000000180025095e-35 0.30357143282890325 0.94642856717109691 0.0056059998460114011
decision_type=2 2 2 2 2 2 2 2 2 2 2 2 2 2 2 2 2 2 2 2 2 2 2 2 2 2 2 2 2 2 2 2 2 2 2 2 2 2 2 2 2 2 2 2 2 2 2 2 2 2 2 2 2 2 2 2 2 2 2 2 2 2
left_child=2 3 6 8 23 9 7 20 11 13 12 27 19 14 15 -4 17 50 26 29 -1 31 36 47 -11 32 -18 51 -23 -8 -29 -14 34 38 -5 -16 -13 -20 -34 40 55 -42 52 -35 45 49 57 -3 -24 -27 -10 -2 -9 -54 59 -12 -36 -46 -48 -7 61 -6
right_child=1 4 5 25 60 54 10 42 16 24 39 22 21 -15 35 -17 18 -19 37 -21 -22 28 48 -25 -26 44 -28 30 -30 -31 -32 -33 33 43 56 -37 -38 -39 -40 -41 41 -43 -44 -45 46 -47 58 -49 -50 -51 -52 -53 53 -55 -56 -57 -58 -59 -60 -61 -62 -63
leaf_value=0.012580077256664607 -0.00354831571230944 -0.0062502147699863069 -0.00055765833917852852 -0.0016870538322778991 -0.0049248120472995772 0.0055543654445200773 0.0029630157381988543 0.012955710624675602 0.0056649607438109201 -0.0067248825776787275 -0.013418026147165562 -0.0034270729739372774 0.0069437271398120216 -0.039406499252574209 0.029909671339401488 -0.044789692089686466 -0.01545711742547878 -0.042771707387013587 -0.00704066649569222 -0.031149352741480382 0.045480267645675636 -0.0058373434623975795 0.0020100971954103916 -0.027162318204101317 -0.047291581561650017 -0.0014015396622914331 -0.039526149104647003 -0.0134185347434897 -0.028279851047669849 -0.0055717381442127777 0.0077311388540274384 -0.0022996118743744427 -0.0075093177452716948 -0.0086723220070772638 -0.029576383904064515 0.0049694704517175862 -0.014834229661855013 -0.034347250572854669 0.014631606610926808 -0.018748229164348738 0.0091041377844830775 0.0014348208729496404 0.023349513851144456 0.0095473591389059788 0.0075341924152710809 -0.015230706218298537 -0.0035306731264383982 0.024588162343617673 -0.021768345902300403 0.0087645484731791231 -0.0070298759467998682 -0.022324700089412727 -0.0027382030145200065 -0.038639526489542969 0.0081071221489922123 0.0034783312000196934 -0.010841543927502461 -0.0059036227760076148 0.0030791132366909703 -0.017146911517840424 -0.042495081874895591 -0.039975079085282486
leaf_weight=28.671826630830765 380.4252892434597 16.968312814831734 7592.3024226278067 49.767705395817757 14.311969846487047 23.607295855879784 8555.4532283395529 14.727550968527792 132.50541788339615 20.25583179295063 26.435312896966934 309.60064101219177 217.05009357631207 12.614624038338659 29.922992900013924 19.421436741948128 629.6252471357584 16.434139922261238 638.80774694681168 14.559945702552794 42.415041118860245 400.13014400005341 635.9735294431448 16.380986034870148 18.412010252475739 116.99437595903873 24.493223562836647 470.17863902449608 25.956216081976891 167.23357258737087 27.395447939634323 359.29308025538921 26.924025818705559 247.37074910104275 45.886005818843842 46.619840726256371 120.01100964844227 13.289494752883909 59.213087648153305 13.499283492565153 1060.6942793130875 201.97467178106308 12.993640929460524 28.92853955924511 38.827583059668541 24.88676230609417 218.69500741362572 17.887186989188194 14.216351509094237 238.85516557097435 75.694035112857819 22.472903743386269 22.749833598732952 9.1233868002891523 550.83366426825523 331.9288796633482 37.981734693050385 455.64913819730282 453.67610597610474 20.685424983501434 64.632785528898239 14.620670288801191
leaf_count=102 1578 73 30527 203 63 90 33266 52 512 87 116 1284 821 69 93 106 2863 91 2736 73 104 1674 2525 83 104 473 131 2107 130 696 104 1464 114 1064 227 180 539 69 211 62 3923 793 41 108 146 114 906 59 68 894 323 108 92 48 2056 1285 167 1919 1784 94 365 81
internal_value=-3.54479e-06 -0.00581483 0.001666 -0.00531464 -0.024814 -0.000161888 0.00299036 0.0184165 -0.00745821 -0.000722309 0.00281126 -0.00499671 0.0022073 -0.000587402 -0.000518202 -0.00067678 -0.0106351 -0.00234245 -0.012056 0.00273795 0.0326107 -0.00241303 -0.00177036 -0.00229748 -0.0268219 -0.00162853 -0.0164219 -0.008856 -0.00727453 0.00279842 -0.0122349 0.00118222 -0.00623225 -0.003285 -0.0141195 0.015018 -0.00664765 -0.0076535 0.0076698 0.00640471 0.00662746 0.00788185 0.00117687 -0.00672635 -0.000147821 0.00402523 -0.00151431 0.00973617 0.00145295 0.00541923 0.00102368 -0.00465573 -0.00530313 -0.0139687 0.00711028 0.00218973 -0.0213549 -0.00482932 0.000922713 -0.00512577 -0.0369577 -0.0234809
internal_weight=25539.1 5699.58 19839.6 5554.78 144.802 8334.68 11504.9 130.681 3511.12 7739.55 11374.2 1980.27 9739.68 7700.88 7688.27 7611.72 1530.85 224.634 1306.22 8737.25 71.0869 1002.43 1079.8 51.2365 38.6678 2043.66 654.118 900.472 426.086 8722.69 497.574 576.343 496.072 362.436 133.635 76.5428 429.612 652.097 86.1371 1634.53 1621.03 1262.67 59.5944 276.299 1547.58 380.736 1166.85 34.8555 650.19 355.85 208.199 402.898 46.6008 31.8732 595.126 358.364 83.8677 494.477 672.371 44.2927 93.5654 28.9326
internal_count=102240 24092 78148 23368 724 33406 44742 439 15038 31166 44303 8313 38124 30975 30906 30633 6725 926 5799 34035 206 4089 4416 215 191 8330 2994 3897 1804 33962 2211 2285 2094 1497 597 273 1823 2805 325 6179 6117 4716 233 1172 6236 1481 4755 132 2593 1367 835 1686 192 140 2240 1401 394 2065 2690 184 509 144
is_linear=0
shrinkage=0.03


Tree=10
num_leaves=63
num_cat=0
split_feature=12 8 8 32 12 34 5 6 47 44 32 33 5 11 12 24 32 50 4 49 33 6 4 32 33 48 32 47 12 11 33 30 46 8 37 10 46 6 32 17 37 49 8 44 34 17 22 24 12 20 6 6 6 27 48 26 12 44 47 17 26 34
split_gain=399.023 62.4692 59.7425 69.8234 47.5571 38.4165 34.5708 31.9216 29.4136 35.2431 29.2933 38.8212 29.5779 25.5993 22.3182 26.0823 23.3051 19.9137 19.6363 19.6018 26.3406 19.3846 23.0639 19.1362 17.7517 18.7724 16.4407 15.9899 16.2255 15.7925 15.7736 15.3941 14.5259 19.9225 18.6781 13.8351 13.5339 21.703 17.0608 16.2412 13.3703 13.3381 13.2591 12.9682 13.8005 12.9096 12.5298 32.8828 19.7605 15.2899 17.9161 12.4305 12.2817 12.2312 12.18 25.5776 15.2172 11.4084 10.7713 10.7394 12.4984 10.5345
threshold=5.3130006790161142 0.73214286565780651 0.66071426868438732 0.6517462730407716 3.735352754592896 83.773811340332045 0.00035027941339649265 22.053161621093754 0.61980614066123974 0.14454721659421924 0.035176767036318786 0.59043496847152721 0.0094632352702319639 1.8044632673263552 6.1062636375427255 0.33679293096065527 0.25164778530597692 0.41807433962821966 0.73563244938850414 -0.28885024785995478 0.44246932864189154 6.8836324214935312 1.8750123381614687 0.57650619745254528 0.79595860838890087 0.64638930559158336 1.2955882549285891 0.87822937965393078 3.4420992136001591 0.49634350836277014 0.92749419808387767 0.88416215777397167 1.0000000180025095e-35 0.48214285075664526 13.812812805175783 0.95722192525863659 1.0000000180025095e-35 1.7448529433750085e-05 0.24223661422729495 -0.91820785403251637 15.435184478759767 -0.96644967794418324 0.19642857462167743 0.10771668329834939 58.826532363891609 0.36034579575061804 0.12499999627470972 0.18813014030456546 2.1127408742904668 1.0000000180025095e-35 -0.00083729412290267635 0.0011341911740601065 -2.7581028938293453 -41.451232910156243 0.47171404957771307 -1.1182917356491087 6.4155166149139413 1.1701406836509707 1.840778708457947 0.20090396702289584 1.7415717840194704 62.401683807373054
decision_type=2 2 2 2 2 2 2 2 2 2 2 2 2 2 2 2 2 2 2 2 2 2 2 2 2 2 2 2 2 2 2 2 2 2 2 2 2 2 2 2 2 2 2 2 2 2 2 2 2 2 2 2 2 2 2 2 2 2 2 2 2 2
left_child=1 19 6 5 10 7 14 8 9 -4 24 31 26 21 16 18 58 -10 42 20 46 22 41 32 25 52 -13 28 -26 -27 -29 -12 34 -34 -22 -23 37 -21 43 -39 -41 -6 -16 44 -38 -25 49 -48 -49 -1 -51 -24 -3 -20 55 -8 -57 -37 -2 -5 -61 -56
right_child=2 4 3 59 13 -7 54 -9 17 -11 11 12 -14 -15 15 -17 -18 -19 53 36 23 35 51 45 27 29 -28 30 -30 -31 -32 -33 33 -35 -36 57 38 39 -40 40 -42 -43 -44 -45 -46 -47 47 48 -50 50 -52 -53 -54 -55 61 56 -58 -59 -60 60 -62 -63
leaf_value=0.0036985104674580266 -0.0057491910241482492 -0.018017542538524736 -0.029443972231182117 -0.045734838106361871 -0.018235444209625831 0.001264407473823596 0.0066347542463847352 -0.030976348420388846 -0.010867419736782187 -0.0073712435786507224 0.03856253619629834 0.00010451330802655901 -0.030072823525740026 -0.036771250399480045 -0.0034052821208645197 -0.042828820210826152 0.0266744249257201 -0.0049242433915022508 0.0049633803045669453 0.0042772010802077983 -0.0022684174264911432 0.0018206321329444638 -0.0061351981818606825 -0.0081203434664044432 -0.0038911876177287179 0.0044370695229499612 0.037977077377430078 -0.0047484176968569033 -0.019523048155700485 -0.011629798046568 0.0075251384941270299 0.0075008913788397 0.0048081200918544528 -0.0028208519851256322 0.0039998403999558689 -0.037773529704246668 -0.0012000134681789522 0.0097116734229032425 0.022616439832908102 -0.0016226624542918524 0.0063466360572929162 -0.0050003302330008303 -0.027142794213259165 0.0067248570056281489 0.007121105208944929 -0.046427686857852507 -0.045076576886117416 -0.028262561820022025 0.0043626568546739231 0.019294439693034408 -4.5025513818604536e-05 0.0059789231020819008 -0.00098633421645751593 -0.0084104597529273545 -0.00063606588741539269 -0.0019383780015483775 -0.022590479696531822 -0.011747758444561766 0.0069407674641385675 -0.010462505575830453 -0.046704807506903867 0.0076345646978562137
leaf_weight=2609.1864509880543 279.11226184666157 39.273692101240158 144.92071723937988 50.114805087447166 72.047250255942345 270.75781260430813 103.72617439925671 66.687862321734428 1591.4578187167645 119.91389751434326 50.633841425180435 34.994689092040062 21.487505093216896 21.549716144800186 29.722938254475594 20.320100978016853 24.476808190345764 751.8963460624218 68.899776756763458 3792.7941490411758 2130.3661257475615 22.13827520608902 104.09744565188885 24.002398058772087 638.42578274011612 1499.6387215554714 13.727332532405851 164.32215268909931 65.226048946380615 56.121854826807976 217.87764720618725 21.036120891571045 1094.2029984593391 427.35291357338428 534.0915874093771 32.359981030225754 465.61478933691978 149.69243517518044 51.3771593272686 1440.7910148352385 217.07183530926704 1217.5839409381151 78.417800456285477 1707.8650366216898 290.09808392822742 11.446387767791746 15.009224116802214 18.159455850720406 129.54225477576256 122.2761959284544 65.814723148941994 275.78063561022282 725.63190071284771 516.17414845526218 261.05453670024872 59.322582796216011 70.432150423526764 30.965878084301949 75.587653264403343 25.893859446048737 12.68995128571987 292.66936099529266
leaf_count=10090 1175 179 729 293 332 1080 390 340 7042 517 136 140 109 117 124 112 75 3160 267 14570 8641 88 437 102 2642 5780 38 684 302 248 827 78 4203 1740 2061 175 1870 550 168 5822 824 5114 386 6435 1091 63 82 89 501 414 262 1053 2931 2219 1046 242 338 140 288 121 76 1092
internal_value=-4.09011e-06 0.00182654 -0.00768537 -0.0102891 -0.000971476 -0.00948989 -0.00347798 -0.0105797 -0.0100453 -0.0195263 0.00103398 0.0143423 -0.00150541 -0.00497716 -0.00692902 -0.0100514 -0.00103442 -0.00896467 -0.00902599 0.00280074 0.00165805 -0.00456433 -0.00384213 0.00013573 0.000474772 0.00195669 0.0113846 -0.00268849 -0.00537011 0.00384845 0.00224182 0.0297155 0.000324814 0.00266299 -0.00100979 -0.0184299 0.00381125 0.00298817 0.00564098 0.000280864 -0.000574199 -0.00575561 -0.0207369 0.00527671 0.00199547 -0.0215065 0.00382734 -0.00423689 0.000168228 0.00429884 0.0125471 0.00264404 -0.00188709 -0.00682462 0.0013113 -0.00441734 -0.0132585 -0.0254742 -0.00302458 -0.036394 -0.0233369 0.00373583
internal_weight=25535.9 20621.7 4914.25 3034.33 5324.92 2945.63 1879.92 2674.88 2608.19 264.835 3548.4 141.879 70.2095 1776.52 1092.71 713.535 379.177 2343.35 693.215 15296.8 7181.45 1754.97 1669.51 4221.46 3406.52 2320.67 48.722 1085.85 703.652 1555.76 382.2 71.67 4186.01 1521.56 2664.46 85.4641 8115.3 5600.35 2514.96 1807.56 1657.86 1289.63 108.141 2463.58 755.713 35.4488 2959.99 162.711 147.702 2797.28 188.091 379.878 764.906 585.074 787.205 233.481 129.755 63.3259 354.7 88.6986 38.5838 553.724
internal_count=102240 81128 21112 13358 21550 12868 7754 11788 11448 1246 14094 501 287 7456 4646 3108 1538 10202 2996 59578 28248 7339 6936 16810 13593 9138 178 4455 2944 6028 1511 214 16645 5943 10702 403 31330 21766 9564 7196 6646 5446 510 9396 2961 165 11438 672 590 10766 676 1490 3110 2486 3108 970 580 315 1463 490 197 2138
is_linear=0
shrinkage=0.03


Tree=11
num_leaves=63
num_cat=0
split_feature=7 38 25 29 50 44 25 24 7 17 32 32 33 45 22 6 22 33 26 24 11 34 7 13 26 5 6 0 42 42 17 47 49 7 14 11 25 24 44 0 48 5 34 27 49 22 5 50 13 6 34 25 34 48 10 49 33 17 44 50 32 7
split_gain=244.96 54.7586 48.9989 45.6463 39.7753 35.8959 30.2715 27.7944 26.2042 27.1891 22.5755 22.144 55.2139 23.162 24.1775 32.2386 27.5501 21.4959 20.7063 20.3359 40.6937 20.2292 17.6569 17.4314 17.388 17.377 16.8361 16.7274 16.7175 15.5073 14.9497 14.4508 14.2468 14.0078 13.9857 13.1464 12.8823 12.8241 12.5668 12.4944 12.3917 15.5925 12.3472 12.3307 12.2275 12.2261 11.9386 11.6959 11.298 10.2168 10.1644 10.1405 12.9617 9.85221 14.8637 10.3757 9.00291 11.973 8.59071 8.49431 8.25564 8.21618
threshold=0.60716891288757335 1.0000000180025095e-35 3.9300000935327268e-05 1.0000000180025095e-35 0.29736538231372839 1.3248686194419863 0.00050059999921359133 0.47529281675815588 0.88923770189285289 1.3456245064735415 1.538013279438019 0.077378615736961379 0.33403882384300237 1.0000000180025095e-35 0.17500000447034839 -0.016988234594464299 1.3596116304397585 0.22393184900283816 -0.048090416938066476 0.28018088638782507 0.49634350836277014 83.773811340332045 0.95445942878723156 0.84616959095001232 -1.0000000180025095e-35 0.0009820588747970762 1.1769117463700242e-05 -2.4088235477393024e-05 0.23982979357242587 0.31296642124652868 1.0771520137786867 0.46991714835166937 -0.22919545322656629 0.65166455507278453 1.0000000180025095e-35 1.0085045099258425 -3.4780000532919071e-06 0.27974592149257665 0.080045767128467574 -2.0759853124618526 0.33616116642951971 0.00093836765154264878 37.934047698974616 -0.35326926410198206 0.071343351155519499 1.6577209234237673 0.041426470503211028 0.55184400081634533 0.62342587113380443 0.0089844116009771841 40.278402328491218 0.03605999983847142 76.672554016113295 1.4071798324584963 0.40317787230014807 -0.13233546167612073 0.30233058333396917 0.79834187030792247 0.15273444354534152 0.476208046078682 0.69174644351005565 0.030268362723290924
decision_type=2 2 2 2 2 2 2 2 2 2 2 2 2 2 2 2 2 2 2 2 2 2 2 2 2 2 2 2 2 2 2 2 2 2 2 2 2 2 2 2 2 2 2 2 2 2 2 2 2 2 2 2 2 2 2 2 2 2 2 2 2 2
left_child=2 3 11 4 6 7 36 10 17 28 19 13 60 14 24 37 -17 58 56 20 -4 22 -8 40 30 -5 29 -9 39 35 -1 33 46 -19 48 -15 50 -16 -26 -10 -14 -42 -41 -34 -36 -21 -33 -31 -20 -38 -2 52 -27 54 55 -7 -6 -58 -3 -11 -13 -57
right_child=1 8 5 25 18 53 21 27 9 59 -12 12 23 26 15 16 -18 31 34 45 -22 -23 -24 -25 38 51 -28 -29 -30 47 -32 32 43 -35 44 -37 49 -39 -40 42 41 -43 -44 -45 -46 -47 -48 -49 -50 -51 -52 -53 -54 -55 -56 61 57 -59 -60 -61 -62 -63
leaf_value=0.0066830698717171315 -0.0058081969316738438 0.025234512385097014 -0.00060755691164773016 -0.053028289677473299 -0.00096534283884374729 0.0035226410673005523 -0.0090298306953134101 -0.0062838628949031406 -0.0026769307434422549 -0.011477278205155707 -0.038857172496718537 0.038080763908790276 -0.016366843995298655 0.00097585238811322714 -0.050497322549558313 -0.018414368500620223 0.0094357906682595531 0.0023505565132145049 -0.0041224797749786629 0.0053865984765511096 -0.04324435858345279 0.0050891536476727001 -0.017988557758619707 -0.031626058585941377 -0.00010462135856440056 -0.031679696943067048 -0.011471390060940556 -0.045886853142734191 0.0032157713335833897 0.033618569818822767 -0.0012496136925624788 -0.011245457350298782 0.0067807432653610392 -0.038933102327304368 -0.0025993160826634676 0.017813059258726602 -0.0066532627773577598 -0.016163546119095765 0.0038321474972547185 -0.010421365869802168 0.020703236229896387 -0.0012845002417914563 -0.029581480731445325 -0.015363472967024708 0.019508937725405247 0.030300807275854196 -0.040847104659967701 0 0.0015952123604221016 0.014134145294156256 0.0047807641420477337 0.0068927223084697172 0.0038140916922421234 0.010105604503529089 0.0065939747137969884 0.00093722167475705526 0.012737053567121896 -0.0015279218361148356 -0.00053938867794705637 0.015871005762999959 0.016432346451102892 -0.025042264037002979
leaf_weight=2401.6191771924496 129.85138189792633 20.653492167592049 7513.4447306394577 17.0345468968153 161.80648982524872 40.626213788986206 501.67456351220608 20.2298643887043 21.643482640385628 17.539801687002182 12.884679615497587 56.388155400753021 21.091459110379219 4514.5004044473171 15.12714211642742 46.660653442144394 96.070646837353706 9.7547520995140058 2058.0901202261448 48.817091330885887 19.20339173078537 61.538222789764404 333.71973864734173 12.351510763168333 988.54432405531406 42.125807106494904 93.862673401832581 18.304899781942368 20.163227811455727 22.306119173765182 233.69699604809284 103.84262643754482 74.922799721360207 26.743698477745056 42.92263351380825 41.154187679290771 803.41323356330395 30.02479599416256 2770.556482821703 37.630024090409279 49.561079114675522 67.344945281744003 209.66577211022377 31.237922206521034 45.406239941716194 27.706342548131943 13.342743963003157 15.698091238737105 364.99408915638924 20.859002783894539 215.44074340164661 10.820616170763968 11.351564794778822 334.398811891675 248.93708647787571 15.70651203393936 163.43716728687286 77.295019164681435 24.598043397068977 21.723792642354965 25.984565183520317 33.150436446070671
leaf_count=9042 546 67 30226 99 652 158 2185 87 93 80 71 154 95 17840 86 214 357 39 8574 188 105 239 1554 62 3940 214 408 104 80 65 935 465 291 143 178 142 3437 137 10678 170 165 271 1072 143 157 85 73 62 1458 76 836 42 45 1222 940 62 591 314 101 78 89 158
internal_value=-4.49887e-06 -0.00548813 0.00156999 -0.0044448 -0.00407695 -0.000181435 -0.00726008 -0.000765602 -0.0138002 -0.0196805 -0.00063498 0.00283904 0.0119842 0.00264888 0.00379666 -0.00677959 0.00024558 -0.00741792 -0.00181681 -0.000564766 -0.000722377 -0.0114061 -0.0126294 0.0010979 0.00410889 -0.0266112 0.00103605 -0.0258569 -0.0228538 0.00129471 0.00597826 -0.0107466 -0.00779303 -0.028051 -0.00283017 0.00113249 -0.00407092 -0.0285762 0.00279633 -0.0248241 0.00425491 0.00810806 -0.0267318 0.000154222 0.00882321 0.0147203 -0.0149584 0.0201359 -0.00325967 -0.00610709 0.000784718 -0.0188616 -0.0241587 0.00645659 0.00282295 -0.0075916 0.00448941 0.00815703 0.0114506 0.00359787 0.0315667 -0.0167789
internal_weight=25531.2 5695.24 19836 5061.78 4980.45 8333.41 2066.5 7660.59 633.462 328.366 7622.06 11502.5 232.722 11269.8 6582.3 187.883 142.731 305.096 2913.95 7609.17 7532.65 896.933 835.394 150.349 6394.42 81.3325 4687.52 38.5348 289.103 4593.66 2635.32 259.845 223.346 36.4985 2511.41 4555.65 1169.56 45.1519 3759.1 268.939 137.997 116.906 247.296 106.161 88.3289 76.5234 117.185 38.0042 2423.08 824.272 345.292 64.298 53.4774 672.819 338.42 89.4832 402.539 240.732 45.2515 39.2636 82.3727 48.8569
internal_count=102240 24092 78148 21197 20797 33406 8873 30866 2895 1573 30675 44742 836 43906 25389 794 571 1322 11924 30604 30331 3978 3739 593 24595 400 18517 191 1415 18109 9977 1154 972 182 10367 17982 4895 223 14618 1335 531 436 1242 434 335 273 538 127 10032 3513 1382 301 259 2540 1318 378 1557 905 168 158 243 220
is_linear=0
shrinkage=0.03


Tree=12
num_leaves=63
num_cat=0
split_feature=12 8 12 38 12 47 1 7 44 25 28 34 25 46 25 11 45 25 10 25 47 45 8 17 44 25 12 47 50 26 34 12 4 34 46 33 37 47 12 7 10 25 19 4 8 33 47 17 49 17 44 34 22 10 0 12 17 4 42 37 25 49
split_gain=366.982 55.7447 55.1741 69.6109 43.6685 39.7958 39.3931 38.2952 39.9015 35.2427 40.6068 33.4273 30.1709 24.3611 41.8522 23.9634 23.526 23.3041 23.2892 22.5396 26.7871 23.0539 23.0343 21.3191 21.8957 20.979 20.8984 20.1155 19.9364 19.746 23.6391 18.8447 18.5654 18.2691 16.8063 16.5172 15.9461 15.6413 15.6121 15.291 15.2791 15.3209 15.1379 15.134 22.6055 14.9851 14.1643 13.691 13.6449 21.2115 13.6161 13.5066 14.7374 13.9119 13.2076 13.1153 12.5906 12.4716 12.0289 11.9767 11.8165 11.4556
threshold=5.3130006790161142 0.73214286565780651 10.69234609603882 1.0000000180025095e-35 3.735352754592896 0.65779134631156932 -1.0000000180025095e-35 0.87053608894348156 1.3248686194419863 0.00086739999824203562 1.0000000180025095e-35 82.055839538574233 0.0096060000360012072 1.0000000180025095e-35 0.0047319999430328616 1.8044632673263552 1.0000000180025095e-35 0.93688002228736889 0.99556884169578563 4.8020001486293047e-05 1.0875063538551333 1.0000000180025095e-35 0.19642857462167743 -0.89567786455154408 0.53853398561477672 0.0003477999998722226 16.946931838989261 2.2183513641357426 0.58354300260543834 -1.1426635980606077 65.94315338134767 13.703806400299074 0.88992905616760265 76.672554016113295 1.0000000180025095e-35 0.79595860838890087 0.71523305773735057 0.87822937965393078 4.8224172592163095 0.019449181854724888 0.98765847086906444 0.24743999540805819 2.4390093088150029 1.3111689090728762 0.48214285075664526 0.92749419808387767 0.78510472178459179 0.15844289213418963 1.0326005816459658 -1.6180577874183653 0.84181764721870433 61.766706466674812 0.17500000447034839 0.64069870114326488 -0.014173235278576611 1.4860150814056399 -0.29626044631004328 1.4090026021003725 0.076517585664987578 -5.8819587230682364 -0.0017148000188171861 1.0000000180025095e-35
decision_type=2 2 2 2 2 2 2 2 2 2 2 2 2 2 2 2 2 2 2 2 2 2 2 2 2 2 2 2 2 2 2 2 2 2 2 2 2 2 2 2 2 2 2 2 2 2 2 2 2 2 2 2 2 2 2 2 2 2 2 2 2 2
left_child=1 19 7 5 6 28 16 8 17 10 25 13 47 14 27 33 -3 29 -5 21 23 38 55 -21 32 -7 -12 -9 42 -2 -31 -20 -25 40 43 48 -14 39 51 -37 -6 -42 -4 -22 -45 -39 50 -11 54 -50 -15 52 -1 -53 -8 -23 -16 -24 -59 -19 -57 -36
right_child=2 4 3 18 15 9 35 11 -10 12 26 -13 36 46 56 -17 -18 59 31 20 34 22 57 24 -26 -27 -28 -29 -30 30 -32 -33 -34 -35 61 37 -38 45 -40 -41 41 -43 -44 44 -46 -47 -48 -49 49 -51 -52 53 -54 -55 -56 60 -58 58 -60 -61 -62 -63
leaf_value=0.0062317862776664025 0.0012126151086524937 0.0073378236097309127 -0.044385731004632493 -0.042725478139412361 -0.0031733632230717436 0.0013869199989001927 -0.0047600155672964609 -0.014710317001051007 0.0069682374912092568 -0.0394985726976472 0.0016659775338559609 0.0014083578660345256 -0.0014482535374727502 -0.03829389758947406 -0.01173531550999497 -0.035597616596270434 0.040324558877544041 -0.0087878680581078509 0.0055017634033483623 0.0075230107617542882 0.0078831382589206137 -0.0069729883176779034 0.0057206466910543251 0.0004000472852431228 0.0053233464138328955 -0.014744264366677607 0.045313263253253293 0.0065581973945382016 0.0010429222527635756 -0.0080799605477554475 -0.0010873659191959551 -0.034085568587391896 -0.0040286923212644469 0.0050709209412894921 0.0042554892127607468 0.009807585910250818 -0.020482621417725017 -0.0043493736202756556 -0.0041650333814376456 -0.0062571985574458059 -0.0078774174292900404 -0.026537530248466442 -0.012271147434840557 -0.0080121456307521554 0.0069997671797998283 0.0075884895927552393 -0.0069185198322417518 -0.018511054390325951 -0.011530320064498212 0.0096714777319871232 0.0013520844480734635 0.00051119538856878488 -0.0034946471472336225 0.0085097129253721947 0.0020135545454315028 0.0040884906765339506 -0.036994841586698031 0.0006154185474741042 0.025593918978834666 -0.036440232021618404 -0.0017443996960052799 0.010681955181120506
leaf_weight=4065.8236481696367 425.08618874847889 45.789208471775055 52.537082254886627 90.681101784110069 1036.3888828009367 178.76225918531418 306.22394926846027 317.20025761425495 271.84608401358128 46.765644103288651 17.486968040466309 188.17479181289673 126.42509910464287 24.555001974105835 23.475000143051147 21.40016020834446 33.950149297714233 27.603399842977524 20.314002841711044 312.09043663740158 166.47294950485229 266.18404838442802 1277.2391717880964 2050.4891796410084 490.40898494422436 120.62250170111656 22.3680290132761 44.990502998232841 15.560812160372732 1390.6404747962952 635.06405530869961 21.337070062756538 1454.8964509665966 167.04099634289742 658.74173782765865 56.828911349177361 57.061905711889267 164.9144673794508 167.49789950251579 680.45461510121822 508.37639474868774 42.423784896731377 19.197485774755478 261.96445026993752 136.38261021673679 218.94561623036861 551.99970762431622 79.118063122034073 47.436131745576859 344.8169646859169 10.917052134871481 911.37658005952835 144.20218755304813 248.61841356754303 1647.9644199758768 479.12422700226307 99.634390592575073 886.23013919591904 16.710600405931473 30.558628171682358 894.37199719250202 405.97886919975281
leaf_count=15318 1688 171 293 509 4290 722 1271 1448 1030 249 71 752 525 132 106 117 87 120 82 1170 626 1122 4840 8166 1876 547 61 176 63 5992 2594 115 6010 648 2532 210 268 686 688 2874 2186 215 88 1114 516 830 2384 367 207 1273 44 3598 594 922 6485 1850 526 3504 52 160 3608 1472
internal_value=-4.72496e-06 0.00175055 -0.00737484 -0.0142365 -0.000893127 -0.0105992 0.00102872 -0.00589695 -0.0039264 -0.00800601 -0.0013086 -0.0102337 -0.0153125 -0.012278 -0.0172576 -0.00473267 0.021745 -0.00511034 -0.0342095 0.0026708 0.00122397 0.00358829 0.00179349 -1.49327e-05 -0.000606167 -0.00512982 0.0267453 -0.0120493 -0.0295243 -0.00465756 -0.00589086 -0.0150314 -0.00143785 -0.00433437 0.004499 0.000545341 -0.00746288 -0.00244746 0.00482528 -0.00500327 -0.00532867 -0.00936558 -0.0361194 0.000309196 -0.00286033 0.00245396 -0.00813706 -0.0265814 0.00197703 0.00707706 -0.0263075 0.00510699 0.00589717 0.00223393 0.000948701 -0.000891078 -0.0323358 0.00381337 0.00110881 -0.0237376 0.000289631 0.00671645
internal_weight=25527.7 20617.8 4909.98 868.238 5322.95 735.906 3547.32 4041.75 2780.8 648.61 339.24 1260.95 309.371 1072.77 485.3 1775.63 79.7394 2508.95 132.332 15294.8 5937.43 9357.38 3819.86 4307.89 3995.79 299.385 39.855 362.191 87.2954 2450.79 2025.7 41.6511 3505.39 1754.23 1629.54 3467.59 183.487 1121.14 5537.52 737.284 1587.19 550.8 71.7346 564.82 398.347 383.86 587.472 125.884 2346.44 392.253 35.4721 5370.02 4210.03 1159.99 1954.19 1639.68 123.109 2180.18 902.941 58.162 1373.5 1064.72
internal_count=102240 81128 21112 3960 21550 3254 14094 17152 11584 2810 1401 5568 1409 4816 2256 7456 258 10554 706 59578 23482 36096 14976 17222 16052 1269 132 1624 444 10274 8586 197 14176 7339 6260 13836 793 4600 21120 3084 6691 2401 381 2256 1630 1516 2560 616 9236 1480 176 20432 15912 4520 7756 6580 632 8396 3556 280 5458 4004
is_linear=0
shrinkage=0.03


Tree=13
num_leaves=63
num_cat=0
split_feature=12 8 12 38 12 47 1 8 6 12 50 5 6 47 11 44 45 10 7 4 6 27 6 6 33 12 11 22 6 49 6 4 31 12 33 10 27 48 37 47 7 7 33 5 45 25 5 8 5 5 48 7 25 5 26 33 10 7 6 47 44 5
split_gain=345.637 52.4626 52.1434 66.1607 41.1251 37.7195 37.3086 36.5662 34.4063 34.5208 33.241 32.2279 23.8616 23.7733 23.0322 22.8682 22.5676 22.1876 21.4072 19.9784 19.4189 18.9839 18.865 17.071 16.8065 30.5568 22.8987 37.642 27.7179 19.8324 16.183 19.9251 16.0544 22.3735 15.5395 15.1704 15.0631 14.8884 14.7945 14.7182 14.3998 14.2949 14.1039 13.323 13.1405 32.4119 25.8999 18.9652 22.6 17.2804 12.887 12.256 12.215 12.21 15.1015 11.1207 11.1186 11.1129 11.1051 10.9708 10.9672 11.3728
threshold=5.3130006790161142 0.73214286565780651 10.69234609603882 1.0000000180025095e-35 3.735352754592896 0.65779134631156932 -1.0000000180025095e-35 0.66071426868438732 0.011775000020861627 37.457977294921882 0.41547574102878576 0.0002621470630401746 0.17125000059604648 1.4419555664062502 0.098319560289382948 1.3248686194419863 1.0000000180025095e-35 0.99556884169578563 0.011958367656916382 1.9686281085014345 0.035654412582516677 -21.541775703430172 31.376294136047367 0.32314705848693853 0.4101626873016358 3.6953498125076298 0.026488979347050193 1.4015250205993655 -0.0019126176484860478 -0.49535657465457911 6.8836324214935312 1.9045499563217165 1.0000000180025095e-35 6.4155166149139413 0.79595860838890087 0.95722192525863659 1.6709669232368471 0.95798605680465709 -22.093453407287594 0.87822937965393078 0.019449181854724888 0.70490923523902904 0.92749419808387767 0.00043555883166845893 1.0000000180025095e-35 1.8820000150299169e-05 -0.037552941590547555 0.26785714924335485 -1.9106176495552061 2.501529455184937 0.29294688999652868 0.88923770189285289 0.93688002228736889 0.00015220588102238255 1.4872550368309023 0.97065493464469921 0.67243117094039928 0.78572034835815441 -0.5408823788166045 1.5314200520515444 0.12467534095048906 -0.89679411053657521
decision_type=2 2 2 2 2 2 2 2 2 2 2 2 2 2 2 2 2 2 2 2 2 2 2 2 2 2 2 2 2 2 2 2 2 2 2 2 2 2 2 2 2 2 2 2 2 2 2 2 2 2 2 2 2 2 2 2 2 2 2 2 2 2
left_child=1 18 7 5 6 11 16 15 9 57 19 -4 13 -10 30 32 -3 -5 21 22 -19 -1 23 -9 25 26 28 -28 -20 50 31 -6 43 56 37 -32 -14 58 -39 40 -36 -16 -41 59 45 49 -47 48 -46 -23 -26 -21 -37 54 -31 -53 -34 -7 -8 -2 -27 -62
right_child=2 4 3 17 14 8 34 10 12 -11 -12 -13 36 -15 41 -17 -18 20 24 51 -22 44 -24 -25 29 60 27 -29 -30 53 35 -33 33 -35 39 52 -38 38 -40 42 -42 -43 -44 -45 47 46 -48 -49 -50 -51 -52 55 -54 -55 -56 -57 -58 -59 -60 -61 61 -63
leaf_value=0.0099662719743843255 -0.0091350342000522129 0.0071247202948834095 -0.042520755249935573 -0.041706901011208102 -0.0049950483385006695 0.0024367325704235409 -0.009748909187553275 -0.015069882960104083 -0.050958908931433212 0.028928658639861861 -0.0031169344755311748 -0.0045412503695275467 -0.001195541483120986 -0.017870333401214678 -0.0033623477329644616 0.0085482074223784676 0.039519131534222283 -0.035442295566541909 0.013007124042854142 -0.0029672496072055232 0.0048034493055609242 0.0049925257371954248 -0.049192485285399323 -0.002693097409491951 0.0053936648712640482 0.0047697867464172473 -0.026032078337143719 0.0071358568671806913 0.0052970885019102314 0.00034169262542133781 0.0051146141892206504 0.002998715713697757 0.0059510832581370667 -0.0075368352877368686 0.0095191227609961113 -0.040035034928666884 -0.019726256517059362 -0.011120696613778873 0.0054191985469744892 -0.0042199862410371089 -0.0060705537849360357 -0.031600970452636649 0.0073614639991320648 -0.00050839068333382014 -0.038692976407073074 0.0053704418339629396 -0.0022483423345457604 0.003219649803440082 -0.0023019971286112923 -0.0096299755837688291 -0.0012334425222312133 -0.01307321181720541 -0.012577551670509361 0.0051100892340348375 0.0092917731195475244 -0.00034794500112506727 0.038415843389779207 -0.0094948087967375878 0.0005911692952366588 -0.0022500642584715176 0.017681864530821923 -0.0041888063803563703
leaf_weight=223.49463775753975 535.14926807582378 45.774159714579582 54.905576214194298 90.141388148069382 1262.1126673966646 130.6016500890255 100.28106567263603 691.06907394528389 22.785664439201355 31.052107259631157 798.69777092337608 32.106692090630531 126.86361113190651 130.91027271747589 25.958081528544426 156.9267343133688 33.628065541386604 19.746163755655289 733.40166063606739 351.06136706471443 21.817021444439888 2240.0681473016739 12.592362031340597 118.58120715618134 325.06180259585381 279.86176589131355 45.778307750821114 89.06758126616478 989.7160303145647 1193.5744661837816 20.933326363563538 359.56276325881481 16.907662823796272 34.207017511129379 56.824856385588646 24.910842582583427 56.668660521507263 50.172412678599358 985.24714653193951 164.90256188809872 680.36661273241043 43.982666969299316 218.95754201710224 555.43535009026527 14.534387081861494 518.56416842341423 1766.427207633853 722.58160096406937 1512.3433256447315 74.143196955323219 1388.3175663650036 325.82719130814075 37.71500238776207 2578.9113857895136 196.969622194767 76.891658917069435 22.805879637598991 149.44907958805561 1210.6641833782196 344.17479158937931 21.654855147004128 378.89909203350544
leaf_count=820 2320 171 307 509 5312 521 431 3174 131 100 3322 137 526 609 109 580 87 107 2614 1474 90 8520 74 502 1242 1072 220 336 3760 4726 81 1406 63 147 210 139 266 218 3764 686 2874 235 830 2226 76 1990 7176 2796 6134 318 5584 1480 174 9842 726 316 62 657 4823 1412 74 1552
internal_value=-4.93909e-06 0.00169833 -0.0071597 -0.0138354 -0.000866582 -0.010294 0.000998504 -0.00572329 -0.0077717 -0.000559376 -0.00811338 -0.0287516 -0.0143951 -0.0230929 -0.0045932 -0.00231102 0.0212024 -0.0333592 0.0025911 -0.01064 -0.0146298 0.00137997 -0.0138794 -0.0132664 0.0036323 0.0056629 0.00765391 -0.00421085 0.00858605 0.00272391 -0.00389172 -0.00322004 -0.00344745 0.0100873 0.000528999 -0.0166996 -0.00700936 0.00191769 0.00460489 -0.00237398 -0.00485353 -0.0213578 0.00238035 -0.00415341 0.00109792 0.00201697 -0.000516403 -0.000779887 -0.00267547 0.00451879 2.45131e-05 -0.00708874 -0.0240041 0.00388803 0.00161739 -0.0106579 0.0251536 -0.00393099 -0.000204339 -0.00644922 0.000218526 -0.00295787
